/* Generated by netkit AOT compiler (lowered) — compile with -std=c++26 for firmware */

#if defined(__GNUC__)
#if defined(__ELF__)
#define NETKIT_AOT_FLASH_CONST __attribute__((section(".rodata"), aligned(8)))
#else
#define NETKIT_AOT_FLASH_CONST __attribute__((aligned(8)))
#endif
#else
#define NETKIT_AOT_FLASH_CONST
#endif

#include "mnist_cnn_aot.hpp"

#include "active_kernel.hpp"
#include "tensor_factory.hpp"

#include <array>
#include <cstring>
#include <span>

namespace netkit::aot::mnist_cnn {

namespace {

alignas(16) static const float kWeight0_src[288] = {
    -1.23875666f, -0.69398266f, -0.02692703f, 0.41041607f, -0.27342749f, -0.72224861f, 0.49344757f, 0.58389217f,
    -0.35603377f, -0.20347008f, 0.30585209f, 0.00955566f, -0.38450819f, -0.82036471f, -0.36479348f, -0.12418375f,
    0.31828874f, -0.00583420f, 0.18045472f, -0.11877782f, 0.18697909f, -0.16120656f, -0.21066016f, 0.32601544f,
    -0.52322537f, 0.34113967f, 0.06368290f, 0.13106804f, 0.42207104f, 0.22213304f, 0.48780894f, 0.31840637f,
    -0.35113376f, 0.17874676f, -0.13280472f, 0.87295556f, 0.00108314f, -0.00214847f, -0.50911975f, -0.79855210f,
    -0.01233486f, -0.03761900f, -0.15060942f, -0.53862584f, -0.78306574f, -0.12113450f, -1.16759586f, 0.70629531f,
    -0.30444780f, 0.17356004f, 0.11266240f, 0.52862418f, 0.65304542f, -0.62253338f, -0.56574404f, -0.28549883f,
    0.57372653f, -1.03547156f, 0.32759434f, 1.19482851f, -0.90546215f, -0.85541755f, 0.14123356f, -0.00626808f,
    -0.19498205f, -0.31013289f, -0.04007790f, 0.66632670f, 1.39726114f, -1.47839665f, -0.60195768f, -0.94597840f,
    0.33693194f, -0.23155682f, -0.10046707f, 0.94623405f, 0.16182861f, 0.08653409f, -0.42955640f, -0.12910601f,
    -1.09097052f, -0.27700874f, 0.23267211f, -0.28849453f, 0.42542407f, -0.93396372f, -0.05241169f, 1.08975017f,
    0.36849195f, -0.46938211f, 0.62541890f, -0.80246776f, -0.34123555f, -0.16009937f, 0.18272915f, -0.66845340f,
    -0.18635838f, -0.46150556f, -0.22749268f, 0.07717261f, -0.44846666f, -0.28964505f, 0.13817938f, 0.62584740f,
    0.55730969f, -0.21527782f, -0.23943457f, -0.55229867f, 0.08798090f, -1.01933324f, -0.65929884f, -0.22149238f,
    0.36760452f, -0.32402885f, 0.53818935f, 0.61937863f, 0.07532111f, -1.06718528f, -0.08310162f, 0.10978140f,
    0.43890050f, 0.50089753f, 0.20181589f, 0.28145942f, 0.36143824f, -1.34133124f, 0.16150331f, 0.14270820f,
    -0.70113856f, 0.58210349f, 0.02380109f, -0.17353401f, 0.28281298f, -0.76576096f, -0.59407711f, 0.22738537f,
    -0.68946087f, -0.11170994f, -0.85577452f, -0.00927616f, -0.10448834f, -0.37671193f, 0.15851997f, 0.55201542f,
    0.50843590f, 0.52567703f, 0.01570714f, -0.54268992f, 0.26730484f, -0.89544135f, -0.62573659f, -0.16906163f,
    0.87046069f, -0.28518212f, 0.59315336f, 0.66108048f, -1.08857501f, -0.54631758f, -0.42649823f, 0.24707864f,
    0.55287278f, -0.56000942f, -0.48794338f, -0.69780773f, 0.23868330f, -0.74736273f, 0.47693506f, 0.14456752f,
    -0.00859529f, 0.16809304f, 0.36568025f, -0.08875176f, -0.97174948f, 0.43997443f, 0.57048100f, -0.19437948f,
    -0.39908648f, 0.05116749f, 0.37495339f, 0.26727048f, 0.62775004f, 0.04847887f, -0.28035194f, -0.23526415f,
    -1.06558287f, -0.20653312f, 0.10258448f, 0.45216718f, 0.45841715f, 0.55528772f, -0.22350959f, -0.05820917f,
    0.18862996f, -0.85255802f, 0.19043934f, -0.76964098f, -0.25219992f, 0.45008317f, -0.35192609f, -0.67655098f,
    0.27009174f, -0.47656766f, 0.74337137f, -0.14589432f, 0.41303352f, 0.20790918f, 0.16083418f, -0.26051500f,
    -0.71409214f, 0.39984876f, -0.54502940f, -0.05977330f, -0.13988174f, 0.51327652f, 0.98725861f, -0.24908069f,
    1.21946871f, 0.72091502f, 0.15114580f, -0.13161859f, -0.20194577f, -0.28076568f, -1.25494230f, -0.64102906f,
    -0.43985981f, -0.21712433f, -0.34968320f, -0.82863128f, -0.64881223f, -0.16224556f, -0.21255514f, 0.93236130f,
    0.38177800f, 0.51290917f, 0.83803719f, -0.05489971f, -0.10425268f, 0.47634435f, 0.40796304f, -0.10764242f,
    -0.48907569f, 0.31390870f, 1.26805258f, 0.07399654f, 1.04623389f, 0.03875229f, -0.33298367f, -0.77581793f,
    -0.46571019f, 0.26301500f, -0.27943727f, 0.39392000f, 0.73169649f, -0.19401228f, -0.24358490f, 0.19274069f,
    0.38219398f, 0.03629487f, -0.41580474f, 0.12390363f, 0.61237669f, 0.41209054f, -0.73760575f, 0.39450598f,
    -0.51310581f, -0.11570676f, 0.59446061f, -0.34742785f, -0.40283105f, 0.94048518f, -0.67164451f, -0.38614279f,
    -0.08574725f, -0.68984872f, 0.76173371f, 0.63208938f, -0.63142735f, -0.33324185f, -0.14949033f, 0.16875270f,
    0.50920349f, -0.59712863f, 0.17131677f, 0.65683895f, -0.42014527f, -0.45862791f, -0.93482149f, -1.52749276f,
};

alignas(16) static const float kBias0_src[32] = {
    0.11657501f, 0.14876422f, -0.08350339f, -0.24401666f, -0.00600550f, -0.15046875f, 0.00249752f, -0.01292803f,
    -0.05995272f, -0.00103354f, 0.05569045f, -0.07402181f, -0.02151461f, -0.03215932f, 0.03380227f, -0.00056734f,
    -0.04351695f, 0.03433588f, -0.06657203f, -0.04698735f, -0.07892469f, 0.01999805f, -0.15415810f, -0.09198900f,
    0.10361283f, -0.01845002f, -0.29394606f, -0.07759836f, -0.29470646f, -0.16215384f, -0.00825009f, 0.05276138f,
};

alignas(16) static const float kWeight1_src[18432] = {
    -0.00573308f, -0.20519453f, 0.02163186f, 0.08668888f, 0.02110320f, -0.27256072f, -0.13377695f, -0.09552727f,
    0.14090548f, -0.09063509f, 0.24048081f, 0.11892819f, -0.21202709f, -0.32422477f, 0.15568155f, 0.20720342f,
    -0.04267347f, 0.01397353f, -0.08538914f, -0.11097651f, 0.28876826f, 0.33694336f, -0.14570421f, -0.21175729f,
    0.26344001f, -0.15884620f, -0.03980429f, 0.17510065f, 0.02069873f, -0.12327065f, -0.06030131f, 0.29471833f,
    0.05785773f, 0.11859839f, -0.03955365f, -0.24678965f, 0.07300696f, 0.05562881f, -0.16643667f, -0.16692926f,
    -0.10739432f, -0.10821551f, -0.02513806f, -0.12505387f, -0.05304889f, -0.37489191f, -0.18953761f, 0.11787643f,
    -0.05790316f, 0.06870646f, -0.10159585f, -0.03376278f, 0.00067172f, 0.03346745f, -0.07856880f, 0.08574516f,
    0.03229992f, 0.06231067f, -0.06728014f, 0.03144447f, -0.28036594f, -0.19831838f, -0.51461589f, -0.05088788f,
    0.25365716f, -0.08578686f, -0.35615876f, -0.35573518f, 0.00343171f, -0.08169179f, -0.23584342f, -0.00497692f,
    -0.26060122f, -0.05199309f, 0.11477931f, -0.41917759f, 0.11735804f, -0.13366602f, -0.04964278f, -0.08505709f,
    -0.11472255f, 0.20957790f, -0.20984054f, -0.15728727f, 0.01271374f, -0.21536919f, -0.27968720f, -0.02522024f,
    -0.01484568f, -0.00371533f, -0.13118280f, -0.01121687f, -0.28616449f, -0.31031829f, -0.30204076f, 0.10513465f,
    0.06567740f, 0.17397521f, -0.07791016f, -0.11567986f, 0.06451556f, -0.02337424f, -0.13023573f, -0.13512075f,
    -0.08876874f, -0.03591995f, 0.15087146f, -0.01903347f, -0.05310501f, 0.20688927f, -0.08224732f, 0.01352421f,
    0.01487273f, 0.11248469f, 0.18122685f, 0.05616009f, 0.06038626f, 0.20716982f, 0.03301184f, 0.09364374f,
    0.05722639f, -0.10790062f, -0.01364937f, -0.09037539f, 0.05164113f, 0.07024181f, 0.19608544f, 0.05934212f,
    0.04583367f, 0.12709996f, 0.08643238f, 0.20977440f, 0.01715752f, 0.05249057f, 0.00018911f, 0.07605726f,
    -0.01463094f, 0.02716504f, -0.09780561f, -0.02174139f, 0.12781596f, 0.21628526f, 0.03728562f, 0.05750365f,
    -0.03153826f, 0.02445889f, -0.00122150f, -0.08189265f, 0.02417090f, 0.22018224f, 0.04634650f, 0.05966369f,
    -0.16325949f, 0.06560670f, -0.03227130f, 0.09411952f, -0.04503125f, 0.02710173f, 0.17205557f, 0.02832593f,
    0.01107643f, 0.03433432f, -0.09097292f, 0.05409486f, -0.00169094f, 0.02367558f, -0.30749765f, -0.18079521f,
    0.00420344f, 0.01247375f, -0.04080088f, 0.00633607f, 0.14761740f, -0.19431378f, -0.04320295f, 0.07531463f,
    -0.06768756f, -0.11745366f, 0.17922464f, 0.06830167f, 0.08845384f, 0.10892551f, 0.09101149f, 0.02561463f,
    -0.22146231f, -0.00260897f, 0.09053719f, -0.02818510f, 0.04150525f, -0.05938205f, -0.13974294f, 0.03715545f,
    -0.03967695f, -0.07527950f, -0.10288340f, -0.00995064f, 0.02977076f, -0.03823415f, 0.04851554f, 0.12129085f,
    -0.26355377f, 0.03752095f, -0.32656363f, -0.03242510f, -0.02708658f, -0.18016967f, -0.15008192f, 0.12393712f,
    -0.51146108f, -0.08908714f, 0.02132181f, -0.00925848f, -0.15838611f, -0.17882237f, 0.17145872f, -0.06404988f,
    -0.26753038f, 0.16641042f, -0.05751231f, -0.17838757f, 0.05885382f, 0.00442110f, 0.16928339f, -0.00978609f,
    0.06932890f, -0.27056694f, 0.11274724f, 0.14811623f, 0.19285965f, 0.12846895f, 0.21441284f, 0.01866321f,
    -0.12287401f, 0.15085162f, -0.05781428f, -0.03661745f, 0.04273918f, -0.15424547f, -0.10023084f, 0.01722814f,
    -0.28995636f, -0.07072610f, -0.04894888f, -0.08009943f, -0.15024045f, 0.00564648f, -0.09003156f, -0.11307967f,
    -0.16956665f, -0.02475850f, 0.04655243f, -0.15905561f, 0.08924085f, 0.13601387f, 0.27032137f, -0.28793311f,
    -0.22529587f, -0.03281892f, 0.10253508f, 0.08364223f, -0.13513048f, -0.07257752f, -0.02378243f, 0.02805436f,
    -0.13662837f, -0.02723846f, -0.07052369f, -0.08660236f, -0.09235836f, -0.28802508f, 0.10634486f, -0.08214075f,
    -0.11098955f, -0.07251770f, 0.08049336f, 0.01929930f, -0.23203310f, -0.11102617f, 0.05622520f, -0.00738473f,
    -0.09761953f, 0.02701961f, 0.17793958f, -0.18580167f, -0.04600020f, -0.03848644f, 0.04515649f, 0.03506276f,
    0.12373704f, -0.01247496f, -0.13560049f, -0.08535253f, 0.00272912f, 0.22345065f, -0.05512499f, -0.35695177f,
    -0.10318446f, 0.04432391f, -0.08072452f, 0.01430224f, 0.17433517f, 0.16169757f, -0.02198366f, -0.01934477f,
    0.12244172f, -0.10743638f, 0.10525642f, 0.11274191f, 0.05764019f, -0.29500160f, 0.10325549f, 0.15756696f,
    0.02487038f, 0.30555907f, -0.09722134f, 0.05141216f, -0.01646046f, -0.09557373f, 0.00677006f, 0.01007470f,
    0.04619767f, -0.08614621f, -0.16014005f, -0.04922497f, -0.12284774f, 0.02731588f, -0.28472793f, 0.14342508f,
    0.21666181f, -0.10302825f, -0.26307184f, 0.08515244f, -0.03291267f, 0.23456906f, -0.04001429f, -0.14603800f,
    0.01591054f, -0.13151117f, 0.02038496f, -0.15423416f, -0.07361250f, -0.07904283f, 0.04180972f, 0.08844507f,
    0.22755581f, 0.17740905f, -0.16348925f, -0.00664276f, 0.05778785f, -0.02847072f, -0.14703609f, 0.05487972f,
    -0.36037391f, -0.31440526f, 0.03753524f, 0.03667902f, -0.05862045f, -0.07435983f, 0.15731262f, 0.01555657f,
    -0.01195713f, -0.00097682f, 0.12476391f, -0.14834002f, 0.20867075f, 0.09259813f, 0.27599233f, 0.12846316f,
    0.05189428f, -0.46596587f, 0.13317907f, 0.05356178f, 0.23453106f, 0.16855678f, 0.07037365f, 0.02844654f,
    0.02430556f, 0.00562940f, 0.04524747f, 0.07333533f, 0.05777921f, 0.11029714f, -0.11148484f, 0.11850791f,
    -0.01383417f, -0.11647883f, -0.02342740f, 0.03747439f, 0.06033985f, -0.03690928f, -0.04412926f, 0.28153184f,
    0.05751974f, -0.11713179f, 0.10186317f, 0.15632354f, -0.10774516f, -0.07384692f, -0.12368739f, -0.24477401f,
    0.16367060f, -0.11040171f, -0.17562032f, -0.02215692f, 0.18913510f, 0.01130729f, 0.06352255f, -0.05348615f,
    0.20673223f, -0.05536885f, -0.01254505f, 0.16136952f, -0.11130758f, 0.01897315f, -0.19393829f, 0.30702996f,
    -0.15957646f, -0.26848310f, 0.15424758f, -0.09417249f, -0.17242731f, -0.03073033f, 0.16055280f, -0.03220695f,
    0.13583051f, -0.00369201f, 0.18008088f, -0.17905468f, -0.03715868f, -0.06410228f, 0.06276151f, -0.04389933f,
    0.04083736f, 0.02698992f, 0.07188522f, -0.07251981f, -0.02117370f, 0.13744316f, -0.17554115f, -0.00494474f,
    0.13261025f, -0.16406099f, -0.00578757f, 0.05392165f, -0.04168504f, 0.00549527f, -0.06357025f, 0.12182913f,
    -0.31542021f, -0.39239833f, 0.02770716f, 0.10153484f, -0.07012067f, -0.09373897f, 0.03098198f, -0.11309647f,
    0.00698612f, -0.02139701f, -0.20690401f, -0.14043662f, -0.31147075f, -0.22039904f, 0.05987934f, -0.05937899f,
    0.21552671f, -0.11973286f, 0.06021547f, -0.18694517f, -0.15862383f, 0.06701657f, -0.02801586f, -0.04394218f,
    -0.22872263f, -0.17489444f, -0.04598455f, -0.11775415f, -0.01344716f, 0.06142573f, 0.15040115f, -0.11245114f,
    0.04111264f, 0.03433119f, -0.09710970f, -0.10139627f, -0.01083937f, 0.16560604f, -0.04625113f, 0.04471831f,
    0.05526382f, 0.06454439f, -0.00381358f, 0.10453048f, 0.23786113f, -0.07176035f, -0.03263881f, -0.24166664f,
    -0.10114607f, -0.13614048f, -0.01803509f, 0.15633005f, -0.18795246f, -0.10004355f, -0.08569749f, -0.05721148f,
    -0.29631793f, 0.07977750f, -0.11014111f, 0.07626540f, -0.13928278f, -0.04246596f, 0.01494092f, -0.20147777f,
    0.26717508f, -0.09290455f, 0.13987803f, -0.06280366f, 0.01341524f, 0.05907405f, 0.10918821f, 0.10180292f,
    -0.10434490f, 0.12926301f, 0.04841404f, 0.05552859f, 0.11018501f, 0.18877044f, -0.05669107f, -0.36101124f,
    -0.13939723f, -0.10069317f, -0.27274096f, -0.03028850f, -0.03407804f, -0.03690769f, -0.07227723f, -0.05949164f,
    -0.09072602f, -0.02433134f, -0.14308348f, -0.16957596f, 0.14824647f, -0.20239659f, 0.23671490f, -0.03747990f,
    0.06870147f, -0.17622629f, 0.06127288f, -0.07986181f, 0.17156985f, -0.22730617f, 0.18950206f, 0.40525889f,
    0.00779122f, 0.00809194f, -0.17784400f, -0.12393773f, -0.01628373f, -0.11925416f, 0.15604317f, -0.36520791f,
    -0.06338357f, 0.31205186f, -0.13586786f, -0.04031445f, -0.25809196f, -0.02485391f, -0.16342758f, -0.29905018f,
    -0.08372450f, -0.09397008f, -0.08307283f, -0.04147201f, -0.10425313f, -0.01855137f, 0.37510359f, -0.19008388f,
    0.04314258f, -0.18731022f, 0.01726696f, 0.10547390f, 0.07506517f, -0.07310493f, 0.09696845f, -0.11053726f,
    0.01169021f, -0.01312960f, -0.15198116f, -0.02628013f, -0.09144931f, -0.22033133f, -0.27328777f, -0.36349645f,
    0.16096701f, -0.00555563f, -0.08780356f, -0.12716538f, -0.17136389f, -0.10492037f, -0.06181579f, -0.16211736f,
    0.09016701f, -0.18693550f, -0.02720250f, 0.09477350f, 0.04365681f, 0.08106443f, -0.19122808f, -0.04223923f,
    -0.06751360f, -0.16978596f, 0.10877303f, 0.08604030f, 0.01426481f, 0.03490665f, -0.08924429f, 0.14535645f,
    0.14671360f, -0.00707188f, 0.05145064f, 0.05250820f, 0.03412054f, 0.12861711f, 0.26800483f, 0.35043898f,
    -0.01329206f, -0.16816579f, 0.07621390f, 0.08262178f, -0.01457886f, -0.08720309f, -0.02932636f, 0.02874502f,
    -0.10035291f, 0.07636476f, 0.03686072f, -0.00488465f, 0.08345125f, 0.02582266f, -0.02758863f, 0.02774762f,
    -0.28403908f, 0.15161562f, 0.04868532f, 0.09260105f, 0.04631708f, 0.03325372f, -0.22061174f, 0.01918393f,
    0.03247383f, -0.05258248f, -0.27877891f, 0.01638330f, 0.01564348f, 0.03047548f, 0.07305353f, 0.31832460f,
    0.05138309f, -0.15355726f, 0.29078779f, -0.07005832f, 0.02851422f, -0.02317340f, 0.09542175f, -0.06785528f,
    -0.03684029f, 0.18482700f, 0.02101244f, -0.04228047f, 0.13353735f, 0.12932907f, 0.10975181f, 0.09751516f,
    0.00649046f, -0.04092481f, 0.10700426f, -0.02211528f, 0.02955360f, -0.13494153f, 0.26750296f, 0.40167949f,
    -0.14609961f, -0.10283534f, -0.05761337f, -0.19917206f, -0.34691015f, -0.29123017f, -0.21574442f, -0.12913521f,
    0.13430364f, 0.35218734f, -0.07849186f, -0.22611271f, -0.14935644f, -0.13687563f, -0.21391916f, -0.18349306f,
    -0.03490933f, -0.21368137f, -0.04448070f, -0.07243470f, -0.11797798f, 0.10154860f, 0.14427991f, -0.14949332f,
    -0.06108271f, -0.17266038f, 0.21102604f, 0.15203960f, -0.07224647f, -0.06700920f, 0.38789934f, 0.10670176f,
    -0.04281703f, -0.18190399f, 0.18107003f, 0.16828758f, 0.03268944f, -0.42359775f, 0.05321391f, -0.03983181f,
    0.09848902f, -0.01947330f, 0.09273087f, 0.00556901f, -0.00768150f, 0.10188222f, -0.09866392f, -0.07951935f,
    0.24270371f, 0.02657095f, 0.05254263f, -0.08478699f, 0.12810241f, -0.03348887f, 0.29294059f, 0.04820348f,
    -0.41270265f, -0.07647365f, -0.04168636f, 0.01869296f, 0.12484043f, -0.02882277f, -0.07674059f, -0.08198921f,
    0.05043326f, -0.15062423f, -0.00086734f, 0.17338181f, -0.20713405f, -0.15725462f, -0.18360592f, 0.04154369f,
    -0.02150959f, -0.05658938f, 0.00313883f, -0.09490041f, 0.02874132f, 0.01181870f, -0.07327358f, -0.18525690f,
    0.21578358f, -0.08710989f, -0.09094288f, -0.03494950f, 0.00601711f, -0.22852090f, 0.33851358f, 0.19987382f,
    0.25519910f, 0.14504671f, -0.28625280f, -0.20937170f, -0.08592627f, -0.05146519f, -0.12505221f, -0.18076721f,
    -0.17211166f, 0.10380346f, -0.08731084f, -0.10984797f, 0.19658454f, -0.01700249f, -0.06946651f, -0.14552185f,
    -0.26455459f, 0.36902755f, -0.03360131f, 0.22195892f, -0.17061067f, -0.26257455f, -0.00612534f, 0.09648193f,
    -0.35004696f, 0.11015815f, -0.12822002f, 0.00735578f, -0.23121785f, -0.14879280f, -0.31536472f, -0.20758724f,
    0.24218607f, 0.19444467f, -0.07914317f, -0.18944266f, -0.01062761f, 0.05756246f, -0.14592101f, 0.09859832f,
    -0.36252967f, -0.08978897f, -0.18425284f, 0.00357396f, 0.17072301f, -0.20335652f, -0.42640999f, 0.00928180f,
    0.02785362f, 0.37595883f, -0.26465183f, 0.13582090f, -0.06261922f, -0.34185144f, -0.23800538f, 0.00903293f,
    -0.00568408f, 0.12858063f, -0.23788850f, 0.40084898f, -0.22135104f, -0.24010693f, 0.03972387f, -0.21476267f,
    0.10378316f, 0.02346867f, -0.01954490f, -0.18325847f, -0.02053425f, 0.04538471f, -0.19502002f, 0.19604391f,
    0.05651518f, 0.01562362f, -0.02230828f, 0.08520415f, 0.05318446f, -0.28329170f, -0.44017267f, -0.01313931f,
    0.02289895f, -0.02149168f, -0.14093199f, -0.17019713f, 0.16598941f, -0.06936404f, -0.11668055f, 0.07277827f,
    0.34738404f, 0.44412622f, -0.21223113f, 0.28789553f, -0.23789622f, -0.29124513f, -0.28292638f, 0.20149276f,
    -0.35833475f, -0.20222746f, 0.08594794f, -0.00766872f, 0.22174819f, 0.11696812f, -0.07876375f, -0.22634439f,
    0.15657319f, 0.09490638f, -0.09502031f, -0.03305659f, -0.13368480f, 0.28986287f, 0.12646683f, 0.22953908f,
    0.00511190f, -0.04575662f, 0.17680292f, 0.00476210f, 0.02566360f, 0.02952616f, 0.08931871f, 0.06872965f,
    -0.53810692f, -0.04181899f, 0.07649872f, -0.22807108f, -0.04587897f, 0.13598980f, -0.06562486f, -0.00681963f,
    -0.27064142f, -0.17930619f, -0.00237893f, 0.01944498f, 0.08423647f, 0.11988436f, -0.24921432f, -0.16933957f,
    0.18935606f, 0.16173680f, 0.00073433f, 0.00194079f, 0.04078927f, 0.25418714f, 0.33252838f, 0.14718309f,
    -0.03431812f, -0.35290775f, 0.03969769f, 0.19898812f, 0.15999953f, 0.13004914f, 0.09795374f, 0.05445085f,
    0.20923427f, 0.22217447f, -0.12776105f, 0.15009131f, -0.09933403f, 0.01271222f, -0.17228465f, -0.03989516f,
    -0.26130727f, -0.18664956f, 0.11960211f, -0.02164682f, -0.08674417f, -0.06936168f, -0.05118886f, -0.29451910f,
    0.00558479f, -0.10820993f, 0.11654761f, 0.04327747f, -0.09663051f, 0.42492691f, -0.06970712f, -0.00016302f,
    0.28769481f, 0.04509120f, 0.06297654f, 0.06685223f, 0.05818237f, 0.15843105f, 0.16360240f, -0.01342298f,
    0.05346386f, -0.13652775f, -0.14616758f, -0.06191165f, -0.01138203f, 0.07910234f, 0.01202864f, 0.06156479f,
    -0.54159105f, -0.44652325f, -0.03330255f, 0.21441261f, 0.26875955f, 0.02625799f, -0.03692791f, 0.17598943f,
    0.10094296f, 0.11557733f, -0.02360969f, -0.20043136f, -0.09296164f, -0.05244706f, 0.20351671f, -0.28341034f,
    0.02876546f, -0.26752937f, -0.04420293f, -0.10412034f, 0.01030575f, 0.01082561f, -0.23615995f, -0.05634864f,
    -0.37138265f, -0.02418806f, 0.04733878f, 0.00221377f, -0.05894352f, 0.01025635f, -0.01366646f, -0.19419311f,
    -0.43968168f, -0.15483133f, -0.03988220f, 0.06520607f, -0.09122032f, 0.18780489f, -0.29597908f, -0.21891440f,
    0.05911523f, 0.05253454f, 0.02224774f, -0.13576017f, -0.16759799f, -0.10253293f, 0.00961780f, -0.22133017f,
    0.24398805f, -0.26607111f, -0.12371254f, 0.12829770f, 0.22360437f, -0.17759691f, 0.02656589f, 0.11882817f,
    -0.31934080f, 0.00374225f, -0.02203176f, 0.05799586f, -0.06549883f, 0.03249892f, -0.32783383f, -0.33334741f,
    -0.16225284f, -0.12510084f, 0.05145073f, -0.14934181f, 0.02057789f, 0.09980888f, 0.20026310f, -0.16985078f,
    -0.07801459f, -0.04431484f, 0.04813282f, -0.18135035f, -0.04014055f, 0.38461167f, 0.06276522f, 0.11555295f,
    0.01733736f, 0.24421659f, 0.12656276f, -0.01053689f, 0.15219082f, 0.17095074f, 0.02726177f, 0.03585426f,
    -0.16229129f, 0.08379820f, -0.00056934f, 0.27453852f, -0.15440343f, 0.17326623f, -0.05534093f, -0.00040069f,
    -0.16366047f, -0.14405587f, -0.13904555f, 0.05130817f, -0.04767631f, -0.19758010f, 0.20835036f, 0.07910745f,
    -0.21209624f, 0.09581343f, -0.18283334f, -0.01888992f, 0.13826725f, -0.26269266f, -0.11805025f, -0.43367505f,
    0.18133236f, 0.14643981f, -0.37703094f, -0.09674238f, 0.06118831f, -0.16927604f, -0.09540498f, -0.21791929f,
    -0.04998730f, 0.00832903f, 0.13470390f, -0.03100502f, -0.01707057f, 0.04809723f, -0.04371983f, -0.46129584f,
    -0.01229006f, -0.15282471f, -0.10453864f, -0.02136185f, 0.03808154f, 0.07501455f, 0.09498755f, 0.22317690f,
    0.13992393f, 0.08756028f, -0.25805140f, 0.05495241f, 0.23354138f, -0.06558967f, -0.12447391f, -0.35719427f,
    -0.03622242f, 0.15722297f, -0.10011902f, 0.25077537f, -0.03323436f, -0.47396988f, 0.08727218f, 0.01218167f,
    -0.03097915f, 0.10602831f, -0.05541019f, -0.04920873f, 0.11315399f, 0.00344018f, -0.02871280f, -0.15680404f,
    -0.22170365f, -0.22127336f, 0.07465626f, -0.07633323f, 0.06104053f, 0.04687994f, -0.07640625f, 0.03103906f,
    0.16329721f, -0.04821822f, 0.04240543f, -0.01001770f, -0.09412436f, 0.15410401f, -0.24034947f, -0.01212212f,
    0.17540692f, -0.21804789f, 0.03796956f, 0.00262430f, 0.17247173f, 0.06037347f, -0.02929479f, 0.03718170f,
    -0.04452476f, 0.24231461f, 0.16567881f, 0.14052400f, 0.03291870f, 0.03754290f, -0.07566258f, 0.14287876f,
    -0.34339994f, -0.13438985f, -0.10345899f, 0.02278631f, 0.00228530f, 0.02573221f, -0.16755919f, 0.13220862f,
    -0.04133549f, -0.07084900f, -0.33337271f, 0.14049250f, -0.26955062f, -0.09096693f, -0.15993269f, -0.01697743f,
    -0.01215360f, -0.08230743f, -0.07116105f, -0.18444943f, -0.06713413f, -0.34761530f, 0.06175864f, -0.01863571f,
    -0.02432814f, -0.45169345f, -0.04667861f, 0.17317085f, -0.02864314f, -0.17713492f, -0.15069169f, -0.01838457f,
    0.03169949f, 0.00213343f, -0.08190405f, 0.02076142f, -0.05881966f, -0.02328441f, 0.02589143f, -0.13155620f,
    0.19530338f, -0.16519400f, -0.05360902f, 0.17725930f, 0.01407189f, 0.00375024f, -0.03136143f, -0.10384259f,
    -0.16849010f, 0.09918551f, -0.10836099f, -0.03863572f, 0.03979749f, 0.23226441f, -0.20689979f, 0.03557637f,
    0.14730099f, 0.11789014f, 0.12777783f, 0.08226378f, 0.10112552f, 0.12142270f, 0.13737936f, -0.07484606f,
    0.02992613f, -0.07610767f, -0.02540424f, 0.02412641f, 0.03742715f, -0.01691065f, -0.17995085f, -0.02107880f,
    0.03538733f, 0.00386609f, -0.07804332f, 0.04263142f, -0.06113546f, -0.04423174f, 0.00972136f, -0.19015190f,
    -0.02731454f, -0.07749764f, -0.08428881f, -0.07563361f, 0.27075219f, 0.05222509f, -0.14162554f, 0.08993781f,
    -0.06100236f, 0.24238235f, 0.07768683f, -0.05717186f, 0.06666862f, -0.12646148f, -0.04567838f, -0.26353231f,
    0.02678539f, -0.04477419f, -0.16475475f, 0.03601364f, -0.07281685f, 0.02538758f, -0.15461917f, 0.14931974f,
    0.04891545f, 0.03864246f, -0.07441041f, 0.06477270f, 0.07800210f, -0.00767164f, -0.05158845f, -0.07805371f,
    -0.03255835f, 0.12772803f, -0.26924416f, 0.01771793f, -0.01846392f, -0.09042171f, 0.08096161f, -0.00985433f,
    -0.26961568f, -0.09162899f, 0.06811874f, 0.08138790f, 0.06064939f, -0.05094218f, 0.10100076f, -0.11532746f,
    0.01085654f, -0.06081927f, -0.00604007f, -0.05789077f, 0.07147794f, -0.03156357f, -0.02958400f, 0.13899417f,
    -0.03061510f, -0.02622749f, 0.12370767f, 0.28355893f, -0.16816886f, -0.20357648f, 0.03172958f, -0.16473086f,
    0.16369824f, 0.14752732f, -0.23869108f, -0.23444289f, -0.08731651f, 0.00294272f, -0.10535521f, -0.12924382f,
    0.02447633f, 0.12644944f, 0.05194203f, 0.13152726f, -0.07733136f, 0.03492076f, -0.18836498f, -0.11413322f,
    -0.03101247f, -0.12883878f, -0.11292474f, -0.06907390f, -0.01570002f, -0.24918261f, 0.05893152f, 0.26721954f,
    0.11768050f, -0.17804618f, -0.02046417f, 0.08509872f, -0.01010872f, 0.02997206f, -0.20891929f, -0.12635997f,
    -0.14418690f, 0.21109866f, -0.36418918f, -0.03112879f, -0.29630336f, -0.12005273f, -0.19982541f, -0.25803280f,
    0.01807328f, 0.01494261f, 0.04534374f, 0.00665417f, -0.02577811f, -0.17340817f, -0.31964299f, -0.41033939f,
    -0.05845534f, -0.17482831f, 0.12041567f, 0.08518017f, -0.04513507f, -0.15922628f, -0.12936546f, -0.02514057f,
    0.01021806f, -0.04927394f, -0.17452623f, -0.11345080f, -0.03978541f, 0.10398853f, -0.00522707f, -0.07620080f,
    0.01072442f, -0.03648314f, -0.02391905f, 0.10056938f, -0.11953358f, -0.00466752f, -0.01312323f, 0.01376693f,
    -0.07613214f, 0.02361230f, 0.12746280f, -0.01880116f, 0.04959535f, 0.09772566f, -0.09743360f, 0.00100954f,
    0.10733390f, -0.09437724f, -0.07334153f, -0.11292773f, 0.10529310f, 0.12373845f, -0.12230163f, -0.21722475f,
    0.13024247f, 0.18771741f, -0.21197318f, -0.03371724f, 0.10382938f, -0.01189054f, 0.27159265f, 0.13210605f,
    0.08285564f, 0.11985955f, 0.00722415f, 0.33978823f, 0.13305642f, -0.18612157f, 0.14850385f, 0.08545050f,
    -0.18638939f, 0.10259614f, -0.06096815f, -0.16804086f, 0.13775353f, -0.03536949f, -0.16206384f, -0.50901109f,
    -0.11203913f, 0.04999865f, -0.23072639f, -0.22220945f, -0.14052427f, -0.10770233f, 0.19241962f, -0.04184189f,
    -0.20520018f, -0.11571391f, -0.06404669f, -0.06091196f, -0.02708199f, -0.01453001f, -0.03883012f, -0.11338612f,
    0.00769628f, 0.04644119f, -0.10017700f, -0.36248437f, -0.17027904f, -0.07134952f, -0.18374686f, -0.00743382f,
    -0.07906621f, -0.04408075f, -0.19202496f, -0.01409574f, 0.02947259f, -0.05418859f, -0.07055160f, -0.29872143f,
    -0.07524435f, -0.23825130f, -0.04707268f, -0.02280177f, -0.01529739f, 0.01815096f, 0.02461490f, -0.02261147f,
    0.02935136f, -0.04093817f, -0.18334016f, 0.07085783f, -0.10347787f, 0.14794815f, -0.22366296f, -0.22521771f,
    -0.04949377f, -0.18631317f, -0.16666813f, -0.14185302f, -0.18701005f, -0.17323317f, -0.11604881f, -0.20890848f,
    0.11013057f, -0.13137786f, 0.07981461f, -0.04986557f, 0.25802109f, 0.03554005f, -0.18920964f, -0.16199946f,
    -0.13506639f, -0.21506299f, 0.06549153f, -0.06049390f, 0.05404698f, -0.16015732f, -0.04089952f, -0.01183526f,
    -0.10495949f, -0.03482809f, -0.10130890f, -0.02506010f, -0.06352601f, -0.29843992f, 0.03516026f, -0.28746161f,
    -0.12660165f, -0.26190293f, -0.26495954f, -0.21923980f, -0.12775292f, 0.12495175f, -0.06117789f, -0.20834117f,
    -0.10357009f, 0.04532667f, -0.13790970f, -0.23144683f, -0.03002410f, -0.16775185f, -0.06160669f, -0.04524313f,
    -0.12984192f, -0.11478385f, -0.19273089f, 0.03264375f, -0.06610207f, -0.04560422f, -0.26817957f, -0.18959686f,
    0.00425221f, -0.06296561f, -0.12632316f, 0.00433034f, -0.01826438f, -0.03461860f, 0.09306762f, 0.05843483f,
    -0.03774942f, -0.14707649f, -0.03539228f, 0.05027252f, 0.09979060f, -0.00999205f, 0.00303985f, -0.07655865f,
    0.01285240f, 0.00279296f, -0.11076638f, 0.01060878f, 0.09994112f, -0.09107682f, -0.00824384f, -0.02810782f,
    -0.10057691f, 0.00075033f, 0.04878222f, 0.00234552f, -0.12313489f, -0.12102413f, 0.16411637f, 0.10593357f,
    -0.07166809f, -0.12705912f, -0.14132454f, 0.08073357f, 0.04561770f, -0.10763741f, -0.00348570f, -0.09273782f,
    0.23786312f, -0.00876078f, -0.08703712f, -0.10947144f, -0.09935828f, -0.09124287f, -0.04089956f, -0.00752650f,
    -0.00386574f, -0.06938040f, 0.05029098f, 0.15523261f, 0.01400394f, 0.01210953f, 0.03586746f, -0.07640471f,
    0.09314429f, -0.11312094f, -0.12893489f, -0.11087015f, -0.02640110f, 0.08820788f, -0.06641020f, -0.09953927f,
    -0.04703912f, -0.11079913f, -0.02911424f, 0.11140180f, 0.03254291f, -0.10811663f, -0.21222644f, 0.05239562f,
    0.13289644f, -0.05512719f, 0.02121819f, 0.10670912f, -0.00516720f, -0.06206739f, 0.02407661f, 0.07718715f,
    0.00837005f, 0.05454948f, 0.10090338f, 0.04203339f, 0.02619414f, -0.08113737f, 0.16026507f, -0.30353042f,
    -0.07775692f, -0.21051946f, -0.07553502f, 0.10082766f, 0.04929496f, 0.11232477f, -0.06857654f, -0.20566438f,
    -0.31158778f, -0.01821186f, 0.09773574f, 0.05222354f, -0.03502466f, -0.27948582f, -0.23236582f, -0.29034537f,
    -0.06939583f, -0.12129800f, -0.10656304f, 0.09055199f, 0.00586036f, 0.00635020f, -0.10521431f, 0.06578127f,
    -0.05189192f, -0.03058021f, 0.00432273f, 0.00920165f, -0.01487549f, -0.14422867f, 0.02761535f, 0.13716274f,
    -0.20556942f, -0.18055512f, -0.02884226f, -0.02007823f, -0.02537046f, 0.00203987f, 0.15494776f, 0.02479680f,
    -0.28594178f, -0.14698224f, -0.22244750f, -0.14196856f, -0.21390536f, -0.18202884f, -0.19715042f, -0.14587095f,
    -0.02641609f, 0.20361409f, -0.05047375f, -0.02807307f, -0.22803323f, -0.21712236f, -0.07518512f, -0.00932771f,
    -0.25372267f, -0.04402616f, 0.10303763f, 0.06278072f, 0.00794326f, -0.10242975f, 0.11996492f, -0.17830613f,
    0.07999450f, -0.13547099f, -0.12194483f, -0.14707828f, 0.05688244f, -0.13392085f, -0.05510139f, -0.08299549f,
    -0.01895182f, -0.22767632f, -0.13391939f, 0.05756871f, -0.01453712f, -0.11291403f, -0.10363147f, -0.29765016f,
    -0.09634001f, -0.03610399f, 0.04545049f, -0.25837779f, -0.15762796f, -0.11116170f, 0.05040738f, -0.08922280f,
    0.02087497f, -0.16969034f, 0.15120257f, -0.29087606f, 0.07915720f, 0.01371225f, 0.02102138f, -0.35557696f,
    0.05064168f, -0.08811709f, -0.03665460f, 0.14074704f, 0.02439622f, -0.23705082f, 0.08813330f, 0.09320378f,
    0.01251002f, -0.11696461f, 0.02826187f, 0.00876343f, 0.03584014f, -0.12912996f, -0.22377177f, -0.22766083f,
    0.00426026f, -0.05821308f, -0.10958079f, 0.01303441f, -0.20968962f, -0.06150129f, -0.00458483f, -0.08481573f,
    -0.06824754f, -0.00550234f, 0.17457618f, -0.04291664f, 0.08826267f, 0.00278408f, -0.02082745f, -0.09626591f,
    0.28598160f, 0.08561493f, -0.07380192f, -0.21734025f, 0.03513864f, 0.00762085f, 0.10119998f, 0.11931681f,
    -0.10893045f, -0.11541003f, -0.33112052f, -0.02256595f, 0.15399334f, -0.02165200f, -0.16028720f, -0.11996539f,
    -0.10911392f, 0.28300706f, -0.29278877f, 0.34834412f, 0.01586384f, -0.26157936f, -0.29878762f, -0.00030008f,
    -0.22981007f, -0.04152018f, -0.24321321f, 0.04993218f, -0.04433041f, -0.26913330f, -0.18693186f, -0.16144854f,
    0.18715538f, -0.00325123f, -0.05018687f, -0.32074144f, -0.00282947f, 0.09151276f, 0.13667892f, 0.13652240f,
    -0.20645179f, -0.17619696f, -0.29384342f, -0.31346765f, -0.12164409f, -0.14667085f, 0.00410688f, -0.23536170f,
    -0.10006553f, 0.23697174f, -0.03237866f, -0.01155291f, -0.13197333f, -0.07703859f, -0.12773946f, 0.01038719f,
    -0.07887453f, -0.09434097f, -0.27265453f, 0.03694323f, -0.08298059f, 0.02839162f, -0.20611733f, 0.18061864f,
    -0.16440327f, -0.02248387f, 0.08382551f, 0.19733568f, 0.12301981f, 0.06648351f, 0.10821595f, 0.21112129f,
    -0.13319515f, -0.32535881f, 0.00401279f, 0.04929318f, -0.22280020f, -0.15968212f, -0.16443916f, 0.08957140f,
    0.17601708f, -0.01787825f, 0.33337644f, -0.06629909f, -0.00712102f, -0.04461404f, 0.09205586f, -0.12094240f,
    -0.13450530f, -0.04817723f, -0.00619000f, -0.06478078f, 0.14012408f, 0.32234415f, 0.34364161f, -0.09084032f,
    0.37220156f, -0.00112124f, -0.07539580f, -0.00924358f, 0.13155240f, 0.15853827f, -0.17492972f, -0.15848938f,
    -0.02416405f, 0.05172608f, -0.10415097f, 0.11133653f, 0.23738754f, -0.01302516f, -0.12240411f, 0.06507370f,
    -0.10394655f, 0.08365889f, -0.07593873f, 0.20744999f, -0.04480469f, -0.18537211f, 0.08709004f, 0.08842871f,
    -0.20606719f, 0.01181612f, 0.07175951f, -0.07466853f, 0.05141795f, -0.05070417f, -0.13086821f, -0.32175702f,
    0.41739461f, 0.14461906f, -0.10811394f, -0.23444858f, 0.11668441f, -0.01016826f, -0.01945497f, 0.04233943f,
    0.00950318f, 0.16379586f, -0.14447181f, 0.00688808f, 0.13813695f, 0.30365196f, 0.02748175f, -0.35624242f,
    -0.22394815f, 0.18103915f, -0.26792413f, -0.02366206f, -0.18808961f, -0.33419612f, -0.24921274f, -0.02380199f,
    -0.12694199f, -0.12191277f, -0.30473700f, -0.33644333f, -0.12731798f, -0.14011365f, -0.07928348f, -0.00840164f,
    0.18254849f, -0.27917853f, 0.02154080f, -0.02141581f, 0.01415466f, -0.21136351f, 0.43823174f, 0.20784450f,
    -0.16208464f, -0.07755671f, -0.19628336f, -0.10120600f, -0.29769027f, -0.38438120f, -0.00785733f, -0.17189519f,
    0.02392161f, 0.08147409f, -0.08787751f, -0.12537681f, -0.44368964f, 0.19716740f, -0.10717589f, -0.20071425f,
    -0.10753175f, -0.35922101f, -0.06708264f, -0.03288616f, 0.08893631f, 0.02851480f, 0.18409328f, -0.07061836f,
    -0.06151255f, 0.02948206f, 0.10748358f, 0.31829953f, -0.18565111f, -0.02015267f, 0.19087747f, 0.11907026f,
    0.10993142f, 0.16137022f, 0.12914331f, 0.03445100f, -0.03284009f, -0.14867704f, 0.17248216f, 0.16472702f,
    -0.14087960f, 0.02511699f, -0.06081764f, -0.04314571f, 0.03353749f, 0.08203903f, -0.02615855f, 0.02699615f,
    -0.16209273f, 0.17802282f, 0.13325882f, -0.25090465f, 0.10495394f, 0.13170964f, 0.30902058f, -0.28898972f,
    0.37483212f, -0.04422900f, -0.09520407f, 0.13922352f, -0.06497345f, 0.05012043f, -0.06984380f, -0.10525972f,
    0.02727472f, 0.13587235f, 0.16770135f, 0.08230814f, 0.20399970f, 0.43208522f, 0.23040967f, 0.02679273f,
    -0.20357290f, 0.12718540f, -0.19009820f, 0.14467387f, 0.00424589f, -0.18922354f, -0.00316760f, 0.11915819f,
    -0.24676836f, 0.08256231f, -0.00196635f, -0.21760726f, -0.03195440f, -0.11653250f, 0.00965133f, -0.11261360f,
    0.12021719f, 0.13815065f, -0.02351305f, -0.16849117f, -0.21786137f, -0.06658855f, 0.10059303f, -0.05026148f,
    -0.13689621f, 0.07526683f, -0.23065378f, -0.32503122f, -0.02520799f, -0.14853306f, 0.18996608f, 0.20618227f,
    -0.03838120f, 0.22886145f, 0.02010118f, 0.12164617f, -0.13348058f, 0.05346969f, -0.16277219f, -0.06222201f,
    -0.32348266f, 0.00541511f, -0.03319093f, 0.02418531f, -0.17272925f, -0.03365606f, 0.14361742f, -0.37083849f,
    0.12238196f, -0.06523234f, -0.22641622f, -0.10660798f, 0.05086194f, 0.08429381f, -0.06768826f, 0.00670329f,
    -0.13825616f, 0.18745966f, -0.01063698f, 0.00001761f, 0.18711439f, 0.15901975f, -0.03094223f, -0.06978156f,
    -0.23545688f, 0.07985551f, 0.10964244f, 0.14122513f, -0.00951081f, -0.18111007f, -0.10090786f, 0.02564978f,
    -0.06673913f, 0.12633289f, -0.02680870f, -0.00972821f, 0.05579897f, -0.11872043f, -0.15220712f, -0.22677132f,
    -0.05063571f, -0.05165593f, 0.15904281f, -0.07466843f, -0.07840496f, 0.09284579f, 0.21892944f, -0.15369949f,
    -0.04619107f, -0.02510792f, -0.14728621f, -0.05797695f, 0.05849382f, 0.23203425f, -0.05320890f, 0.17279999f,
    -0.00673479f, -0.11561505f, 0.01306939f, 0.07337254f, -0.07576958f, 0.13559262f, 0.01733973f, 0.24006031f,
    -0.27663913f, 0.09129948f, 0.08266123f, -0.22217213f, -0.03023783f, 0.08658602f, 0.10328831f, -0.22218253f,
    -0.33154359f, -0.08527848f, 0.09075743f, -0.04350116f, -0.04917970f, 0.06111775f, 0.01722886f, -0.27707136f,
    0.12916757f, 0.00074555f, 0.22118539f, 0.21206196f, -0.06414216f, 0.32451791f, 0.18516611f, -0.09338137f,
    0.01399798f, 0.10851673f, 0.10071214f, 0.04689582f, 0.10875669f, 0.06404378f, -0.05006784f, 0.11686263f,
    -0.09286467f, 0.11010908f, -0.02694988f, 0.18145913f, -0.34869710f, -0.13320448f, -0.04712940f, 0.17825641f,
    -0.10577474f, -0.14170192f, -0.02936679f, 0.09706863f, 0.08211260f, -0.15329437f, -0.37394556f, -0.24826322f,
    -0.03195770f, -0.00585844f, -0.08979855f, -0.06606517f, -0.13936847f, 0.09885716f, 0.03473859f, -0.02292504f,
    -0.03787010f, -0.17628948f, -0.31123716f, -0.08872152f, -0.06036568f, -0.19676261f, -0.13390587f, 0.02579630f,
    -0.10452623f, -0.02022024f, 0.07316216f, -0.09088132f, 0.05061582f, -0.18182358f, -0.49176991f, 0.20378847f,
    -0.37801298f, -0.43594515f, 0.09354918f, 0.08243685f, 0.00414616f, 0.06400380f, 0.02245080f, -0.00638071f,
    0.00314315f, -0.15256722f, 0.10421897f, -0.01967726f, -0.02891859f, -0.23899381f, 0.05556836f, -0.14601776f,
    -0.06312817f, -0.18316969f, 0.07065473f, 0.18274234f, -0.01543998f, -0.00166001f, -0.09444780f, -0.04422872f,
    -0.22582829f, -0.15691292f, 0.03007809f, -0.05987000f, 0.02474073f, 0.02643186f, 0.19245607f, -0.03327944f,
    -0.35023555f, -0.35514575f, -0.10142549f, -0.17614469f, 0.08565287f, -0.01098762f, -0.17487203f, 0.17499666f,
    0.14257751f, 0.08873423f, -0.00617941f, -0.18210402f, 0.03264926f, -0.15155555f, 0.15459131f, 0.08726114f,
    0.28430879f, -0.18527088f, -0.08110835f, 0.09909996f, 0.21743517f, -0.21187219f, -0.15373366f, -0.14800641f,
    -0.15419818f, 0.07700412f, -0.10735117f, 0.00438753f, -0.01025559f, 0.06547552f, -0.09544302f, -0.29530129f,
    -0.31851584f, -0.28218314f, 0.02029958f, -0.09597661f, -0.06411672f, 0.10342510f, -0.29052898f, -0.06444821f,
    0.10245648f, 0.04195606f, -0.12879626f, -0.01894145f, -0.00800008f, 0.18826455f, 0.08955810f, -0.18439667f,
    0.24015319f, -0.37532860f, -0.12982155f, -0.28768471f, -0.13424218f, -0.08566010f, 0.08634692f, 0.05423231f,
    0.06564847f, -0.13664322f, 0.09828716f, -0.01197467f, 0.02254540f, -0.01338061f, -0.48344165f, 0.17860122f,
    -0.12512346f, -0.08864875f, -0.02100336f, -0.12763710f, 0.00120796f, -0.13392296f, -0.00273346f, -0.11511379f,
    0.10284522f, -0.04702733f, -0.03682643f, -0.08398923f, -0.05165987f, -0.13384598f, -0.05226120f, -0.20709583f,
    0.15826295f, 0.05577923f, -0.11258900f, 0.03523139f, -0.05518702f, -0.08148880f, -0.05638393f, -0.12423312f,
    -0.05865357f, -0.04699114f, 0.16244327f, 0.05842441f, -0.04674490f, 0.01684118f, -0.14408919f, -0.26904947f,
    -0.00153796f, -0.10551611f, 0.06701183f, 0.00124624f, 0.08726519f, -0.03443123f, -0.05412140f, 0.11406230f,
    0.19002682f, 0.05864041f, 0.06602372f, 0.18094558f, -0.00076395f, 0.10495482f, 0.02314535f, -0.15938552f,
    -0.10287692f, 0.29045960f, -0.08154983f, 0.12444033f, -0.12618431f, -0.19564526f, -0.02748804f, -0.09279720f,
    0.02519908f, -0.03622601f, 0.00310695f, 0.01656591f, 0.17399782f, -0.05696266f, -0.41597664f, -0.19959389f,
    0.10108633f, -0.02878188f, -0.04767500f, 0.08372824f, -0.23236138f, -0.00673625f, -0.16696545f, 0.02182324f,
    -0.04306420f, -0.03286439f, -0.16217977f, 0.00728126f, 0.13230200f, 0.08069365f, -0.23665558f, -0.15976810f,
    -0.04730515f, -0.27765745f, -0.21681558f, -0.10565979f, 0.13107045f, -0.41048533f, 0.02777098f, -0.09652074f,
    0.01188370f, 0.06341340f, 0.15488686f, -0.12392650f, 0.18090861f, -0.13483275f, -0.13998550f, 0.03072753f,
    0.24162453f, -0.06827954f, -0.12820630f, -0.05827848f, -0.05568092f, 0.01835732f, -0.23090506f, 0.12827556f,
    0.03074369f, 0.06013850f, -0.01883395f, 0.19863187f, 0.17552873f, 0.04295197f, -0.20504661f, -0.16349587f,
    -0.31757835f, 0.15523556f, -0.20154038f, 0.16598581f, 0.18492557f, -0.36641487f, 0.03006298f, 0.13884681f,
    0.07939684f, 0.21151498f, 0.05737814f, -0.08398325f, 0.01318043f, -0.10424559f, -0.29068351f, -0.09550888f,
    0.17764057f, -0.23323275f, -0.10863572f, -0.09597063f, -0.01539984f, 0.15898383f, 0.18060824f, -0.10697412f,
    -0.09345507f, 0.08315571f, -0.14199312f, -0.14192218f, 0.10953432f, -0.02091701f, 0.01542098f, -0.30663073f,
    -0.03327666f, 0.14872594f, 0.03265359f, 0.09543958f, -0.03953350f, -0.11675249f, 0.08264225f, -0.02476446f,
    -0.26226091f, 0.14196262f, -0.03215719f, -0.22823195f, -0.05679417f, -0.15719841f, -0.04715905f, -0.16763474f,
    -0.00467734f, -0.21483178f, 0.00530538f, -0.11064478f, -0.16831703f, -0.13968122f, -0.03475541f, -0.16576165f,
    0.05329265f, 0.07317482f, -0.07554253f, 0.08196012f, -0.05345072f, 0.02373495f, -0.42339799f, -0.07531413f,
    0.27934104f, 0.04396505f, -0.02353994f, -0.01078216f, 0.03044505f, 0.19357170f, -0.00037517f, -0.16082728f,
    0.24868788f, 0.11673089f, 0.03407421f, 0.01958719f, 0.15998173f, -0.04107888f, -0.53624612f, -0.28698578f,
    0.04082599f, 0.00583039f, 0.04475338f, 0.19354762f, 0.01759141f, 0.03389682f, -0.13887383f, -0.09544094f,
    -0.16626154f, -0.17649169f, -0.22409397f, -0.03397669f, 0.18272312f, 0.10925376f, -0.16376410f, -0.32225877f,
    0.37661636f, 0.01245695f, -0.12334429f, -0.17002502f, -0.20962034f, -0.05319770f, -0.23265840f, -0.17144683f,
    0.18927786f, 0.00057725f, -0.16160591f, 0.25875986f, -0.04086495f, 0.08892785f, -0.27884185f, -0.05269434f,
    0.14346877f, 0.06931372f, -0.01674820f, -0.06560183f, 0.11856042f, -0.05683800f, 0.04842587f, -0.00541764f,
    0.18597111f, 0.14019458f, -0.01156986f, 0.16182871f, 0.19057296f, -0.19168073f, 0.13265170f, -0.04588923f,
    0.15780902f, -0.08626958f, -0.22804980f, -0.02839537f, -0.07291554f, 0.00077546f, -0.00949340f, -0.06997034f,
    -0.10000400f, 0.02395784f, 0.04402331f, -0.18477398f, 0.05721633f, -0.10720838f, -0.08105143f, -0.11586439f,
    -0.22789313f, -0.23518953f, 0.03917807f, -0.21765706f, 0.06916830f, -0.06302875f, -0.18062639f, 0.13015185f,
    0.04074590f, 0.04254395f, 0.00687659f, 0.08538847f, -0.09326531f, -0.02171066f, -0.02503052f, 0.02352704f,
    0.07138617f, -0.19293183f, -0.06801050f, 0.08137064f, 0.15417609f, 0.27843586f, -0.04585889f, -0.01997193f,
    0.11006081f, 0.15353838f, -0.12911698f, 0.06026933f, -0.04588997f, 0.12228081f, 0.04675815f, -0.14898370f,
    -0.16332974f, -0.10627498f, 0.03363247f, -0.02746659f, 0.10710829f, 0.14749496f, -0.02913010f, -0.10680898f,
    -0.19979717f, -0.01507989f, -0.09987287f, -0.06266960f, 0.03133160f, 0.07863294f, -0.14582315f, -0.10231015f,
    0.06843680f, -0.04506184f, 0.11233501f, 0.01143732f, 0.07950071f, -0.00604234f, -0.19818038f, 0.10794168f,
    0.02617010f, -0.02492060f, -0.09946429f, 0.07954352f, -0.13555627f, 0.03148640f, -0.01455464f, -0.07823893f,
    0.10163491f, -0.28609586f, 0.03669192f, -0.11565325f, 0.09411790f, -0.15073629f, 0.27755916f, 0.05620573f,
    -0.15265138f, -0.07700140f, -0.14621179f, 0.09463117f, -0.23824288f, 0.20976602f, 0.29162034f, -0.08997291f,
    0.07894134f, -0.00619065f, -0.11431991f, 0.01526739f, -0.08534580f, -0.01280375f, -0.02153691f, -0.03847389f,
    -0.03137595f, -0.24463744f, 0.02385580f, -0.11454072f, 0.03085266f, 0.05620188f, 0.30802014f, -0.27530351f,
    0.02649842f, -0.25249016f, -0.11459640f, 0.08552738f, 0.06257410f, 0.12004308f, 0.07510602f, 0.07104213f,
    -0.01402650f, 0.04060819f, 0.03216857f, -0.00321231f, 0.00383083f, -0.03548383f, -0.01507816f, -0.08945313f,
    0.15179278f, -0.11522446f, -0.10332979f, -0.04380460f, 0.00122480f, 0.08451144f, -0.09799689f, -0.01549307f,
    -0.11174340f, -0.00506927f, 0.09116676f, 0.00820470f, 0.00570292f, -0.05058012f, -0.10095529f, -0.04360862f,
    -0.03027179f, -0.41893652f, -0.09315783f, -0.04640914f, 0.07796917f, -0.00163542f, 0.13389558f, -0.10787407f,
    -0.02285909f, 0.16900013f, -0.02929287f, -0.02940637f, 0.10003596f, 0.20868252f, -0.06696565f, -0.31078529f,
    -0.08496625f, -0.08132324f, -0.10350022f, 0.13271196f, -0.10401610f, -0.25993049f, -0.02410974f, -0.05236086f,
    -0.03883689f, 0.04518472f, -0.03533541f, -0.05846512f, -0.06731093f, 0.02050820f, -0.06972212f, -0.23791918f,
    -0.24609324f, -0.07754321f, -0.09226871f, -0.09785382f, 0.12854816f, -0.10055181f, 0.06184487f, 0.02493158f,
    0.01395169f, -0.06986084f, 0.08295114f, 0.13903877f, -0.12756793f, 0.07002668f, 0.08366009f, 0.07725355f,
    0.14060466f, 0.03868881f, -0.07893695f, -0.06512015f, 0.10610057f, -0.04827695f, -0.03564028f, -0.02456926f,
    -0.10370956f, -0.06591550f, -0.10003606f, -0.08278024f, -0.00368388f, -0.03015724f, 0.07986719f, -0.02811443f,
    -0.10220891f, -0.27426690f, -0.12402954f, 0.04585040f, -0.00734130f, -0.00639057f, 0.03484793f, -0.08791470f,
    0.16362838f, 0.10448958f, 0.25482163f, -0.04078420f, 0.02114012f, 0.18912531f, 0.05946777f, -0.11562472f,
    0.24032061f, -0.01546996f, -0.05894813f, -0.01714531f, -0.01911544f, 0.11886256f, -0.20658357f, -0.19122291f,
    -0.00225018f, 0.05293237f, -0.06215194f, 0.04708577f, -0.09280585f, 0.14620599f, 0.00978409f, -0.18127160f,
    -0.28345031f, -0.07282232f, 0.07579234f, -0.10354552f, 0.06275998f, 0.00549949f, 0.02873360f, -0.09457579f,
    0.03617957f, -0.00068814f, 0.05715613f, 0.09775312f, 0.05886507f, 0.16640916f, -0.23785716f, 0.13448252f,
    0.18088169f, 0.08288757f, -0.20594044f, 0.05854371f, 0.01761116f, 0.00053975f, 0.17926563f, 0.05724188f,
    0.04933837f, 0.03901750f, 0.07007321f, 0.01989341f, 0.08115485f, 0.07308318f, -0.39895964f, -0.48021868f,
    -0.11462796f, -0.10796113f, -0.02888292f, -0.11314070f, 0.06934120f, 0.11315432f, -0.40292835f, 0.06099309f,
    0.07292695f, 0.06303440f, -0.06084118f, 0.07538811f, 0.00899141f, 0.07989969f, -0.18723778f, 0.03127217f,
    -0.09621345f, -0.02525109f, 0.17526528f, 0.08529630f, 0.27571025f, -0.41730702f, 0.16720836f, 0.10010407f,
    -0.14230062f, 0.16396570f, 0.02078961f, -0.16823417f, -0.06450535f, -0.04357921f, -0.37528640f, -0.06256939f,
    -0.08221243f, -0.24378102f, 0.16633783f, 0.04768037f, 0.05068380f, 0.19279945f, -0.09413461f, -0.41298175f,
    -0.35004130f, 0.07465966f, -0.00233735f, 0.01732141f, 0.12993260f, 0.21011449f, -0.14592312f, 0.01721944f,
    -0.09843634f, 0.16357596f, 0.00689936f, 0.12492745f, 0.23039471f, 0.05725582f, 0.02751703f, 0.21015954f,
    -0.23941901f, 0.15078761f, -0.04343271f, -0.00358586f, 0.01598623f, 0.22924994f, -0.32445449f, -0.29783127f,
    -0.19797991f, -0.12618090f, 0.08153881f, -0.14200336f, -0.02475528f, 0.09270493f, -0.08505056f, -0.18045816f,
    0.05543656f, 0.02977367f, -0.03956632f, 0.07657079f, -0.19656783f, 0.34933415f, 0.04020295f, 0.14929456f,
    -0.06509189f, 0.06191197f, 0.12377676f, -0.04211618f, 0.13472860f, 0.08416759f, -0.01530004f, 0.05139900f,
    0.04985088f, -0.02191075f, -0.13131116f, 0.25347379f, -0.15920466f, 0.01941287f, -0.00798698f, 0.28104582f,
    -0.32555088f, -0.03825786f, 0.10810643f, -0.08522493f, -0.01711264f, -0.06343278f, 0.09143844f, -0.03004279f,
    0.04055247f, -0.10656964f, -0.27387607f, 0.06095289f, -0.04066546f, 0.00295168f, -0.14768733f, -0.04691549f,
    0.19461918f, 0.01427254f, -0.03760187f, -0.04902022f, 0.16715021f, 0.16164000f, -0.19865903f, -0.03073981f,
    0.26505226f, -0.05321373f, 0.05942629f, 0.08747938f, -0.05447218f, 0.16520594f, -0.20478567f, -0.14237463f,
    -0.11599828f, 0.16433342f, 0.08586811f, 0.00706716f, -0.10291585f, -0.05846177f, 0.17261370f, 0.06809946f,
    -0.11843202f, -0.03899391f, -0.08874835f, 0.05083606f, 0.01042822f, 0.01914096f, 0.08828658f, -0.07453983f,
    -0.20642714f, 0.04787308f, -0.08551364f, -0.04040243f, -0.13181564f, 0.02678563f, 0.01462222f, -0.11922876f,
    -0.12573211f, 0.02551268f, 0.00919098f, -0.01876906f, -0.02866713f, 0.08527643f, 0.05636019f, 0.06061306f,
    -0.02628534f, -0.15117374f, -0.07961316f, 0.16911398f, 0.01931509f, -0.22079033f, 0.21770544f, 0.07119489f,
    0.06636563f, 0.00121608f, -0.08496482f, 0.05672671f, -0.14880288f, -0.11891178f, -0.14144084f, -0.25167653f,
    0.10228737f, -0.24175441f, 0.04582691f, -0.16848212f, -0.04403178f, -0.10848951f, -0.12072010f, -0.07266688f,
    -0.05833597f, -0.15542608f, 0.13195708f, -0.00574426f, 0.06780905f, -0.06279800f, 0.03385128f, -0.30123121f,
    -0.04155772f, -0.30177724f, -0.22429712f, -0.13781731f, -0.07629524f, 0.05771910f, 0.04085825f, -0.08030768f,
    -0.09651124f, -0.01783913f, -0.26524559f, -0.05287406f, -0.07315584f, 0.21886286f, -0.17948608f, 0.07066387f,
    -0.18747459f, -0.03134021f, -0.03028843f, 0.05282399f, -0.19990280f, -0.19275536f, -0.18166748f, 0.12240627f,
    -0.15357924f, -0.11434158f, -0.03703509f, 0.05382278f, -0.04378250f, -0.01670669f, -0.19615622f, -0.26339859f,
    -0.01475738f, -0.12327371f, -0.00441340f, 0.03487541f, -0.02250160f, -0.04974023f, -0.04496420f, -0.20381117f,
    -0.05410124f, 0.03162865f, 0.05837374f, -0.03910372f, -0.12233745f, 0.07216340f, 0.02705679f, -0.41453633f,
    -0.12906815f, -0.00477444f, 0.02780665f, -0.17651127f, -0.02788286f, -0.19012439f, 0.20424946f, 0.02839254f,
    -0.02181523f, -0.11236366f, -0.15102236f, -0.31317538f, -0.00204172f, -0.09659219f, -0.23613934f, 0.04860899f,
    -0.17835300f, -0.19127832f, -0.06181135f, 0.02683005f, -0.14715090f, 0.05979878f, 0.20647497f, 0.06013640f,
    -0.06383807f, -0.14123574f, 0.01640359f, 0.03970517f, -0.08079056f, -0.04833633f, -0.17972806f, -0.04449770f,
    0.04641986f, 0.12088429f, -0.03324798f, -0.00435008f, 0.01886221f, -0.04176857f, -0.20137480f, -0.03973078f,
    -0.19261432f, -0.24060419f, 0.01434078f, 0.20348185f, -0.06132875f, 0.09980358f, 0.00213679f, -0.19260296f,
    0.11022701f, 0.02647201f, 0.04926508f, 0.13142946f, 0.08841366f, -0.04016657f, -0.19440386f, -0.05475467f,
    -0.08049214f, 0.11183103f, -0.19952379f, 0.06362824f, 0.12654200f, 0.08037487f, -0.23082721f, 0.01890146f,
    0.33760312f, 0.23495661f, -0.02872066f, 0.19102740f, 0.00425867f, 0.04732644f, 0.09219538f, 0.17193004f,
    -0.03094897f, 0.11437281f, -0.00082416f, 0.16401020f, -0.02496178f, 0.03600677f, 0.03930951f, -0.36507177f,
    0.05892437f, 0.05798248f, -0.13259088f, -0.09635285f, -0.06912509f, -0.07943108f, -0.04481119f, -0.04188387f,
    0.06491185f, 0.16107513f, -0.07147798f, 0.01854881f, -0.09287553f, 0.06019571f, -0.07073627f, 0.07390030f,
    0.10229562f, 0.08792721f, -0.11596698f, -0.06161942f, -0.10297032f, 0.10758798f, -0.07453297f, -0.03833295f,
    -0.11113693f, 0.10649921f, -0.12340432f, -0.06169758f, -0.00545770f, -0.03903111f, -0.13178322f, 0.12726793f,
    0.16851030f, -0.08406106f, 0.00044720f, -0.07252549f, -0.10090198f, 0.01383743f, 0.24376689f, -0.00022793f,
    -0.03292799f, -0.01043984f, 0.06524329f, -0.18521294f, 0.11642653f, 0.00310697f, -0.04319898f, -0.18428743f,
    0.04971790f, 0.15619709f, -0.08955179f, -0.14755161f, -0.09104231f, 0.03932659f, -0.07829817f, -0.17257796f,
    0.04388452f, 0.13529351f, 0.03824173f, -0.26836610f, -0.06229994f, 0.07207678f, 0.08092722f, -0.20091975f,
    0.00667491f, -0.00774240f, 0.19166709f, -0.05020099f, 0.02715142f, -0.05507567f, 0.29109973f, 0.08013410f,
    -0.30460599f, -0.11091562f, -0.12311936f, 0.10921262f, 0.03803625f, 0.08116969f, -0.14846906f, -0.12789260f,
    0.12281451f, -0.05056911f, -0.09373253f, -0.15505779f, 0.03882663f, -0.17247993f, -0.04740279f, -0.34609285f,
    -0.02905459f, 0.12124103f, -0.01945303f, -0.02982699f, 0.04851121f, -0.07439283f, 0.09398182f, -0.32372677f,
    -0.09104609f, -0.24853554f, -0.08155748f, -0.09795451f, 0.09714754f, -0.11864018f, -0.29461506f, -0.02199013f,
    0.10111935f, -0.23065610f, 0.00630152f, 0.11166129f, 0.09977716f, -0.06516183f, 0.01024768f, 0.15566298f,
    0.04217408f, -0.00811825f, 0.05406565f, 0.03346911f, -0.11688128f, 0.03437097f, -0.12742308f, -0.17645665f,
    0.14664644f, -0.16144577f, -0.12729160f, 0.10004916f, 0.00403032f, -0.00912877f, -0.20551831f, 0.04880840f,
    -0.07042372f, 0.14781727f, 0.04466725f, -0.11731014f, 0.01082886f, 0.24472487f, 0.16409908f, 0.37582251f,
    -0.18389314f, -0.05503008f, -0.22797044f, -0.03277076f, 0.05514475f, 0.01895423f, -0.12221330f, -0.03661156f,
    0.06493612f, 0.13274714f, 0.05699661f, -0.16037889f, -0.09257539f, 0.03092160f, 0.12858759f, -0.00676022f,
    -0.04210801f, -0.03548823f, -0.00689086f, 0.23953807f, -0.08230225f, -0.06531486f, 0.25402820f, -0.07348768f,
    0.05118948f, -0.11484867f, -0.05875096f, -0.10441460f, -0.16934596f, -0.13354278f, -0.13712181f, 0.18311366f,
    0.10941391f, 0.07013406f, -0.20860629f, 0.08219285f, -0.02831666f, -0.03440839f, 0.02244029f, -0.30524129f,
    -0.15842417f, 0.09278383f, -0.30763981f, -0.07274288f, -0.17423362f, -0.19391529f, -0.00589325f, -0.21173108f,
    -0.17344728f, 0.02760736f, 0.10844740f, -0.23855209f, 0.02187629f, -0.25678399f, 0.13401188f, -0.18904275f,
    -0.18056484f, -0.15374559f, 0.09776167f, -0.12792288f, -0.08020726f, 0.14926079f, 0.10232981f, 0.01171739f,
    -0.09903032f, -0.10493355f, -0.24804899f, -0.06508110f, -0.14224155f, 0.22775857f, -0.21897312f, 0.34465584f,
    0.09658825f, -0.08410785f, 0.15691790f, 0.08176056f, 0.22565983f, 0.16960160f, -0.12079653f, 0.07218525f,
    -0.04047846f, 0.05257573f, -0.15409005f, 0.06348899f, -0.10304730f, -0.00471913f, 0.13950442f, -0.19045131f,
    0.14385520f, -0.09447589f, 0.06147521f, -0.01521944f, -0.08780728f, 0.09207588f, -0.03650622f, -0.06612347f,
    0.06698485f, 0.07762916f, -0.16665810f, 0.11630507f, -0.05985967f, 0.22013654f, 0.20209500f, 0.05608509f,
    0.01492039f, 0.11537912f, 0.19394210f, 0.06328339f, -0.24461128f, 0.18034203f, 0.10827160f, 0.23789251f,
    0.09800648f, -0.00120705f, -0.01865993f, 0.00022899f, -0.03272669f, -0.01380487f, 0.18916523f, 0.17997056f,
    0.31794107f, -0.00747438f, -0.01668506f, 0.02764043f, -0.00766802f, -0.07788407f, -0.14568621f, -0.05754421f,
    0.13554181f, -0.09087620f, 0.05402201f, -0.16671614f, -0.08475258f, 0.15768784f, 0.12831751f, 0.00934440f,
    0.01918934f, 0.07922748f, 0.02052237f, -0.12222748f, -0.08162357f, -0.09480182f, -0.14504471f, -0.15623005f,
    0.02239370f, -0.18389268f, -0.09826587f, -0.05022377f, -0.12980203f, -0.07570282f, -0.27377769f, -0.11365131f,
    -0.01939464f, -0.03003667f, 0.08894095f, -0.05596265f, -0.03185582f, 0.05987399f, 0.06525642f, 0.05798784f,
    0.10379396f, 0.01355383f, -0.05338217f, 0.24058399f, -0.11228217f, 0.22455004f, -0.06295484f, 0.07142562f,
    -0.05954335f, 0.21228699f, 0.18312955f, 0.10123358f, -0.01068577f, -0.21835563f, 0.26033303f, 0.19881406f,
    -0.07045769f, -0.14925359f, -0.16738440f, 0.10823151f, 0.00310525f, 0.01026777f, 0.30517149f, 0.05006642f,
    -0.26583809f, -0.24701259f, -0.09200565f, 0.01963710f, 0.02646399f, -0.21197845f, 0.06321513f, -0.03183449f,
    -0.07652632f, 0.07719582f, 0.11988685f, -0.08392673f, -0.20155098f, -0.00539564f, 0.07768908f, 0.08763067f,
    -0.07662363f, -0.05774199f, 0.03842910f, -0.14763863f, 0.25888053f, -0.07441971f, 0.04016294f, -0.09173453f,
    0.13647583f, -0.06918054f, 0.12982245f, 0.11145366f, 0.03840391f, -0.20357491f, 0.14841399f, 0.12633461f,
    -0.11938233f, -0.11948486f, -0.44275102f, -0.18901166f, -0.03925857f, -0.24172477f, -0.50945443f, -0.01568046f,
    0.12784067f, -0.04363437f, 0.22275321f, 0.08626710f, -0.11166960f, -0.12302174f, -0.16774984f, -0.25979295f,
    0.04432938f, -0.03970071f, -0.57406032f, -0.29519460f, 0.08019526f, -0.03053397f, -0.21090020f, -0.24461596f,
    0.15505077f, -0.12095302f, -0.22350453f, -0.28155476f, -0.01992400f, -0.62951553f, -0.16822866f, 0.02585647f,
    -0.24631663f, -0.33920759f, 0.04420605f, 0.11390817f, -0.00350225f, -0.01608652f, 0.03897234f, 0.04862088f,
    -0.05945906f, -0.00923252f, 0.02100525f, 0.10282083f, -0.13025604f, 0.11178448f, 0.00866002f, -0.24752955f,
    0.00215657f, -0.02678168f, 0.06452619f, 0.05866015f, 0.03314872f, -0.24754451f, -0.05519432f, -0.01096137f,
    0.03611257f, 0.11579942f, 0.07965572f, 0.05546571f, -0.08747943f, -0.10755377f, -0.16940650f, -0.03872281f,
    -0.38907593f, -0.06923267f, -0.01186575f, 0.03450907f, 0.13870730f, -0.03488610f, -0.19997421f, -0.05383912f,
    0.00771147f, 0.11558519f, 0.02260056f, 0.02895585f, 0.01702362f, 0.03980193f, -0.00540232f, -0.02029657f,
    0.20650937f, -0.03727370f, -0.08151037f, 0.18448822f, 0.26218840f, -0.07496841f, 0.06000297f, 0.06656557f,
    0.15352099f, 0.15945195f, -0.04492889f, 0.13647877f, 0.05727519f, 0.03617746f, -0.36252347f, -0.35855851f,
    0.08820763f, -0.10310797f, 0.00116920f, 0.09726514f, 0.16440156f, -0.06587045f, -0.31245044f, -0.09788503f,
    0.02711952f, 0.02908678f, 0.03394666f, -0.01834528f, 0.10219173f, -0.30897564f, -0.03753598f, 0.08131770f,
    0.19792631f, 0.13699383f, -0.02589494f, 0.05813796f, 0.19778329f, -0.02571057f, 0.24215074f, 0.00771661f,
    -0.06350439f, 0.18267748f, -0.04141662f, 0.16393529f, -0.05170507f, -0.17274834f, -0.64096481f, -0.04754504f,
    -0.29075429f, -0.14246149f, -0.07530648f, 0.04532064f, 0.00945729f, -0.02498289f, -0.08170832f, 0.05059523f,
    0.00741756f, -0.05369999f, -0.25184461f, 0.09232895f, 0.02834296f, -0.18508933f, -0.23828210f, -0.12032045f,
    0.00274760f, -0.06790812f, -0.09347714f, -0.04073098f, -0.05274236f, -0.20973547f, -0.01488164f, 0.08565120f,
    -0.01897377f, -0.01414219f, -0.15313706f, -0.00456449f, 0.01770582f, -0.06267075f, -0.16830923f, -0.30168805f,
    -0.07161418f, 0.06434584f, -0.09384386f, -0.09558096f, 0.03340641f, 0.09976381f, -0.06835929f, -0.07520805f,
    0.06132215f, 0.07691684f, -0.23767221f, 0.27999002f, -0.00088984f, -0.00014566f, -0.18829371f, -0.06479734f,
    -0.11746436f, -0.21462229f, 0.06904612f, 0.11518417f, 0.09788532f, -0.19790015f, 0.06587547f, 0.17907737f,
    -0.08387218f, 0.17252815f, -0.08631872f, -0.09525810f, 0.03448170f, -0.09345699f, -0.05616929f, -0.07208880f,
    0.01616757f, -0.08747501f, 0.01459157f, -0.03958334f, 0.13609840f, 0.09316830f, -0.26559436f, -0.06395537f,
    0.10703785f, 0.00277025f, -0.29097497f, 0.11662322f, 0.03243914f, 0.20217170f, -0.19122104f, -0.01919806f,
    0.00101053f, -0.05688164f, -0.09770574f, 0.05741345f, -0.11606953f, -0.16644312f, 0.03048793f, 0.07295841f,
    -0.04968400f, -0.02134959f, 0.08653200f, -0.17611076f, 0.17116983f, 0.06229325f, 0.06337110f, 0.11142580f,
    0.04479170f, -0.26932904f, 0.09887148f, -0.12634179f, 0.05406288f, -0.08353416f, -0.09610512f, 0.00729593f,
    0.21957742f, -0.01566267f, -0.00419464f, 0.13655980f, 0.04239889f, 0.06640260f, -0.17761099f, -0.11448824f,
    0.03885806f, 0.05928291f, -0.17431384f, 0.02188872f, 0.14328875f, 0.10816756f, -0.14826889f, 0.06039025f,
    0.09911440f, -0.04303828f, -0.12161942f, 0.05338377f, 0.08728334f, -0.08280940f, 0.11211696f, -0.02558053f,
    0.04192295f, 0.11690728f, 0.14579481f, -0.12599771f, 0.06532554f, -0.13530071f, -0.22620799f, -0.01774464f,
    0.02931101f, -0.10012560f, -0.20158489f, 0.07208897f, 0.08239536f, 0.05508270f, -0.22184409f, 0.02100338f,
    0.08605249f, -0.01690049f, -0.27105427f, 0.03028268f, 0.15983391f, -0.10875610f, 0.01271238f, 0.00630205f,
    0.16075478f, 0.15736568f, -0.01569626f, 0.18090551f, -0.14727791f, -0.04721639f, -0.24161029f, -0.13221374f,
    -0.05001098f, 0.09495282f, -0.00767534f, -0.09938621f, -0.00395575f, 0.00010703f, -0.07830617f, -0.05594457f,
    -0.23954377f, -0.00004567f, 0.01418415f, -0.10061497f, -0.03214597f, -0.18038514f, -0.24330622f, 0.07376559f,
    0.02581693f, 0.00799028f, 0.18932536f, -0.02055255f, 0.05060266f, 0.10993533f, -0.03865210f, 0.06704807f,
    0.33815706f, 0.11143722f, -0.19640610f, 0.06657865f, 0.06154608f, 0.04642850f, -0.04762370f, 0.32566458f,
    -0.04333445f, -0.01143892f, -0.01118843f, -0.00494765f, 0.06516346f, 0.16124602f, 0.19987296f, -0.29023522f,
    0.12444468f, -0.05485817f, -0.08806103f, 0.02966348f, -0.20564070f, 0.19480789f, -0.02073736f, 0.28340241f,
    -0.11979724f, 0.02964272f, 0.07537869f, -0.01184538f, -0.01769137f, 0.13207227f, 0.12639579f, 0.08989616f,
    -0.14805932f, -0.00480095f, 0.06343582f, -0.04267275f, -0.18260247f, 0.08454853f, -0.06217827f, 0.17393705f,
    -0.32527801f, -0.34156641f, 0.22951289f, 0.07127015f, 0.00608624f, 0.05394520f, 0.06095950f, -0.23308080f,
    -0.04336687f, -0.01003172f, 0.17017688f, -0.00853980f, -0.39700010f, 0.09959210f, 0.30061981f, -0.21899496f,
    -0.17681187f, -0.11098184f, 0.17772405f, -0.20898668f, -0.02922362f, 0.05137773f, 0.06923208f, -0.03462756f,
    -0.10844426f, -0.27280501f, 0.02372045f, 0.05155364f, -0.04280737f, 0.02028986f, -0.03695013f, 0.05484629f,
    -0.19976947f, -0.21741110f, 0.02810314f, -0.12014838f, 0.05620003f, -0.11086895f, 0.18455641f, 0.01620580f,
    0.27481318f, 0.08459307f, 0.11839240f, -0.17344314f, -0.17104189f, -0.14362419f, 0.19876364f, 0.00439360f,
    -0.11017144f, -0.36794090f, -0.15423243f, -0.10523930f, 0.04415009f, 0.11159673f, -0.03784543f, -0.18469624f,
    -0.00749762f, -0.15004678f, -0.16219778f, -0.30627590f, -0.07846057f, 0.12610310f, 0.24680713f, 0.16683342f,
    0.13622913f, -0.22262277f, 0.01345982f, -0.00572975f, -0.02946084f, 0.07570903f, -0.07268728f, -0.26603281f,
    -0.14700818f, 0.06854814f, -0.20667470f, -0.11226068f, -0.05589619f, -0.08884442f, -0.00562027f, -0.06659010f,
    -0.02431565f, -0.04931500f, -0.05022218f, 0.08540258f, 0.12646231f, -0.08795387f, 0.08199266f, 0.00165400f,
    -0.42113984f, 0.09226050f, 0.07032371f, -0.04825426f, -0.02298749f, 0.05435532f, -0.21605729f, -0.05291868f,
    -0.02245370f, -0.09558140f, -0.14074065f, 0.02745018f, 0.07236379f, 0.09345052f, -0.11953241f, -0.24913497f,
    0.02389873f, -0.01336566f, -0.00935957f, -0.20736238f, 0.25453630f, -0.11371284f, -0.03112463f, -0.20715965f,
    -0.03703267f, 0.37238330f, 0.04283957f, -0.03135569f, 0.28309757f, -0.42364413f, 0.06288918f, 0.15242033f,
    -0.26456082f, 0.07511235f, -0.02639205f, -0.05578627f, 0.08387762f, -0.15909751f, -0.29282579f, 0.08965974f,
    0.17460297f, -0.12040746f, -0.16597807f, -0.15724148f, 0.01383704f, 0.00073821f, 0.19791909f, -0.04513913f,
    -0.19176303f, 0.13339882f, -0.02297835f, -0.08456910f, 0.05482188f, -0.20920961f, 0.02643965f, -0.14844605f,
    -0.13976999f, 0.09755301f, -0.00045257f, 0.07465149f, 0.19624528f, -0.14057899f, 0.07217582f, 0.11221500f,
    -0.16384259f, 0.15606014f, -0.00692641f, 0.05143226f, -0.07774982f, -0.03574476f, 0.21469170f, -0.37523180f,
    -0.16565293f, -0.16279618f, -0.17736618f, 0.11282139f, 0.03905750f, 0.05927249f, -0.27884120f, 0.17986083f,
    0.04550289f, 0.04539929f, -0.12637882f, 0.15910314f, 0.12734203f, -0.14512318f, -0.16631426f, -0.40041813f,
    -0.36553273f, -0.08757953f, -0.08059589f, -0.06106285f, -0.23912263f, -0.08633993f, 0.08775665f, -0.07396686f,
    0.06084479f, -0.07290051f, 0.01626117f, -0.07446994f, 0.01335474f, -0.09306271f, -0.23321538f, -0.01710482f,
    0.08347693f, -0.03798183f, -0.00431347f, -0.02656530f, 0.03798120f, -0.01147993f, -0.17079991f, 0.16758135f,
    -0.15800275f, -0.04483311f, -0.19890387f, 0.35918307f, 0.14213277f, -0.03640126f, -0.29490787f, -0.44832158f,
    0.14103794f, 0.20189479f, -0.12891136f, 0.18855964f, -0.04137981f, -0.21474068f, -0.03897380f, -0.05619511f,
    0.13176970f, 0.15164737f, 0.06599329f, -0.07383041f, 0.08495428f, -0.13760740f, -0.05037191f, -0.00437893f,
    0.20630126f, -0.20060168f, -0.12710743f, 0.01731112f, -0.02596439f, 0.07023699f, -0.10148568f, 0.10907410f,
    -0.01452677f, 0.01948059f, -0.10710819f, 0.09379645f, 0.08847251f, -0.05366416f, -0.31365561f, -0.37844259f,
    -0.27814546f, -0.31598744f, 0.04566547f, 0.21135423f, 0.00441481f, -0.10116083f, 0.03721676f, 0.08416700f,
    -0.13343747f, -0.00035733f, 0.11064081f, -0.16109106f, 0.14054495f, 0.06521711f, -0.11153393f, 0.02647059f,
    0.11520747f, 0.07908489f, -0.10851489f, -0.02922239f, -0.02405183f, 0.02256117f, 0.04156751f, -0.00542174f,
    -0.13840467f, -0.00166701f, -0.10888383f, -0.38310483f, 0.15034369f, -0.09826889f, -0.26660687f, -0.08106493f,
    -0.04067815f, 0.32929108f, -0.19422707f, -0.08395179f, 0.10548931f, -0.00662928f, 0.10045400f, 0.11877387f,
    0.18011384f, 0.26836380f, -0.09016534f, 0.16713713f, 0.09038440f, -0.06602302f, 0.11066896f, 0.16770141f,
    0.02506913f, -0.05205874f, 0.12080347f, 0.16194721f, 0.05001324f, 0.00934107f, -0.02894771f, 0.03380640f,
    -0.04892335f, 0.09526121f, 0.14637548f, -0.27321482f, -0.02946147f, -0.33637694f, -0.11596125f, -0.15290110f,
    -0.21169393f, 0.19329274f, -0.01355982f, -0.09738868f, -0.37056842f, -0.28732148f, 0.07942442f, -0.05901312f,
    0.14901184f, -0.12915112f, -0.05363803f, 0.06772742f, -0.16347016f, 0.00880617f, 0.06644954f, 0.10795511f,
    -0.05484873f, -0.12733218f, 0.00913271f, 0.09848761f, -0.07478853f, -0.00256870f, -0.10960292f, 0.03581129f,
    -0.17003195f, -0.04927291f, -0.33678761f, 0.18468957f, -0.13179433f, -0.31412166f, -0.32129571f, -0.37039447f,
    0.05999430f, 0.03718987f, -0.18504900f, -0.08497447f, -0.18835923f, -0.43103716f, 0.05865477f, -0.15664890f,
    0.03138972f, -0.04494041f, 0.08449028f, 0.00154284f, 0.14264499f, 0.08752075f, -0.10591175f, -0.11737311f,
    0.07127123f, 0.00591681f, -0.00006278f, 0.11592814f, -0.07674556f, -0.02363979f, 0.07096220f, 0.22370705f,
    -0.11986724f, -0.05543057f, 0.02723696f, -0.05904783f, 0.13183098f, -0.12529522f, -0.06861519f, 0.04339266f,
    -0.20984100f, -0.03926986f, -0.11304995f, -0.01997197f, -0.08832855f, -0.08013451f, -0.04610416f, -0.06557059f,
    -0.15610074f, -0.01959410f, -0.02625986f, -0.37350929f, 0.30755705f, -0.07976858f, 0.24822244f, -0.17369473f,
    0.09373584f, -0.00608838f, -0.08322404f, -0.00619349f, -0.01145977f, -0.15046999f, -0.07022769f, -0.06089652f,
    -0.12389829f, 0.16658552f, -0.16581185f, -0.18438256f, -0.03375515f, -0.17458074f, -0.05932178f, -0.00701047f,
    -0.13027641f, -0.00426736f, -0.41231480f, 0.09216319f, -0.32237804f, -0.31243259f, -0.06118840f, -0.09812485f,
    -0.22392257f, 0.13426507f, 0.06274191f, -0.40237308f, 0.00230138f, -0.23116219f, -0.20079713f, -0.37800255f,
    -0.09602930f, 0.02860976f, 0.02207080f, 0.15133223f, -0.07180440f, -0.07313388f, -0.07053618f, -0.12218513f,
    -0.00870741f, 0.03829379f, -0.32644403f, 0.00957665f, -0.09899361f, -0.13803349f, -0.12622507f, -0.11639194f,
    -0.03479221f, 0.01510125f, -0.31968573f, -0.08000746f, -0.18688330f, -0.23402429f, -0.14630546f, -0.12402085f,
    -0.06150015f, -0.15454404f, -0.08797994f, 0.02951441f, -0.04201947f, -0.12371244f, -0.10061819f, -0.14126645f,
    0.07874984f, -0.04117462f, -0.10053821f, 0.01928266f, 0.02226583f, 0.02178791f, -0.13187104f, -0.08819514f,
    0.01354171f, 0.00869075f, 0.05865094f, -0.02688413f, 0.12739313f, 0.01085874f, 0.02717103f, -0.04854986f,
    -0.10829002f, -0.18742321f, -0.10573450f, -0.13257544f, -0.16580279f, -0.04143081f, -0.29510963f, -0.17604557f,
    0.02932807f, -0.19974665f, 0.08454790f, -0.00624973f, 0.21710546f, -0.00625220f, -0.01798083f, -0.16001615f,
    -0.11837336f, 0.01225931f, -0.18775938f, 0.08723492f, 0.02735745f, 0.02699170f, -0.17714211f, 0.09858584f,
    0.09160772f, -0.00127414f, -0.07171979f, -0.06328177f, -0.00860614f, -0.08365597f, 0.11157903f, -0.17858276f,
    -0.13896933f, -0.06206469f, -0.33638734f, -0.03395527f, -0.19102991f, -0.06837024f, -0.14685769f, -0.13423702f,
    -0.10886873f, -0.23777342f, 0.14058484f, -0.10357348f, -0.01645915f, -0.01385246f, -0.15528736f, -0.01188920f,
    -0.24647956f, 0.06054480f, -0.15054168f, -0.02963510f, -0.03597094f, -0.17045590f, -0.07100727f, -0.25242689f,
    0.13553987f, 0.02843977f, 0.19420938f, -0.13515176f, -0.27616468f, -0.02043072f, 0.35545829f, 0.08047960f,
    -0.03845272f, -0.10134023f, -0.01578089f, -0.14408952f, -0.11074743f, 0.03085079f, -0.22314738f, -0.34251088f,
    0.13479252f, -0.07413292f, -0.11807552f, 0.09943691f, 0.02146527f, 0.01435962f, -0.09678070f, 0.04535740f,
    0.04709093f, -0.00470066f, -0.17946546f, 0.03536235f, -0.05990730f, 0.11928373f, 0.10466131f, -0.07461274f,
    -0.03063175f, -0.04463009f, 0.12113581f, -0.01317902f, -0.02659172f, 0.17588839f, 0.13576987f, 0.15677451f,
    -0.12715459f, -0.23768660f, 0.01120218f, -0.04364996f, -0.07610647f, 0.01158085f, 0.00983823f, -0.08190554f,
    0.01848818f, -0.16283344f, 0.13527581f, -0.16232817f, -0.09361625f, 0.19734262f, 0.29823926f, 0.24587528f,
    0.19927335f, -0.30496442f, 0.05658383f, -0.07317701f, -0.14473493f, -0.09968796f, 0.35537270f, 0.13233231f,
    0.05502030f, 0.16046476f, 0.01401244f, 0.12014311f, 0.01859071f, 0.04203014f, 0.11490013f, 0.12258588f,
    -0.12471812f, 0.04143321f, 0.01933254f, -0.11033742f, -0.03278570f, 0.20446298f, 0.04459659f, -0.20567320f,
    0.09811186f, 0.01670981f, 0.17122169f, -0.04980822f, 0.11110803f, 0.07324033f, 0.42540157f, 0.17198437f,
    -0.21847332f, -0.14711232f, -0.05758441f, -0.02905756f, -0.17350332f, -0.04562189f, 0.01390845f, -0.17414321f,
    0.07606430f, -0.00157590f, 0.25968942f, 0.05087891f, -0.30529523f, 0.04333581f, 0.30623809f, 0.03071508f,
    0.12005755f, 0.23650002f, 0.05373898f, -0.25686216f, 0.11833026f, 0.09117396f, -0.11327616f, -0.33460826f,
    0.12380949f, -0.24761821f, -0.10955652f, 0.21665591f, 0.06054117f, -0.19169079f, 0.17307983f, 0.18953693f,
    -0.15916689f, -0.03644763f, -0.09059590f, 0.03520845f, -0.05283998f, 0.05545335f, 0.03101778f, 0.08395717f,
    -0.08364542f, -0.02305675f, -0.00045025f, -0.18810467f, -0.20628119f, -0.13085434f, 0.04120694f, -0.23396026f,
    -0.19532637f, 0.06532221f, -0.00628954f, -0.12719792f, -0.02023781f, -0.11175361f, -0.03628077f, -0.37868637f,
    -0.14578773f, -0.27854756f, 0.11808477f, 0.01325181f, 0.00656500f, 0.05602623f, 0.18334919f, 0.02616742f,
    0.09071372f, -0.11723376f, -0.10634816f, -0.10433589f, 0.05069529f, -0.09225919f, 0.20707278f, -0.01409908f,
    -0.01894595f, -0.04246972f, 0.17162850f, -0.01052353f, -0.20391315f, -0.09648195f, 0.10851373f, 0.05220064f,
    -0.11678846f, -0.00942154f, -0.06297057f, 0.02819539f, 0.03358193f, 0.15761633f, -0.05293188f, -0.16609122f,
    0.08757161f, -0.06252062f, 0.20818736f, -0.06680909f, -0.02861123f, -0.18995890f, 0.24716860f, 0.25357634f,
    -0.04956077f, 0.00722165f, -0.02042476f, -0.30161265f, -0.02086552f, -0.22271819f, -0.24756278f, -0.19179581f,
    0.01693381f, -0.20592821f, 0.15944134f, -0.24676491f, -0.27712286f, -0.50023425f, 0.10711845f, 0.14226422f,
    -0.04803520f, -0.26596695f, 0.10246905f, -0.09156342f, 0.01843907f, -0.16909578f, -0.10197431f, -0.22839688f,
    -0.05132653f, -0.13910218f, -0.17053746f, 0.00611942f, -0.11014298f, -0.00560288f, 0.07460944f, 0.02622460f,
    -0.13104437f, 0.01203776f, -0.02805576f, -0.08514148f, 0.05243402f, -0.15088493f, -0.17356631f, -0.06814609f,
    0.05806264f, -0.15459609f, 0.08724169f, -0.01134981f, 0.06547762f, -0.22122395f, -0.24677476f, 0.09969448f,
    -0.08670630f, 0.09330256f, -0.18344741f, -0.04547539f, 0.07582992f, -0.03327366f, -0.14359622f, 0.03619004f,
    -0.07780800f, 0.22714207f, -0.07830378f, -0.01623089f, -0.12762430f, 0.01642305f, -0.10549068f, 0.01271895f,
    0.01477609f, -0.14573519f, -0.17863522f, -0.11802550f, -0.04539100f, -0.08218827f, -0.20195951f, -0.20445102f,
    -0.02925901f, -0.09585422f, -0.03781738f, -0.05727373f, -0.21677125f, 0.06893380f, -0.03286512f, -0.00323061f,
    -0.11212972f, -0.31901693f, -0.21505587f, -0.31787354f, 0.09751491f, -0.09222682f, -0.30923688f, -0.23629881f,
    0.04134177f, -0.15315802f, -0.17361353f, 0.06324146f, -0.05848991f, -0.28539529f, -0.21373963f, -0.04005847f,
    -0.09099486f, -0.27060419f, -0.17149210f, -0.00973691f, -0.05229810f, 0.07093430f, 0.14729390f, 0.37031144f,
    -0.24158239f, -0.36584833f, -0.08933415f, 0.12432565f, -0.04522845f, -0.18416730f, -0.32272315f, 0.02005207f,
    0.13229559f, -0.29550391f, 0.07156976f, 0.02808615f, -0.03326009f, -0.05741277f, 0.10960154f, 0.01047021f,
    -0.29218328f, -0.05244804f, -0.17643315f, 0.06354167f, -0.00820568f, 0.16130142f, 0.35434899f, -0.00943426f,
    -0.16946825f, -0.13568625f, -0.04318471f, 0.11992363f, -0.11148796f, -0.04582494f, 0.02100723f, -0.09738822f,
    -0.07570549f, 0.10400541f, -0.26874104f, -0.03676495f, 0.02954583f, 0.03618303f, 0.02909573f, -0.19894522f,
    0.08195391f, -0.17931454f, 0.19345951f, 0.00931073f, 0.08255073f, -0.12794620f, -0.03334934f, -0.01828550f,
    -0.12538153f, 0.10000478f, -0.03560782f, 0.02195011f, 0.08139948f, -0.00536848f, -0.04256748f, -0.08921386f,
    -0.06372775f, -0.10842472f, 0.08553298f, -0.04425529f, -0.03156279f, 0.27162367f, -0.14409755f, -0.03648033f,
    0.16228145f, 0.01181267f, -0.24683261f, 0.03816156f, -0.08622328f, 0.38210413f, 0.06223102f, 0.00993311f,
    -0.14102866f, -0.35012406f, 0.30712089f, -0.00923218f, 0.15550664f, -0.01177402f, 0.12424657f, 0.15942420f,
    -0.11112255f, -0.03365423f, -0.04053807f, 0.07738128f, -0.12558445f, -0.07363684f, -0.16615522f, -0.13916488f,
    -0.37007529f, -0.01878912f, -0.11274084f, 0.17969210f, 0.11735528f, 0.03052502f, -0.11158653f, 0.01266308f,
    -0.07076035f, 0.08646785f, -0.11861633f, -0.11312313f, -0.09388785f, 0.05137593f, -0.02818462f, -0.08063972f,
    0.19969966f, -0.03098051f, -0.12548658f, -0.13930707f, 0.17610373f, -0.08837704f, 0.03238816f, 0.02527673f,
    0.06966340f, -0.20215984f, 0.01993472f, 0.30504343f, 0.13426942f, -0.22650583f, -0.22400448f, -0.12856716f,
    -0.28241527f, 0.16250920f, 0.05050529f, 0.01749335f, -0.14162198f, -0.03956081f, 0.03900275f, -0.08038169f,
    -0.01661969f, -0.03729293f, -0.20356093f, -0.02691732f, 0.13422547f, 0.11593153f, -0.31754437f, -0.18821518f,
    0.07434158f, 0.03912085f, -0.06200909f, -0.01484270f, -0.02395525f, 0.01617429f, -0.07490361f, -0.00237605f,
    0.13107938f, -0.07053623f, -0.01351984f, -0.02190746f, 0.11898274f, 0.14963222f, -0.05941402f, -0.16784747f,
    -0.05980526f, 0.02737448f, 0.11041864f, 0.16509393f, -0.00088315f, -0.00464317f, 0.04803977f, 0.05200018f,
    -0.03637660f, 0.04788910f, -0.00822591f, -0.00342169f, 0.09306142f, 0.07928593f, -0.14240676f, -0.12959713f,
    -0.08074444f, 0.16302089f, -0.02648931f, 0.09185931f, -0.02127942f, -0.35384545f, -0.05117237f, 0.12081521f,
    -0.10194034f, -0.09540623f, 0.11106550f, -0.12612166f, 0.12632236f, 0.06599284f, -0.02177441f, -0.23132695f,
    -0.33504450f, -0.15407489f, 0.09399201f, 0.08102018f, -0.05382079f, 0.17279252f, -0.11742119f, 0.12953341f,
    -0.25373217f, -0.08988875f, -0.18994668f, 0.01164275f, 0.13640685f, -0.18083075f, -0.31408393f, -0.37295195f,
    -0.01981087f, 0.30510074f, -0.26773116f, 0.29387918f, 0.00320558f, -0.22303358f, 0.15545639f, -0.07878378f,
    -0.13202848f, 0.01494851f, 0.08247205f, -0.02205757f, -0.04921047f, 0.04683051f, -0.19320844f, -0.12724696f,
    -0.25069362f, 0.06786589f, 0.09813511f, -0.26642686f, 0.12546070f, -0.18590885f, -0.08155849f, -0.07151346f,
    -0.01941026f, -0.08816199f, -0.17585900f, 0.13951772f, -0.03762101f, -0.14860702f, -0.23675717f, -0.13797456f,
    -0.03416052f, 0.05761485f, -0.16300274f, -0.01620528f, -0.29221103f, 0.06122242f, -0.11638173f, -0.08455694f,
    0.07448610f, -0.21413869f, 0.03951478f, -0.08216760f, -0.19943756f, 0.03114219f, -0.07682747f, 0.08656728f,
    -0.21064520f, 0.19513084f, -0.01282434f, -0.12882675f, -0.12590668f, -0.15910716f, 0.00480365f, -0.07372399f,
    -0.14512861f, -0.12362184f, -0.14441836f, 0.17053019f, -0.15083183f, -0.18395755f, -0.06973860f, -0.25001904f,
    -0.04961209f, 0.13310972f, -0.07794331f, -0.21004657f, 0.01622517f, -0.09276531f, -0.08335454f, -0.10186182f,
    -0.11251613f, -0.14284708f, 0.15836571f, 0.03305924f, -0.05783573f, -0.08876669f, -0.23831709f, -0.19129208f,
    -0.16138418f, -0.06642660f, -0.11463679f, -0.01126955f, -0.00836329f, -0.08537337f, -0.10570437f, -0.23499642f,
    -0.12095509f, -0.11803243f, -0.19196580f, -0.12257292f, -0.20143948f, -0.32428202f, -0.10348861f, -0.00545340f,
    0.06858989f, 0.19384196f, -0.02672069f, -0.06472161f, -0.16163747f, -0.08858993f, -0.11317889f, -0.04094503f,
    0.10031179f, -0.03497250f, -0.00501025f, 0.02426873f, -0.18239571f, 0.06657585f, -0.36345869f, -0.19756298f,
    0.03182812f, -0.16175601f, -0.08324531f, 0.24735847f, -0.05571735f, 0.15748575f, -0.03502343f, -0.37131459f,
    0.19061081f, 0.16232131f, 0.07792083f, 0.04609422f, 0.09333347f, -0.05188899f, 0.30101922f, -0.03412647f,
    -0.00316301f, -0.12228705f, -0.10810871f, -0.04236774f, -0.05097457f, -0.25108495f, -0.05348221f, -0.04152808f,
    -0.10189401f, -0.01949298f, 0.22719267f, -0.05546894f, 0.20187493f, -0.05617556f, 0.07195129f, -0.07164604f,
    0.21555874f, -0.01405591f, -0.15381294f, -0.13097700f, -0.09486622f, -0.12244982f, 0.26694599f, 0.03654728f,
    0.06612305f, 0.14241523f, 0.02386713f, -0.04386861f, -0.07921264f, -0.00477185f, 0.12596193f, -0.01581847f,
    -0.13489282f, -0.00661314f, -0.58864546f, -0.08137405f, -0.08124869f, -0.08277711f, -0.31915334f, -0.13868040f,
    -0.07423331f, 0.05721407f, -0.18227373f, -0.18509887f, 0.02243395f, -0.23804697f, -0.02521505f, -0.08427714f,
    0.10782538f, -0.08784712f, -0.03377548f, -0.00090984f, -0.14796111f, -0.01767934f, 0.11302314f, 0.08767767f,
    -0.02665797f, -0.00665076f, 0.32817698f, -0.14065535f, -0.17416643f, -0.09913231f, 0.19478178f, 0.19151503f,
    -0.12315580f, -0.10933112f, 0.03953842f, -0.04533872f, -0.18881948f, 0.12077267f, -0.03372016f, 0.14349189f,
    -0.11073501f, -0.00090358f, -0.03847349f, 0.10962801f, -0.17347731f, 0.08075307f, 0.06283905f, -0.00528207f,
    -0.14648359f, 0.02547625f, 0.04058251f, -0.05176791f, 0.00415916f, 0.03906337f, 0.21975316f, -0.08930896f,
    0.13618279f, 0.07284115f, -0.06818078f, -0.04201032f, 0.05352684f, -0.10378187f, 0.26683846f, 0.14835013f,
    0.00856434f, -0.01098687f, 0.03867486f, -0.18263902f, -0.05354667f, 0.02019269f, -0.03422114f, -0.06302168f,
    -0.00819199f, 0.04053618f, 0.07175499f, 0.05922337f, 0.09399397f, -0.06820773f, 0.39444384f, 0.12885019f,
    -0.03598962f, -0.16499765f, -0.14947014f, -0.20486498f, -0.03962340f, -0.08282913f, 0.08261082f, -0.24297592f,
    0.14857735f, -0.02713020f, 0.27875745f, 0.04285077f, 0.01279349f, -0.14861141f, 0.21915773f, 0.03439879f,
    -0.17132123f, -0.28843370f, -0.12110469f, 0.02693544f, -0.04476577f, -0.02700066f, -0.15422271f, -0.12248746f,
    -0.05262131f, -0.27310684f, -0.12319168f, -0.05772931f, -0.07262799f, -0.04789785f, -0.06770040f, -0.17576036f,
    -0.24294794f, 0.00519846f, 0.15283450f, 0.04595013f, -0.06068686f, 0.06248960f, 0.10291144f, -0.20497404f,
    -0.19140048f, -0.17964816f, -0.06076017f, -0.21958345f, -0.13090068f, -0.25625694f, -0.02770423f, -0.03100257f,
    0.04571395f, -0.24290933f, 0.13738592f, 0.02046784f, -0.04674097f, 0.02836695f, -0.01077742f, -0.02242002f,
    -0.11550255f, -0.08717125f, -0.11787359f, -0.09960067f, 0.03532297f, 0.06595970f, 0.03563548f, 0.00473098f,
    -0.29891458f, -0.08581550f, -0.03004524f, 0.06366492f, -0.15989973f, -0.07504278f, 0.05362171f, -0.19258650f,
    0.13831000f, -0.06468207f, 0.22676076f, 0.09699111f, -0.37390924f, -0.09559056f, 0.25235978f, 0.02814373f,
    0.02649348f, -0.19152230f, 0.00789866f, -0.31248489f, 0.05144113f, 0.12888241f, -0.04929095f, -0.22659343f,
    0.08284689f, -0.27674866f, 0.06581733f, 0.17341147f, -0.00135892f, 0.03562829f, 0.28724888f, 0.32349148f,
    -0.16701381f, 0.08606007f, 0.04713635f, -0.16622271f, 0.03199770f, -0.11030740f, 0.00310661f, -0.10180752f,
    0.14879441f, -0.30724201f, 0.13966209f, -0.06252216f, 0.09143627f, -0.05240217f, 0.10856039f, 0.18196355f,
    0.05480592f, 0.06818563f, 0.02827095f, 0.02383803f, 0.01527245f, 0.11427449f, 0.04143895f, -0.01358692f,
    0.16130024f, -0.10003580f, 0.11328620f, -0.09739275f, -0.00414399f, -0.02882718f, -0.10557996f, 0.11374447f,
    0.26212132f, -0.15328398f, 0.15063369f, 0.14799038f, 0.02430790f, 0.02272242f, 0.01579946f, -0.14398286f,
    -0.07342666f, 0.13939820f, -0.10182190f, -0.14492285f, -0.01080799f, 0.15188251f, 0.08529505f, -0.15554816f,
    -0.03001042f, -0.10268070f, 0.05145917f, 0.06871197f, -0.06510720f, 0.12041117f, 0.05170836f, 0.05141293f,
    -0.39418954f, -0.15687028f, -0.10861245f, -0.02854447f, -0.11598469f, 0.01333052f, -0.21326078f, -0.08594521f,
    0.09986001f, -0.01806393f, 0.28528923f, 0.30716562f, -0.01642416f, -0.34186700f, -0.01703553f, -0.08906136f,
    -0.29839942f, -0.21347767f, 0.05217005f, -0.16501077f, -0.08233320f, -0.22712930f, -0.18482423f, 0.04462929f,
    0.20879181f, -0.25268862f, -0.15187924f, -0.06535829f, -0.02744604f, 0.04625934f, -0.11060026f, -0.28252158f,
    -0.15961428f, -0.05835109f, 0.02800700f, -0.16522315f, 0.14819475f, 0.11295246f, -0.26852477f, -0.31984109f,
    0.11938767f, -0.07580291f, -0.08975796f, 0.01029993f, 0.05721293f, -0.08543183f, 0.01985666f, 0.04888601f,
    -0.20321715f, 0.07310920f, -0.24437192f, -0.08239049f, -0.05213198f, -0.09808014f, -0.02428987f, 0.07422284f,
    0.00221885f, 0.00334158f, 0.06671996f, 0.05647367f, -0.05589291f, -0.10914150f, 0.02511497f, 0.12867971f,
    -0.39125457f, 0.00647334f, -0.04390610f, 0.01917721f, -0.04428744f, -0.12170005f, 0.08528224f, -0.43568000f,
    0.10158838f, -0.09606382f, -0.06101576f, 0.02931058f, -0.07512860f, -0.02417784f, -0.02578379f, -0.02457205f,
    -0.03642946f, 0.03576118f, 0.13800275f, -0.11667621f, 0.09438030f, 0.03949948f, -0.07563105f, -0.08057230f,
    -0.20263420f, -0.12406143f, 0.11267357f, -0.07220317f, -0.08936033f, 0.12677480f, 0.08092082f, 0.01300872f,
    -0.33275974f, 0.05669285f, -0.22096376f, -0.07120753f, -0.05916419f, -0.01676114f, -0.12889853f, -0.04499526f,
    -0.28580451f, 0.04341919f, 0.00043901f, -0.03675053f, -0.14415984f, -0.09995343f, -0.06913399f, 0.08050344f,
    0.02037783f, -0.08889961f, -0.10846353f, -0.13329488f, -0.24812919f, -0.28002742f, -0.01499034f, 0.01025448f,
    0.00184575f, 0.12595309f, -0.07565699f, 0.04173173f, -0.00825180f, 0.02412587f, -0.09533431f, -0.04771592f,
    -0.14493260f, -0.22939943f, -0.12513605f, 0.16655821f, 0.19276752f, 0.15066123f, -0.10123412f, 0.14026825f,
    0.16779365f, -0.15913199f, 0.09712928f, 0.07209713f, 0.01223406f, -0.10049205f, -0.09019840f, -0.12472615f,
    -0.09306166f, -0.13435712f, 0.05992709f, -0.14088556f, -0.04427227f, -0.07147514f, -0.30299932f, -0.12308582f,
    -0.13290417f, -0.03541989f, 0.01569105f, -0.06314769f, -0.15950976f, -0.11759478f, 0.03377358f, -0.05011847f,
    -0.16978012f, -0.11531965f, 0.03732611f, -0.14236020f, 0.03299273f, 0.01016350f, -0.00509168f, -0.13455115f,
    -0.04642698f, -0.18857788f, -0.07323574f, -0.04886741f, 0.01106355f, -0.02374653f, -0.07532229f, -0.06957372f,
    -0.10207706f, -0.11492782f, 0.01268294f, -0.11614503f, -0.06397731f, -0.20262203f, -0.08595879f, -0.06728733f,
    -0.29139304f, 0.09173156f, -0.16666976f, -0.10446087f, -0.27074400f, 0.01659450f, -0.10601696f, 0.04520970f,
    -0.22239356f, -0.07612874f, 0.11382387f, -0.29772338f, 0.01813453f, 0.09456738f, 0.07073928f, -0.03012913f,
    -0.33769140f, 0.02917448f, -0.12433861f, 0.01960159f, 0.00970251f, -0.03109938f, -0.11378928f, -0.05143106f,
    0.00615359f, -0.18057792f, -0.01657116f, 0.03293644f, 0.07431968f, 0.07062613f, 0.12546124f, 0.07652120f,
    -0.08081363f, -0.14335847f, 0.05633244f, -0.02751435f, -0.24901827f, -0.02733155f, 0.03098912f, -0.02483478f,
    -0.22567439f, 0.05324936f, -0.02214346f, -0.14122736f, 0.00034783f, 0.00202853f, 0.20930311f, -0.04998010f,
    -0.35995734f, 0.00002078f, -0.00525681f, 0.11215597f, 0.05898167f, -0.10647438f, -0.04431449f, -0.17239672f,
    0.00258467f, -0.01927121f, -0.02440569f, 0.02298212f, -0.08316339f, 0.01171423f, -0.07210602f, -0.13378213f,
    -0.17695610f, 0.02665650f, -0.02835795f, -0.34787440f, -0.19831778f, 0.01439306f, 0.03759748f, -0.08982488f,
    0.13646229f, -0.11608416f, 0.02524202f, -0.19698836f, -0.06480435f, 0.10679258f, -0.07689995f, -0.01960387f,
    -0.14964774f, -0.19251858f, -0.00767614f, -0.07553776f, 0.04222256f, -0.12065551f, -0.00081395f, 0.16107413f,
    -0.16885583f, -0.14126223f, -0.07119352f, 0.16354321f, -0.01026693f, -0.27714050f, -0.11094487f, -0.04362473f,
    0.03911327f, 0.03708651f, -0.01195237f, 0.10538014f, -0.03110064f, -0.10181160f, -0.15215211f, 0.07963499f,
    -0.00689251f, -0.33129123f, -0.06992994f, -0.05677051f, -0.01804104f, 0.05842393f, 0.05550125f, 0.09798177f,
    -0.26409599f, 0.00800308f, 0.14337087f, -0.22052635f, 0.02530641f, 0.06850818f, 0.12787873f, 0.00186406f,
    -0.17258209f, -0.23195092f, -0.02397987f, -0.19160700f, -0.06564420f, 0.07661337f, 0.13551037f, -0.07709773f,
    0.32617241f, 0.04904651f, 0.15006785f, -0.23321536f, 0.13313638f, 0.13267760f, 0.03629941f, 0.13810858f,
    -0.22107071f, 0.06418452f, -0.14478342f, 0.25129944f, 0.14924733f, 0.10487411f, 0.13504378f, -0.18927720f,
    -0.25588229f, 0.04056571f, 0.05084710f, 0.14607535f, -0.08475731f, 0.06141758f, 0.09997782f, 0.04840984f,
    0.00972515f, 0.02691767f, 0.12265349f, 0.14655176f, 0.10831352f, 0.12193298f, -0.07622654f, 0.07575504f,
    -0.14959820f, 0.14913376f, 0.00909405f, -0.01657514f, -0.00464321f, -0.01173861f, 0.04326572f, 0.12061095f,
    -0.14572138f, -0.00868063f, -0.05076707f, -0.02671480f, 0.08997011f, 0.00015946f, 0.28073421f, -0.22557984f,
    -0.22490270f, -0.11229637f, 0.16249955f, 0.11224017f, -0.04614632f, 0.13206337f, -0.07370168f, 0.18867448f,
    -0.06106272f, -0.02245753f, -0.18226197f, 0.13537486f, -0.23952094f, 0.08807360f, 0.07183822f, -0.02538783f,
    0.03922823f, 0.02807743f, -0.07723405f, -0.03624491f, -0.01352270f, 0.14204256f, -0.07756854f, -0.14399089f,
    0.10662606f, -0.11714660f, 0.01411094f, -0.08824857f, -0.01234858f, 0.08449548f, 0.22933403f, -0.12665688f,
    -0.12670922f, -0.14736579f, 0.15210684f, 0.16577643f, 0.03259827f, 0.07794399f, 0.08915198f, -0.01929782f,
    -0.02958098f, -0.02625601f, -0.08539199f, 0.00885106f, -0.14204548f, 0.25571662f, 0.13437328f, 0.04020074f,
    -0.18041068f, 0.11080459f, 0.07455560f, 0.16057383f, 0.23990491f, -0.15971671f, 0.17610930f, 0.25623202f,
    -0.06732628f, -0.09742557f, -0.10858289f, 0.02007544f, -0.22355525f, -0.06311481f, 0.00876036f, 0.24135749f,
    -0.04736144f, -0.32554886f, -0.11103145f, -0.09249759f, 0.05929980f, 0.09332324f, 0.12314992f, 0.08661001f,
    0.10746372f, -0.11226773f, 0.14644051f, 0.11498480f, 0.12406388f, 0.12388825f, -0.09192804f, -0.04726074f,
    0.00894205f, -0.02750870f, -0.07442755f, -0.09269501f, 0.11353716f, 0.05543712f, -0.10280083f, 0.06794943f,
    0.15656593f, 0.08663212f, 0.00807143f, 0.02360593f, -0.11810473f, -0.07094400f, 0.01426074f, 0.03392156f,
    -0.06217574f, -0.18499075f, -0.11451393f, -0.17344484f, 0.09465449f, -0.00138109f, 0.02814191f, 0.06176253f,
    0.05078731f, -0.11530254f, 0.03340448f, -0.04233586f, -0.13641916f, -0.04769157f, -0.33669037f, -0.14231297f,
    -0.02946114f, -0.02312918f, -0.03537548f, 0.01199610f, -0.03359105f, 0.20514794f, -0.03260664f, -0.06992533f,
    0.11251609f, -0.26381004f, -0.12756383f, 0.17436838f, -0.21751177f, -0.21867500f, 0.05964200f, 0.00371415f,
    -0.20180531f, -0.00014237f, -0.18389376f, 0.08849374f, 0.05428228f, -0.15963694f, -0.28473669f, 0.12009103f,
    0.07906365f, -0.13023365f, 0.05431525f, -0.24240743f, 0.07097999f, -0.01043013f, -0.25100940f, -0.00848377f,
    -0.00228092f, -0.24906546f, -0.16277847f, -0.01330476f, 0.10458470f, 0.03202809f, 0.07394140f, 0.05651746f,
    0.13995744f, 0.07664907f, -0.06792634f, 0.00556288f, -0.07843090f, -0.13367279f, -0.11439568f, 0.10672452f,
    -0.09736698f, 0.03282381f, -0.08136763f, -0.06984773f, 0.03706972f, 0.08708496f, -0.18963598f, 0.01969145f,
    -0.19496161f, 0.06284914f, 0.11379036f, -0.01498020f, 0.14100751f, -0.01508874f, -0.06682077f, 0.00242838f,
    0.09935404f, -0.01472774f, 0.13633023f, 0.22356687f, 0.03894771f, -0.04182580f, -0.00579213f, 0.22351359f,
    0.00654968f, 0.13363808f, -0.12760514f, 0.00356011f, 0.11173743f, -0.11333908f, -0.07491374f, -0.19219755f,
    -0.06209874f, -0.10932412f, -0.05604331f, 0.02716087f, -0.19310105f, 0.01680659f, -0.27073693f, -0.19660783f,
    -0.23705593f, -0.09277768f, -0.17679650f, -0.05199639f, 0.03894769f, -0.06926341f, -0.37002975f, 0.11527590f,
    0.13807870f, -0.34440252f, 0.19115704f, -0.03920943f, 0.04357938f, 0.13569157f, 0.02231405f, 0.19179396f,
    -0.02573187f, 0.13312833f, -0.00925520f, -0.05262931f, 0.06728147f, 0.07481010f, -0.04476847f, -0.30469796f,
    0.22557168f, -0.16715635f, -0.02298361f, -0.24812125f, -0.03550824f, 0.06584841f, -0.11676030f, -0.08014546f,
    0.14740251f, 0.01624203f, -0.08093264f, 0.23504925f, 0.33150536f, 0.23436956f, 0.09887358f, -0.01990318f,
    -0.10886779f, -0.13441293f, 0.10474873f, 0.15980352f, -0.20473145f, -0.01149157f, 0.08653532f, 0.12648594f,
    -0.13456409f, -0.05474287f, 0.06296577f, -0.04389914f, -0.00034467f, -0.10485461f, 0.00082335f, 0.04703520f,
    -0.03069766f, -0.14233263f, 0.04799373f, 0.00481955f, -0.21290971f, 0.04458249f, 0.02345326f, -0.09109699f,
    -0.04510397f, -0.32841554f, -0.22859168f, 0.00783992f, -0.24711022f, -0.28147250f, -0.26896504f, -0.09577285f,
    -0.02100638f, 0.02801377f, -0.01321680f, -0.08876897f, -0.11777616f, 0.03254680f, 0.19640414f, 0.00656105f,
    -0.13162330f, -0.10906674f, 0.05967509f, -0.08822045f, 0.20929261f, -0.07843047f, -0.20327073f, -0.49004424f,
    -0.30147800f, -0.06719161f, -0.18152136f, -0.04510750f, 0.08771597f, -0.12458462f, -0.15644191f, -0.01583859f,
    0.06099117f, -0.17195415f, -0.30791852f, 0.02120855f, -0.53061789f, -0.14326560f, 0.28310445f, 0.00020539f,
    -0.17310093f, -0.07500772f, -0.08576510f, -0.14545962f, -0.02549088f, -0.19646288f, -0.09597030f, -0.30300370f,
    -0.05235852f, -0.43932921f, 0.04807628f, 0.01528618f, 0.09185804f, -0.12358225f, -0.11946367f, -0.09600526f,
    -0.10248747f, -0.08538889f, 0.21809924f, 0.04558409f, 0.02465995f, -0.09734061f, -0.06469980f, -0.18721609f,
    0.03425525f, -0.09688165f, 0.08329806f, -0.24822046f, -0.21350746f, -0.06136275f, -0.17140430f, -0.07266169f,
    0.07271744f, -0.07259042f, -0.20138980f, -0.01748826f, 0.20157471f, 0.18767597f, -0.14820950f, -0.08662694f,
    0.16223015f, -0.33240551f, -0.14783956f, 0.07170848f, -0.01116677f, 0.07807380f, -0.14110294f, 0.23147643f,
    -0.33536732f, -0.28293172f, 0.01032386f, -0.00219229f, 0.15091538f, -0.10964376f, 0.16156402f, -0.14083602f,
    -0.06352554f, -0.15347487f, -0.27657187f, -0.08923931f, -0.27389210f, -0.37489489f, -0.26770845f, -0.08271379f,
    -0.12615666f, 0.03611046f, 0.14818883f, -0.16691467f, -0.12679933f, 0.00475694f, -0.04021255f, -0.07016801f,
    0.08142409f, -0.16647311f, -0.04451035f, 0.06532823f, -0.09552115f, 0.10597279f, 0.27478266f, -0.13898961f,
    -0.24789783f, -0.30921313f, -0.10958398f, 0.00429363f, 0.06149206f, -0.15859213f, -0.10403867f, -0.00652784f,
    0.12825325f, 0.11298278f, -0.11625203f, -0.10134927f, -0.18248785f, -0.34720892f, 0.28415841f, -0.11839729f,
    -0.19825643f, -0.12507382f, -0.19278112f, -0.30273777f, -0.03384352f, -0.27031857f, -0.12236328f, -0.09432948f,
    -0.03062900f, -0.15758930f, 0.09333028f, -0.03672078f, -0.13154383f, -0.19805750f, -0.12101799f, -0.25049901f,
    0.02409580f, 0.16086853f, -0.12072682f, -0.05128380f, -0.17920031f, 0.14166242f, 0.17587402f, 0.02555769f,
    -0.33633721f, -0.14360437f, -0.09695803f, -0.13058481f, 0.14148575f, -0.27874616f, -0.32653764f, -0.06052075f,
    -0.11260077f, 0.05574682f, 0.16829349f, 0.06820735f, 0.11478201f, 0.10750626f, 0.04374109f, 0.18611838f,
    -0.19881511f, 0.17537877f, -0.06961580f, -0.22712976f, -0.06263560f, 0.02433415f, 0.10044283f, -0.21530904f,
    -0.18822773f, -0.01804646f, -0.01991193f, 0.10492080f, -0.08346130f, -0.04575653f, 0.25393361f, 0.00137999f,
    -0.18580517f, -0.16967769f, -0.11922441f, -0.17636189f, -0.23436464f, -0.13354056f, -0.30100569f, -0.20674454f,
    0.02196517f, 0.09224678f, 0.18376949f, -0.04506600f, 0.05018346f, -0.02343334f, -0.14060102f, -0.13125706f,
    -0.02537755f, 0.03379216f, 0.02512619f, -0.16165364f, 0.03066791f, 0.10365436f, 0.19992277f, -0.11946272f,
    0.02875785f, -0.00009724f, -0.23814571f, 0.20654920f, 0.04295388f, -0.10728823f, 0.20357740f, 0.27666554f,
    -0.03627155f, 0.00616862f, -0.09302725f, -0.01963921f, 0.13879044f, 0.15831532f, -0.09082410f, -0.03236414f,
    -0.30544570f, 0.13677365f, 0.06623444f, 0.20163906f, -0.03118009f, -0.25558665f, -0.15173812f, -0.03145804f,
    -0.10076739f, 0.03017128f, 0.11773194f, -0.24051985f, 0.03800896f, -0.15509079f, 0.28896913f, -0.08945014f,
    -0.11487447f, -0.25542045f, 0.03815167f, -0.13437730f, 0.07672732f, 0.09336720f, -0.05708968f, 0.06530317f,
    -0.18196006f, 0.23064062f, -0.08247666f, 0.06314032f, -0.07876484f, -0.03869463f, -0.07105798f, -0.06231135f,
    0.03625577f, 0.14184052f, -0.05773928f, 0.06884734f, 0.14296140f, -0.13387015f, 0.14666975f, 0.07402205f,
    -0.15735291f, 0.00912099f, -0.04994570f, -0.01742977f, 0.06840210f, 0.10006431f, -0.11832915f, -0.20345278f,
    0.11090155f, -0.29119745f, -0.07541844f, 0.03255102f, -0.00845731f, 0.13192514f, -0.15977062f, 0.02731751f,
    0.01386238f, 0.13628578f, -0.06697160f, -0.14720516f, 0.10563815f, 0.08656770f, -0.05497704f, -0.24778421f,
    -0.15214211f, 0.11040305f, -0.15025114f, -0.02497817f, 0.11268991f, 0.10461839f, -0.09734885f, 0.08272492f,
    -0.07987978f, -0.02777633f, -0.08288383f, 0.00035148f, -0.17129543f, -0.05044337f, -0.21457598f, -0.15526359f,
    -0.13452989f, -0.11188976f, 0.23974748f, -0.09615933f, -0.07835467f, -0.09947082f, 0.13075992f, -0.01455732f,
    -0.04772675f, 0.00861364f, 0.01839226f, 0.04955193f, -0.01318810f, -0.10223819f, -0.24525607f, 0.20926768f,
    0.17918579f, 0.12080122f, 0.04035120f, -0.07644280f, 0.09515603f, 0.10490874f, 0.00446690f, 0.02231294f,
    -0.05455977f, -0.00438223f, -0.07237046f, 0.20869669f, -0.19295678f, 0.21179342f, 0.19586778f, -0.09385692f,
    -0.09738347f, -0.12171301f, 0.06943883f, 0.06078212f, -0.01388315f, 0.03031573f, 0.17041197f, 0.06183810f,
    -0.11262784f, -0.19436558f, 0.00633052f, 0.13628700f, -0.09486226f, 0.25891834f, -0.13535844f, -0.11286042f,
    0.18796632f, 0.07602882f, -0.05533348f, 0.04608565f, -0.06816284f, 0.06152046f, 0.02378991f, 0.07604405f,
    0.19193493f, -0.09992600f, -0.05952332f, 0.01786491f, 0.19536981f, 0.04689459f, 0.07444350f, -0.01790080f,
    -0.08169924f, -0.20107609f, -0.09053282f, -0.04049728f, 0.05051092f, -0.05716798f, -0.04706679f, 0.02139793f,
    -0.16456699f, 0.01966712f, -0.07969084f, 0.10295646f, 0.10751005f, -0.03660795f, -0.25943094f, -0.35061368f,
    0.03762417f, 0.02330198f, -0.26054198f, 0.11575495f, 0.17592052f, -0.23795788f, -0.08778585f, -0.11133318f,
    -0.11095242f, -0.04149638f, 0.05471252f, 0.03099735f, 0.13766797f, -0.10472897f, -0.01935874f, -0.23971547f,
    -0.11168586f, -0.27447030f, -0.09238651f, -0.04627715f, 0.03658179f, 0.01049980f, -0.17007935f, 0.10433988f,
    0.13551278f, -0.14148434f, 0.10855463f, 0.06940469f, -0.11792476f, 0.13007346f, -0.09818227f, -0.21767564f,
    -0.09633420f, -0.01746213f, 0.09160849f, 0.16245550f, -0.08663969f, -0.10977837f, 0.09464084f, 0.02297347f,
    -0.08421358f, 0.04503859f, 0.00212901f, -0.11614630f, -0.15102533f, 0.12385821f, -0.04154900f, -0.11132918f,
    -0.18161806f, -0.31120431f, -0.06542792f, -0.04805785f, -0.14819826f, 0.02647961f, -0.14797974f, -0.12163709f,
    0.09420249f, -0.03376058f, 0.01161100f, -0.11505044f, 0.04737611f, 0.24734545f, 0.19523799f, -0.13764267f,
    0.15081054f, -0.13383594f, 0.12197609f, -0.01815449f, 0.02475245f, -0.05789978f, 0.02672540f, 0.07706201f,
    0.08534492f, -0.16075520f, -0.21985964f, 0.11512268f, -0.05068364f, 0.05324877f, 0.04074555f, -0.01115730f,
    -0.12041570f, 0.00522933f, 0.09354056f, -0.09926987f, -0.03673743f, -0.00182753f, 0.01837259f, -0.06269052f,
    -0.03542783f, 0.04056331f, -0.13207707f, -0.04664094f, -0.23793565f, 0.03517573f, -0.12892723f, -0.18559372f,
    0.15292476f, 0.08073766f, -0.10209987f, -0.05625475f, -0.07005883f, -0.01516855f, -0.02948191f, -0.01779463f,
    0.13572647f, -0.27510089f, -0.06365618f, 0.05599949f, -0.12930411f, 0.04274225f, -0.30626097f, 0.01802335f,
    -0.01624642f, -0.13107212f, 0.00165275f, -0.04860484f, -0.05470437f, -0.07704742f, -0.10425685f, -0.14376646f,
    0.18108422f, 0.08416219f, 0.08454709f, -0.04812117f, -0.09261885f, -0.13284425f, -0.07361587f, 0.01956479f,
    -0.00415584f, -0.29985052f, -0.07845500f, -0.02744259f, -0.02663555f, 0.04786310f, -0.12914540f, -0.21397100f,
    0.09494872f, -0.25940415f, 0.11216455f, -0.10978089f, 0.09106090f, 0.03196843f, -0.03519869f, 0.11424626f,
    -0.01931658f, -0.19540600f, 0.09905892f, 0.06673557f, -0.00274892f, -0.07206780f, 0.13694720f, 0.26062924f,
    0.04255938f, -0.05327103f, 0.04263094f, -0.05569334f, -0.06507285f, -0.05095721f, 0.23131819f, -0.13386855f,
    0.05717116f, -0.07666188f, 0.01853587f, -0.20268656f, -0.10739541f, 0.11128726f, -0.00874236f, -0.28430772f,
    -0.01023571f, -0.05358754f, 0.08135989f, 0.05118584f, 0.02434947f, -0.00621147f, 0.18590379f, 0.08910557f,
    0.03028953f, -0.44020107f, 0.07585297f, 0.05205233f, -0.03548777f, -0.05041863f, 0.12331305f, 0.00819509f,
    -0.04793458f, 0.03671017f, -0.09061373f, -0.18668482f, -0.03561955f, -0.12811337f, -0.07521401f, -0.07710562f,
    0.13336244f, -0.13321452f, -0.23645894f, 0.07655014f, 0.04022012f, -0.06621464f, -0.26203564f, -0.05640436f,
    -0.14211212f, -0.18397512f, 0.00188266f, -0.16590913f, 0.15039760f, 0.01913519f, 0.21405058f, -0.10030060f,
    0.07905799f, 0.00356393f, -0.32476658f, 0.06791726f, -0.06126846f, -0.08380476f, -0.02954235f, 0.10254476f,
    0.01907157f, 0.11044686f, -0.13620253f, -0.07767532f, 0.01488402f, 0.12179417f, 0.17936169f, -0.05210313f,
    -0.21576777f, -0.00589218f, -0.04219717f, -0.06046795f, 0.03973809f, -0.32122388f, -0.09056357f, 0.13223000f,
    -0.06513017f, 0.08069484f, -0.13493916f, 0.18356536f, -0.10208920f, -0.15743622f, -0.24756886f, -0.10547728f,
    0.08916338f, -0.06847628f, 0.07349430f, -0.04735880f, -0.10537833f, -0.05816772f, 0.11868815f, -0.02109476f,
    0.02528817f, 0.00489705f, 0.25701371f, -0.37025240f, -0.24925803f, -0.13615189f, 0.18978362f, -0.02149782f,
    0.08958199f, 0.12419469f, -0.06376035f, 0.02679041f, -0.27062160f, 0.12254804f, -0.29575622f, -0.24674322f,
    -0.04437844f, -0.40579149f, -0.03032029f, 0.02496811f, -0.13674918f, -0.02259433f, 0.04655310f, 0.17658097f,
    -0.13052988f, -0.23841082f, -0.05822569f, 0.01877080f, -0.13150103f, -0.06709263f, 0.32477793f, 0.05984575f,
    -0.03324408f, 0.09320770f, 0.01759311f, -0.08414485f, -0.17720787f, -0.08221186f, 0.14877817f, -0.12826045f,
    0.08329555f, 0.08239268f, -0.02393363f, -0.15754546f, -0.05007986f, -0.18773749f, -0.14635129f, -0.34445101f,
    -0.20831847f, -0.30189204f, 0.11647538f, -0.19411036f, 0.00637582f, 0.15411665f, 0.13679163f, -0.21728970f,
    -0.19082125f, 0.10126408f, -0.08238761f, 0.02590945f, -0.13894403f, -0.05525725f, -0.26756862f, -0.11292609f,
    0.01739150f, 0.11482888f, -0.05414128f, -0.08982251f, 0.07245895f, 0.15918265f, 0.09061570f, 0.02998766f,
    0.12342503f, -0.23205197f, -0.21414815f, -0.04721096f, 0.04492800f, -0.02175497f, -0.16171265f, 0.02903379f,
    -0.41259792f, 0.01818040f, 0.11047608f, -0.10368098f, 0.05406560f, 0.01677453f, -0.09125404f, -0.30155274f,
    0.09481426f, 0.13355368f, 0.07883830f, -0.10762160f, -0.11337140f, 0.00657830f, 0.09392393f, -0.08512141f,
    -0.08494491f, 0.06195705f, 0.07167686f, -0.23857668f, 0.08770683f, -0.01021624f, -0.11005632f, -0.03733850f,
    0.15869285f, 0.01338764f, 0.16088983f, -0.02565464f, -0.11508968f, 0.08487326f, -0.08152232f, 0.01620581f,
    -0.08162861f, 0.13872607f, -0.09115627f, -0.01863739f, -0.04495818f, 0.24414603f, 0.04803676f, -0.05551545f,
    -0.20216070f, -0.10649265f, 0.04459506f, 0.09535196f, -0.08751418f, 0.06584210f, 0.13988519f, 0.21595447f,
    0.05610452f, 0.05932074f, -0.26003203f, 0.04441469f, -0.00109033f, -0.07073789f, -0.13682593f, -0.04480572f,
    0.00582712f, 0.14518829f, -0.01516005f, -0.07347704f, -0.19584325f, -0.14596763f, 0.03278669f, 0.01324665f,
    -0.27369860f, -0.16480206f, 0.07640650f, -0.07101527f, 0.08952063f, -0.01977967f, -0.08155489f, -0.37740117f,
    -0.02847284f, -0.27925697f, 0.12869547f, 0.14215454f, -0.13065240f, 0.07218482f, -0.06188889f, 0.25019166f,
    0.16771154f, -0.01648279f, -0.14609221f, 0.06676781f, 0.02860818f, -0.00636305f, -0.14062820f, -0.05798871f,
    0.02971257f, 0.01291919f, -0.15824667f, -0.10692795f, 0.10849299f, -0.30300528f, -0.04131296f, -0.12032118f,
    -0.18030381f, -0.11631124f, 0.07904354f, -0.10241847f, 0.15437666f, 0.00130513f, -0.05442909f, -0.07819975f,
    -0.05801220f, -0.07898644f, -0.10591946f, -0.24819277f, 0.04841310f, -0.42459291f, -0.25854051f, -0.36404952f,
    0.01999307f, -0.13280459f, 0.07880846f, -0.04230180f, -0.00731745f, -0.30814379f, 0.09713996f, -0.02918344f,
    -0.20069744f, -0.19202620f, -0.20845357f, -0.29689538f, -0.02168164f, 0.01766209f, -0.35260105f, -0.30041733f,
    0.00977112f, -0.00990752f, -0.10076515f, -0.15168978f, -0.22181140f, -0.12049646f, -0.31890649f, 0.13427152f,
    -0.31038532f, -0.19832672f, 0.17798707f, -0.19824859f, 0.00080429f, 0.14917734f, -0.05601238f, -0.51416427f,
    -0.17480294f, -0.28162399f, -0.10026219f, -0.40164739f, -0.11218378f, -0.14979865f, 0.03824605f, 0.15404227f,
    0.03354893f, -0.30299670f, 0.07465667f, -0.13305803f, -0.01414904f, 0.09465605f, 0.07010887f, 0.04692768f,
    0.05696208f, 0.11450168f, -0.00120827f, -0.02451338f, 0.03215037f, 0.03805023f, -0.37968066f, -0.04945342f,
    -0.44343728f, -0.13113810f, 0.03534757f, 0.09015653f, 0.11877837f, 0.12939715f, 0.01688374f, -0.16075563f,
    -0.07268842f, -0.20790324f, -0.31035659f, -0.04516139f, -0.36193183f, 0.33661789f, -0.14473382f, 0.24557348f,
    -0.13248970f, -0.07845956f, 0.13348520f, -0.26494411f, -0.16573276f, 0.19369525f, 0.23398057f, 0.24412268f,
    -0.31121311f, 0.13678277f, -0.03126614f, -0.22389759f, -0.10562412f, 0.19036351f, -0.06734408f, -0.02810612f,
    0.09388352f, -0.12277085f, 0.10914835f, 0.11841965f, 0.07396302f, 0.03101673f, -0.06970999f, -0.29821417f,
    -0.05422022f, 0.08855543f, 0.13788338f, -0.21436350f, 0.04823655f, 0.01405487f, -0.10775732f, 0.09148963f,
