/* Generated by netkit AOT compiler (lowered) — compile with -std=c++26 for firmware */

#if defined(__GNUC__)
#if defined(__ELF__)
#define NETKIT_AOT_FLASH_CONST __attribute__((section(".rodata"), aligned(8)))
#else
#define NETKIT_AOT_FLASH_CONST __attribute__((aligned(8)))
#endif
#else
#define NETKIT_AOT_FLASH_CONST
#endif

#include "mnist_mlp_aot.hpp"

#include "active_kernel.hpp"
#include "tensor_factory.hpp"

#include <array>
#include <cstring>
#include <span>

namespace netkit::aot::mnist_mlp {

namespace {

alignas(16) static const float kWeight0_src[100352] = {
    0.00325859f, -0.01442296f, 0.03171963f, 0.03396567f, 0.12287869f, -0.06289882f, -0.05761000f, 0.01430338f,
    0.04840628f, 0.00792628f, -0.06175508f, 0.01428915f, 0.03788343f, 0.05819476f, 0.13628235f, -0.01831423f,
    -0.01208424f, 0.00997850f, -0.01661918f, -0.03929298f, -0.05973575f, -0.02048665f, -0.06674724f, -0.05150078f,
    -0.03269784f, -0.02865595f, -0.08688263f, -0.01391073f, 0.00035595f, -0.00798494f, 0.05113716f, -0.05065799f,
    0.09638550f, -0.08281154f, 0.21409318f, 0.20676087f, 0.12394390f, -0.01341231f, 0.08394945f, 0.25419739f,
    0.27337500f, 0.43008286f, -0.16286215f, -0.26961258f, 0.16901672f, 0.24876289f, 0.17033491f, 0.16937104f,
    0.20403692f, 0.05573362f, -0.02222309f, -0.06390706f, 0.03058460f, -0.03099941f, 0.06107802f, 0.09887742f,
    0.00196381f, -0.05091695f, 0.05516206f, 0.34972686f, 0.26998720f, 0.19181295f, 0.22036426f, 0.18193197f,
    0.33366802f, 0.49937573f, 0.08478598f, 0.18797830f, 0.09157144f, 0.01151050f, 0.18798274f, 0.07580251f,
    0.14898413f, 0.37180334f, 0.14516827f, -0.10505780f, -0.03600144f, 0.39165601f, 0.18784462f, 0.32314873f,
    0.17783514f, 0.08900675f, -0.04358840f, 0.01762781f, 0.01032180f, 0.00229039f, -0.36404595f, 0.07598985f,
    0.35882941f, 0.54237431f, 0.49819541f, 0.00084485f, 0.12771253f, 0.07264977f, -0.15713875f, -0.09719610f,
    -0.08861797f, -0.07554030f, 0.16440915f, 0.14369069f, 0.23875156f, 0.03978975f, -0.06255649f, -0.09073821f,
    -0.13716958f, 0.08188581f, -0.18316449f, -0.28642368f, 0.13907522f, 0.00747763f, 0.08368102f, 0.03073972f,
    -0.01514570f, 0.07798159f, -0.31140020f, -0.31291088f, 0.28831258f, 0.40777457f, 0.28121483f, -0.30401167f,
    -0.12537533f, -0.11377902f, -0.22627413f, -0.49761549f, -0.47704762f, -0.53330708f, -0.36768219f, -0.04246429f,
    0.06459699f, 0.14919242f, 0.16666909f, 0.19231467f, 0.28461292f, 0.22426197f, 0.05782970f, 0.33053076f,
    0.12417239f, -0.08773527f, -0.17934597f, 0.19124374f, -0.02555985f, 0.01224419f, -0.25346622f, 0.26819253f,
    0.03683052f, -0.16704626f, -0.18966079f, -0.35895568f, -0.21671329f, -0.25625619f, -0.39104655f, -0.39901927f,
    -0.30717471f, -0.14669788f, 0.06350911f, 0.03204234f, -0.05893514f, 0.06993023f, 0.05084490f, 0.34811878f,
    0.62902558f, 0.19659296f, 0.00230879f, -0.05677137f, -0.00153512f, -0.03498877f, 0.13826905f, 0.24562423f,
    -0.01769793f, 0.03509318f, 0.43591049f, 0.30091211f, 0.21243942f, 0.10036527f, -0.10281449f, -0.08113797f,
    -0.10347064f, -0.38118547f, -0.63790935f, -0.38968861f, -0.08628745f, -0.08015190f, 0.14521630f, 0.23279609f,
    0.13981852f, -0.18606073f, -0.29924729f, -0.04971029f, 0.06193544f, -0.06577466f, 0.07087978f, -0.12080454f,
    0.12884203f, 0.26891762f, 0.30326819f, 0.12751193f, 0.00518831f, 0.07451758f, -0.01888250f, 0.20105284f,
    0.38807461f, 0.20309004f, 0.01539984f, -0.02465901f, 0.10807419f, -0.28022948f, -0.39991611f, -0.15725580f,
    -0.15381096f, 0.05886818f, -0.00139390f, 0.07655472f, 0.09624778f, -0.19598868f, -0.12006880f, -0.26076299f,
    -0.08890294f, -0.08480503f, -0.07912432f, -0.14393017f, 0.10559808f, 0.17806634f, 0.30431348f, 0.24440905f,
    0.45611349f, -0.00360094f, 0.00064149f, 0.07497932f, -0.06615085f, 0.10150085f, 0.17952211f, 0.16621837f,
    -0.06768686f, -0.19673850f, -0.50238115f, -0.23748240f, -0.25152043f, -0.21650133f, -0.03812055f, 0.12144195f,
    -0.20745048f, -0.13919181f, -0.18881965f, -0.08703341f, 0.14959186f, 0.07581463f, -0.07766722f, 0.11666892f,
    0.15227145f, 0.02541438f, 0.16658978f, 0.12951048f, 0.00814546f, -0.60955817f, -0.18488440f, -0.04773666f,
    -0.10313965f, -0.06575029f, -0.06721079f, 0.09816749f, -0.25732943f, -0.41617417f, -0.30408600f, -0.21902715f,
    -0.07410618f, -0.01557718f, 0.10700707f, 0.04769237f, -0.07156046f, 0.03879565f, -0.02783873f, 0.09699151f,
    0.27797812f, -0.04021371f, 0.00752509f, 0.04494848f, 0.30166847f, -0.00491560f, 0.17499144f, -0.20457736f,
    -0.03936362f, -0.53522468f, -0.05772582f, 0.34685889f, -0.07060628f, 0.15802117f, 0.07193430f, 0.09807965f,
    -0.09020673f, -0.14054801f, -0.32489505f, -0.37045345f, -0.06205129f, -0.12571786f, 0.26965395f, 0.26770031f,
    -0.10421693f, 0.05729092f, 0.06086586f, -0.21722619f, -0.03475801f, -0.09871433f, -0.18494897f, 0.09839932f,
    0.30486709f, -0.08179559f, 0.07095978f, -0.38314748f, -0.04704314f, 0.26261202f, -0.37979841f, 0.25910047f,
    -0.28389320f, 0.18977621f, 0.24699299f, 0.14134604f, 0.12292003f, -0.05448214f, -0.16779034f, -0.24021523f,
    -0.01724840f, 0.00508365f, 0.22621667f, -0.03828296f, -0.05572822f, -0.02239811f, -0.04170922f, -0.05656565f,
    -0.25112736f, -0.23855555f, -0.05222030f, -0.15033890f, -0.05884380f, -0.01346207f, -0.44079477f, -0.41095158f,
    0.03396213f, 0.08045444f, -0.27316558f, -0.18233788f, -0.32620582f, 0.05316665f, 0.16617863f, 0.10903075f,
    0.11382389f, -0.09132557f, 0.05560511f, -0.16661398f, 0.09876254f, 0.23026741f, 0.15675452f, 0.02965654f,
    0.00420713f, -0.04807406f, -0.05520783f, -0.10495640f, -0.37025988f, -0.23614387f, 0.22542186f, -0.01795284f,
    0.27900875f, -0.03716447f, -0.17293262f, -0.48944211f, 0.08046044f, -0.00565187f, -0.35114676f, 0.00668487f,
    -0.18372574f, 0.05882597f, 0.34390354f, 0.24682464f, 0.22396526f, 0.04535929f, 0.22751629f, -0.04284316f,
    0.32485357f, 0.34846708f, 0.03483184f, 0.04069593f, 0.02891468f, -0.00122199f, 0.09583690f, -0.19092862f,
    -0.27875108f, -0.34054124f, 0.12341923f, 0.31170100f, 0.21388046f, -0.32200649f, 0.10149477f, 0.22181065f,
    0.08807353f, -0.07787972f, -0.30450791f, 0.23765464f, -0.00149341f, 0.26324883f, 0.30026799f, 0.27257493f,
    -0.02680530f, 0.05105660f, 0.13467102f, 0.04098019f, 0.30942434f, 0.25117666f, 0.00726777f, 0.04754421f,
    0.05339300f, 0.03387628f, -0.01654032f, -0.00122783f, -0.18606040f, -0.21839602f, 0.36941338f, 0.40106928f,
    0.75114608f, 0.35821602f, 0.25723743f, 0.27250746f, 0.11868876f, 0.05673366f, 0.37506571f, 0.30883357f,
    0.10670796f, 0.18374527f, 0.10421173f, 0.15791404f, -0.01051177f, 0.07108627f, 0.04496868f, -0.11954948f,
    0.28009668f, 0.01783802f, 0.00639116f, 0.10262348f, 0.18538250f, 0.27914655f, -0.09619065f, 0.08992323f,
    -0.07181874f, 0.02610821f, 0.10213900f, 0.30803746f, 0.41702414f, 0.55503285f, -0.08455563f, 0.18090591f,
    -0.00813937f, -0.18626027f, 0.08533364f, 0.28439450f, 0.03823287f, 0.25660601f, -0.03583653f, 0.23711148f,
    0.05326891f, 0.07074601f, -0.00306020f, 0.09814252f, 0.18541212f, -0.04993642f, 0.02713042f, 0.28760630f,
    0.23978372f, 0.49722093f, 0.17575419f, 0.05790934f, 0.17949837f, 0.17440388f, 0.17035843f, 0.21031606f,
    -0.07249869f, 0.81835675f, 0.39388832f, 0.24648428f, 0.08051107f, -0.03586599f, 0.12887216f, 0.31563622f,
    0.06829683f, 0.12894605f, 0.09446098f, 0.04346727f, 0.10774593f, -0.03660931f, 0.07071634f, 0.11291277f,
    -0.00722779f, -0.02584840f, 0.03192113f, 0.27234617f, 0.29999509f, 0.38711452f, 0.37681711f, -0.00428534f,
    0.06129813f, 0.09670983f, -0.00074527f, -0.07935780f, -0.27059349f, 0.09518667f, -0.31597331f, 0.32763743f,
    -0.42066091f, -0.05599544f, -0.19125095f, 0.32015935f, 0.07345517f, 0.14017363f, 0.14325258f, 0.21350382f,
    0.06729279f, -0.05962465f, -0.01134171f, -0.02857612f, -0.04674283f, -0.04794694f, 0.09852023f, 0.41269892f,
    0.39835098f, 0.34027109f, 0.26492253f, -0.00123462f, -0.06898557f, -0.05964216f, -0.15043728f, -0.03820242f,
    -0.21986006f, -0.15492760f, -0.47050422f, -0.09609688f, -0.14847811f, -0.30307391f, 0.25350919f, 0.29152143f,
    0.21576101f, 0.39469701f, 0.13018405f, 0.03528978f, 0.04403309f, -0.02414862f, 0.05534891f, -0.12595531f,
    -0.10647924f, -0.17000984f, 0.24447054f, 0.56265503f, 0.26512796f, 0.26007110f, 0.26821470f, -0.02703712f,
    0.03791086f, -0.17777508f, -0.00520131f, -0.06843608f, -0.30642635f, -0.36929110f, -0.09632847f, -0.18426180f,
    0.05160543f, -0.30406311f, 0.51217157f, 0.21694589f, 0.05978917f, 0.10569949f, -0.02345120f, 0.09800826f,
    0.19797842f, 0.26022288f, 0.10866402f, 0.04525373f, -0.00456285f, 0.03721527f, 0.04516849f, 0.13058287f,
    -0.02813262f, 0.00082011f, 0.15165335f, -0.13443023f, -0.29866233f, 0.07807009f, 0.18564354f, -0.20807011f,
    -0.44885761f, -0.38562375f, -0.02513991f, -0.03966001f, -0.14075822f, -0.02757719f, 0.30237335f, 0.30949280f,
    -0.04284674f, 0.02888114f, -0.02266137f, 0.11064418f, 0.16290858f, 0.21704659f, 0.13902061f, 0.03063175f,
    0.17013735f, -0.12039732f, -0.12167379f, 0.01001067f, -0.18892947f, -0.07328256f, -0.18910466f, -0.25797296f,
    -0.56955129f, 0.04876569f, 0.15664200f, -0.37480626f, -0.62246317f, 0.14009707f, 0.44144613f, -0.03067623f,
    0.00932374f, -0.03401123f, 0.30348113f, 0.13252820f, -0.19799972f, -0.13430099f, -0.05477108f, 0.06712126f,
    -0.02373632f, 0.05625010f, 0.19415119f, 0.26472026f, 0.23382476f, -0.13744868f, -0.36238396f, -0.01555717f,
    -0.33032152f, -0.25779831f, -0.38049856f, -0.24963835f, -0.44074109f, -0.22318560f, -0.18353744f, -0.53899419f,
    -0.38518801f, 0.10781236f, 0.43383315f, -0.02082238f, 0.06698358f, -0.06501965f, 0.38898310f, 0.18244858f,
    -0.05629793f, -0.13415775f, 0.05637250f, -0.05499470f, -0.02078792f, 0.07726041f, 0.19987404f, 0.12222582f,
    -0.08213275f, -0.61215854f, -0.41586506f, -0.53816575f, -0.73994327f, -0.83282191f, -0.12911423f, -0.16251445f,
    -0.22890350f, -0.15799150f, -0.36726788f, -0.32358199f, -0.04928037f, 0.16248718f, 0.25547540f, -0.01593843f,
    0.03590835f, -0.02947682f, 0.34691533f, 0.40950090f, 0.10223658f, -0.01614786f, -0.35970265f, -0.26963556f,
    -0.35768804f, -0.21228139f, -0.25732374f, -0.33973408f, -0.43108073f, -0.75128210f, -0.66453856f, -0.35629436f,
    -0.29762858f, -0.40368828f, 0.06884860f, 0.02015890f, 0.19462748f, 0.13855800f, -0.32385537f, 0.01589734f,
    0.28952813f, 0.18615907f, 0.02485268f, -0.04120210f, -0.08043440f, -0.04542649f, 0.07130002f, -0.17077067f,
    -0.26319849f, -0.57855499f, -0.79494929f, -0.83604085f, -0.95537758f, -0.72386926f, -0.53212088f, -0.40839997f,
    -0.55498338f, -0.36379305f, -0.58149195f, -0.32265791f, -0.16880925f, -0.35908508f, -0.41839620f, -0.47444984f,
    -0.35765284f, -0.08018044f, -0.26130152f, 0.09589217f, 0.07255052f, -0.04141496f, 0.02760048f, -0.07699034f,
    0.05900250f, -0.08397628f, -0.02403405f, -0.07868213f, -0.11579871f, -0.20868082f, -0.36887684f, -0.48219022f,
    -0.38451338f, -0.24489872f, -0.24235110f, 0.16853064f, -0.40406859f, 0.12220439f, 0.06540043f, -0.09297588f,
    0.26571655f, 0.09299206f, -0.20659055f, -0.25665519f, -0.73437917f, -0.52370930f, -0.55005664f, -0.26988077f,
    -0.20878263f, -0.05945407f, -0.02782498f, 0.07841509f, 0.10293356f, -0.03873240f, 0.00305510f, -0.06002154f,
    0.02002881f, -0.05322961f, -0.26493561f, -0.11977476f, -0.19085285f, -0.03840820f, -0.43167132f, -0.30559883f,
    0.02584176f, -0.35292962f, -0.25858665f, 0.21355686f, -0.28658044f, -0.61913007f, -0.45853266f, -0.20684172f,
    0.00619591f, 0.08786723f, 0.01524299f, -0.02206636f, -0.08050197f, -0.02131529f, 0.02736936f, 0.01592682f,
    -0.05607440f, 0.05980763f, 0.01012610f, -0.05584722f, 0.04343282f, 0.01965047f, -0.00035211f, -0.02526518f,
    -0.00285441f, 0.02288235f, 0.00608617f, -0.07122720f, 0.28796655f, 0.19664276f, 0.03281065f, -0.00475514f,
    -0.06911659f, 0.05383685f, 0.00800886f, -0.03232405f, 0.09275452f, -0.01232211f, -0.02707452f, 0.08482010f,
    0.01526749f, 0.02913890f, 0.00375896f, -0.04337368f, -0.03601679f, -0.01758640f, -0.05212690f, -0.04171953f,
    0.01498725f, -0.04274021f, -0.03566965f, -0.02590695f, -0.09470490f, -0.12505855f, 0.20518604f, -0.15776372f,
    -0.08082831f, -0.00826648f, 0.37876457f, 0.31766355f, 0.05775658f, 0.11587498f, 0.17566586f, 0.21762168f,
    0.46108282f, 0.21695612f, 0.02468265f, 0.03760914f, -0.05149446f, -0.06243081f, -0.04997949f, -0.04167783f,
    0.02017980f, 0.15683973f, 0.05715658f, -0.30851975f, -0.18985148f, 0.07200304f, 0.10705704f, -0.04428120f,
    -0.17114973f, -0.13904618f, -0.26569849f, -0.26481238f, -0.04243537f, 0.32596678f, 0.25534073f, 0.07424049f,
    0.09304257f, -0.02939029f, -0.01678826f, 0.15679042f, 0.00646592f, 0.09548894f, 0.05640806f, -0.16816841f,
    -0.17565836f, -0.07820142f, 0.03403891f, 0.03348416f, 0.03390504f, -0.08716933f, 0.06419607f, -0.38466749f,
    -0.43439820f, -0.18915802f, -0.21591292f, -0.12114767f, -0.30224207f, -0.41419837f, -0.63759851f, -0.69852126f,
    -0.32091892f, 0.08002107f, 0.24899365f, 0.05991417f, -0.21842551f, -0.19142181f, -0.27585840f, -0.30887064f,
    -0.75368130f, -0.22493067f, -0.20050849f, -0.42715007f, -0.46768883f, -0.23335613f, -0.25678506f, -0.04818637f,
    -0.07668110f, -0.04488505f, -0.01101657f, -0.01041535f, 0.14296284f, -0.02907799f, -0.37283066f, -0.45865229f,
    -0.22170480f, 0.07520787f, -0.43100634f, -0.21286157f, 0.00541055f, 0.27939963f, 0.42967328f, 0.15194401f,
    0.07796218f, -0.18239532f, -0.16239081f, -0.07669778f, -0.25944522f, -0.17865258f, -0.20145400f, -0.36799473f,
    -0.12683478f, 0.03049936f, -0.36023465f, -0.10836194f, 0.04062909f, 0.07827098f, 0.17547394f, -0.11825301f,
    0.07131314f, -0.20865440f, -0.50966465f, -0.82791734f, -0.61072129f, -0.41761416f, -0.13461916f, 0.18894923f,
    0.31387931f, 0.21973251f, 0.29111269f, 0.26175809f, 0.05530694f, 0.04214007f, -0.07319401f, 0.12261532f,
    0.06998237f, -0.23894133f, -0.39991504f, -0.16749288f, 0.07789049f, 0.10263126f, -0.25785100f, -0.05052096f,
    -0.01468873f, -0.02553012f, 0.00078654f, -0.26374009f, -0.34793618f, -0.25527808f, -0.52512258f, -0.80371243f,
    -0.70753324f, -0.63666224f, -0.35030684f, 0.14340402f, 0.21683951f, 0.09979073f, 0.24320455f, -0.04057650f,
    -0.17540757f, -0.13203630f, -0.02254324f, -0.06234275f, 0.25274688f, -0.06183791f, 0.02439757f, 0.01252442f,
    0.35406044f, 0.34711879f, 0.01101367f, -0.17115943f, -0.02101497f, -0.33564928f, -0.16765377f, -0.14292684f,
    -0.07745789f, 0.07103704f, -0.39917460f, -0.51053613f, -0.54841828f, -0.24039330f, 0.10019591f, 0.28837511f,
    0.39110523f, 0.25347447f, 0.09660805f, -0.14025775f, -0.28193262f, -0.34866869f, -0.28012577f, -0.19946414f,
    0.16458099f, -0.02326093f, 0.17271297f, 0.29526404f, 0.06472101f, 0.13858715f, 0.31654131f, 0.03799793f,
    -0.14444593f, -0.10732306f, -0.18015376f, -0.28815421f, 0.05137334f, 0.19707239f, -0.16836049f, -0.37974370f,
    -0.53943378f, -0.35879919f, 0.00331062f, 0.42462292f, 0.35067543f, 0.23701231f, 0.01797873f, -0.23460320f,
    -0.29667252f, -0.20215496f, -0.17798372f, -0.00912442f, 0.05815240f, 0.18928543f, 0.11719847f, 0.07236744f,
    0.41621962f, 0.38830614f, 0.13671932f, 0.19349597f, -0.06244207f, -0.06740216f, -0.17234303f, -0.23617893f,
    0.29866531f, 0.01101261f, -0.17093940f, -0.46817428f, -0.54925519f, -0.07517245f, 0.09420803f, 0.38045657f,
    0.33752888f, 0.11204881f, -0.07117421f, 0.00702886f, -0.28876331f, -0.18687828f, -0.04780636f, -0.12846902f,
    -0.13888277f, 0.08515278f, 0.02089207f, -0.08665287f, 0.20637706f, 0.27808243f, -0.14020613f, 0.17329948f,
    0.00016545f, 0.00215512f, -0.18254960f, -0.24907674f, 0.31526816f, -0.13428742f, -0.34221321f, -0.22439659f,
    -0.31624016f, 0.05519573f, 0.13130791f, 0.20605512f, 0.15327549f, 0.05821481f, -0.02493694f, -0.01963546f,
    -0.19336498f, -0.09003915f, 0.05484941f, 0.06693066f, -0.13913873f, -0.16213989f, -0.22412226f, -0.36970976f,
    -0.02403681f, 0.28566563f, -0.38505262f, 0.13951005f, -0.08665489f, -0.46141490f, 0.09975280f, -0.31389785f,
    -0.01263305f, -0.27602044f, -0.47634149f, -0.15921322f, -0.27315828f, -0.09424648f, 0.16757360f, 0.17060809f,
    0.17283116f, -0.09869903f, -0.07848383f, -0.03297410f, 0.07799659f, 0.00447522f, 0.12785462f, 0.15075104f,
    0.08651099f, -0.22301061f, -0.49455899f, -0.37298450f, -0.29329950f, -0.13653879f, -0.21609448f, 0.11041296f,
    -0.01515735f, -0.01826940f, -0.00657052f, -0.42168730f, 0.00516138f, -0.15209036f, -0.24234927f, -0.25956854f,
    -0.01586285f, 0.05766410f, 0.07406357f, 0.30731282f, 0.08632634f, 0.04784061f, 0.09451341f, 0.01192622f,
    0.00032843f, 0.02601111f, 0.12924463f, 0.14503865f, 0.22404084f, -0.21912052f, -0.41210964f, -0.52785486f,
    -0.39325199f, -0.15535441f, -0.18286684f, -0.15391815f, 0.31579983f, -0.01373363f, -0.25945660f, -0.19831641f,
    -0.16452213f, -0.41814396f, -0.29574537f, 0.13081692f, -0.02165305f, -0.10647596f, 0.13265654f, -0.01257606f,
    0.10435779f, -0.16394395f, 0.05432716f, 0.19403705f, 0.06994425f, -0.09360463f, -0.25305548f, -0.04422698f,
    0.11582609f, -0.11347456f, -0.31366977f, -0.62503844f, -0.25391388f, 0.02836632f, -0.33504462f, -0.19531238f,
    0.17366019f, 0.02280239f, -0.08042330f, -0.09619753f, -0.07100805f, -0.34228790f, -0.33668241f, -0.02943066f,
    0.11894839f, 0.01507029f, 0.13549779f, -0.07773901f, -0.17618912f, -0.08632468f, 0.04665750f, 0.07494267f,
    0.34531328f, -0.01421903f, -0.15413383f, -0.19150287f, 0.12418839f, 0.09874372f, -0.08317010f, -0.10573590f,
    0.12967362f, 0.10365417f, -0.60551733f, -0.05920255f, 0.02690644f, -0.18141317f, -0.01601535f, -0.07585199f,
    -0.31323004f, -0.40989229f, -0.12945156f, -0.02343580f, 0.02343785f, 0.11135408f, 0.20346953f, -0.01518050f,
    -0.13051985f, -0.17484535f, 0.07443510f, -0.02404144f, 0.17270513f, 0.10548789f, 0.01528382f, -0.12859005f,
    -0.13557519f, 0.19581820f, -0.02601552f, -0.12841894f, -0.06909157f, -0.03451397f, -0.12876680f, -0.10406731f,
    -0.04231562f, -0.12359983f, -0.22835603f, -0.39938846f, -0.53163087f, -0.18490611f, 0.04217162f, 0.01597313f,
    -0.01619252f, 0.16573246f, 0.07582656f, 0.06122465f, 0.00994749f, 0.02424176f, 0.04723090f, 0.02570106f,
    0.13992852f, -0.02791732f, 0.05329790f, 0.06928939f, 0.01765717f, -0.00996050f, -0.18189488f, -0.08714145f,
    -0.00741181f, -0.05172199f, -0.58123124f, -0.42596945f, 0.13083896f, -0.03851904f, -0.18273772f, -0.44447407f,
    -0.50520629f, -0.06041951f, 0.20134981f, 0.20896651f, 0.35305601f, 0.26036504f, -0.01928783f, 0.05075136f,
    -0.12805292f, -0.00863844f, 0.28969854f, 0.24484520f, 0.08960365f, 0.02963282f, -0.02297067f, -0.07592025f,
    -0.09417087f, 0.06020590f, -0.13416745f, 0.08310679f, -0.14357209f, -0.54253584f, -0.49657917f, -0.52637619f,
    -0.39859083f, -0.07750953f, -0.21660940f, -0.01270021f, 0.08853017f, -0.08954941f, 0.13869302f, 0.12225081f,
    0.14504658f, 0.16773874f, -0.23944832f, -0.12587745f, -0.14322288f, 0.00571433f, 0.29338124f, 0.08522467f,
    0.14415042f, 0.09657845f, -0.12814985f, -0.00620305f, 0.07698876f, 0.12130850f, -0.05625233f, 0.26998717f,
    0.02915759f, -0.04079022f, -0.27939075f, -0.03193785f, -0.00242348f, -0.33276361f, 0.10048915f, 0.32006997f,
    0.06193197f, -0.03592053f, 0.10547225f, -0.02616000f, 0.04124203f, -0.09074249f, -0.23087326f, -0.21437861f,
    -0.27151358f, -0.02632449f, 0.27553654f, 0.11466826f, -0.06130387f, -0.00285443f, -0.04189844f, 0.06029292f,
    -0.09325878f, -0.05749786f, 0.08655515f, 0.19631140f, 0.43504223f, 0.28792623f, -0.33370087f, -0.01780702f,
    -0.04592572f, -0.02061453f, 0.30109078f, -0.00618693f, -0.06204187f, 0.17104045f, 0.13713615f, -0.14351517f,
    -0.02820050f, -0.13759951f, -0.50206727f, -0.45056966f, -0.31301674f, -0.08963749f, 0.20556234f, 0.12191069f,
    0.07150798f, 0.05695641f, 0.04134717f, -0.00120485f, -0.25991794f, -0.11765461f, 0.08264160f, 0.18437743f,
    0.25907350f, 0.28205916f, -0.24087018f, -0.04650725f, 0.00977116f, -0.03830691f, -0.12883458f, -0.23592754f,
    0.01058966f, 0.40908170f, 0.11233288f, -0.06762081f, 0.00192853f, -0.01083041f, -0.09712500f, -0.35273477f,
    -0.04667203f, 0.00268543f, 0.01668759f, 0.02144288f, 0.01010218f, 0.16334951f, 0.01236393f, -0.17743015f,
    0.06884649f, 0.14793268f, 0.12584832f, -0.06771051f, -0.25739944f, 0.10438534f, -0.37494445f, -0.04769216f,
    -0.08870704f, 0.05470409f, -0.55609107f, -0.40259346f, -0.06638996f, 0.13401008f, 0.06405208f, -0.32530215f,
    -0.03651226f, 0.00024549f, 0.09610059f, -0.04614004f, -0.04944990f, 0.00981850f, 0.06569972f, -0.12593532f,
    0.21285318f, 0.35554433f, 0.14241344f, -0.14305969f, -0.09551417f, 0.09076907f, -0.29225358f, -0.04163869f,
    0.01904093f, 0.25538343f, -0.11851683f, 0.02590375f, -0.06483229f, 0.05022579f, -0.12543899f, -0.31301957f,
    -0.23224548f, 0.10191189f, 0.21891519f, -0.19943100f, -0.22778066f, -0.16809568f, -0.07777295f, -0.12271929f,
    0.09290940f, -0.03893169f, 0.05411526f, 0.07984790f, 0.16159952f, 0.15883233f, 0.12131214f, 0.02961448f,
    -0.05832833f, 0.10162538f, -0.12214340f, -0.10791571f, -0.40365711f, -0.04786433f, 0.33939666f, -0.00491463f,
    0.01049017f, -0.16889884f, -0.34375420f, -0.46488872f, -0.27757084f, 0.18332453f, 0.12953667f, 0.07325239f,
    -0.11712173f, -0.05325223f, -0.00553937f, -0.18630229f, -0.16750537f, -0.26372197f, -0.24981999f, -0.10739541f,
    0.15544786f, 0.17594382f, 0.15607440f, -0.18647054f, -0.20280360f, -0.15436265f, 0.01351189f, 0.34704307f,
    0.04508380f, 0.13053808f, 0.06160734f, -0.06653353f, 0.04566278f, -0.02335591f, 0.22666207f, 0.11099592f,
    -0.15755560f, -0.20465972f, -0.03738716f, -0.22191516f, -0.08999100f, -0.18973197f, 0.08054046f, -0.08183502f,
    -0.10375968f, 0.06619315f, 0.06597316f, 0.02593139f, 0.04780484f, 0.29869568f, 0.10264659f, -0.27613935f,
    -0.29802978f, -0.02384054f, 0.04296482f, 0.39454210f, 0.33788276f, -0.01777016f, 0.01106269f, 0.05250436f,
    0.05614027f, -0.01397865f, 0.01094270f, -0.01988863f, 0.21015553f, 0.13602132f, 0.09290824f, 0.26823658f,
    0.14852022f, 0.24065152f, 0.26369658f, 0.43740794f, 0.30017602f, 0.05717397f, 0.29275545f, 0.14828858f,
    0.13716340f, 0.40931091f, 0.11956383f, -0.11404091f, 0.13455950f, -0.06844305f, -0.17033209f, 0.24728324f,
    0.18973219f, 0.01292525f, 0.01272389f, -0.02756326f, -0.00984388f, -0.02176580f, -0.08914858f, 0.10079829f,
    -0.02640487f, -0.02421018f, 0.11532760f, 0.09326003f, 0.00066488f, -0.10517332f, 0.07558724f, 0.06711552f,
    0.04436654f, 0.00662016f, 0.49548641f, 0.39074075f, 0.07006453f, -0.18353328f, -0.00643002f, -0.00301765f,
    -0.07858373f, -0.24152602f, -0.27066341f, -0.03461801f, 0.12786135f, -0.02043965f, 0.02030442f, 0.00432030f,
    -0.08152763f, 0.01611783f, -0.06424274f, 0.03070785f, 0.00194493f, -0.02408769f, 0.02039353f, -0.01008533f,
    0.01118854f, -0.04725350f, -0.00143037f, 0.03756448f, 0.08544561f, 0.05334352f, -0.01626988f, 0.02929084f,
    -0.01254738f, 0.05740947f, -0.03252571f, 0.05933037f, -0.06803051f, -0.08794172f, 0.07363076f, -0.03730528f,
    -0.06371047f, 0.03426600f, -0.05679182f, -0.00504804f, -0.02799860f, -0.05057661f, 0.03522536f, -0.00896603f,
    -0.00629427f, 0.03812768f, -0.02128737f, 0.04857871f, 0.02096666f, -0.13106817f, -0.10233698f, -0.10000660f,
    -0.09527779f, -0.26320639f, -0.40392163f, -0.37900287f, -0.25427493f, -0.12304056f, -0.21015973f, -0.16939834f,
    -0.20120521f, -0.04414779f, 0.05943673f, -0.01268300f, -0.00914936f, 0.02301062f, 0.00553711f, 0.08905392f,
    0.05650797f, -0.04024478f, 0.01262490f, -0.10619361f, -0.30582032f, -0.23128323f, -0.19935465f, -0.20524429f,
    -0.01313067f, 0.12052122f, 0.27457705f, 0.24882866f, 0.49931890f, 0.38518414f, 0.29102796f, 0.13690445f,
    -0.25778240f, -0.26090348f, -0.03149378f, -0.00208454f, 0.09665041f, 0.16583817f, -0.02062971f, 0.27808952f,
    0.15163614f, -0.01470780f, 0.05984093f, 0.01288111f, 0.06582320f, -0.06219672f, 0.43494779f, 0.26558018f,
    0.31941506f, 0.28831476f, 0.51922929f, 0.24275592f, 0.15903723f, 0.30605546f, 0.53197384f, 0.25798756f,
    0.50306666f, 0.54053903f, 0.29916358f, 0.26637092f, 0.28213298f, -0.08574889f, -0.16343488f, -0.07429914f,
    0.13933904f, -0.34938082f, -0.45065600f, -0.58984655f, -0.12900975f, 0.29882064f, -0.00092596f, 0.06150816f,
    -0.01897662f, -0.10712612f, 0.30445874f, 0.50512689f, -0.10412762f, 0.30399796f, 0.81666660f, 0.30263427f,
    0.09568553f, 0.20149192f, 0.17723663f, 0.35319355f, 0.48566827f, 0.46254656f, 0.33063307f, 0.39839691f,
    0.02278705f, 0.10478076f, 0.15989113f, -0.01791287f, 0.12889716f, -0.11222065f, -0.03727553f, -0.31789505f,
    -0.10677397f, 0.34110507f, -0.16181624f, -0.35789993f, -0.04493681f, -0.08860248f, 0.41116497f, 0.48687041f,
    -0.06546491f, -0.34206557f, 0.01184518f, 0.10466557f, -0.07832862f, -0.20200054f, 0.26626664f, 0.24178214f,
    0.13746621f, 0.33497241f, 0.07727677f, 0.21919115f, 0.06801664f, 0.07668635f, 0.07087488f, 0.00779495f,
    0.10906035f, -0.00413687f, 0.29640916f, 0.04514574f, -0.19182247f, 0.21858922f, -0.42723966f, -0.34645134f,
    0.01465168f, -0.01608575f, -0.05060003f, -0.30770436f, -0.30397993f, -0.22309251f, 0.14890523f, -0.05174532f,
    -0.01852174f, 0.16832542f, 0.01995222f, -0.01017712f, 0.04465797f, 0.06539892f, 0.03817391f, -0.01199288f,
    0.12932245f, 0.00631521f, 0.11631156f, 0.03684714f, -0.00225113f, 0.17020239f, 0.24296720f, 0.22877575f,
    0.11411778f, 0.22284503f, 0.07057069f, -0.19984807f, -0.01768693f, -0.05059429f, -0.00611239f, -0.36158901f,
    0.10717429f, 0.14000346f, 0.08562370f, -0.03401868f, 0.18133888f, -0.05357499f, -0.18712330f, 0.01742159f,
    0.00659121f, 0.11839074f, 0.28220963f, -0.05179248f, 0.22831759f, 0.03879280f, -0.13431212f, 0.02954154f,
    -0.07857333f, 0.00661905f, 0.01350746f, -0.01207972f, -0.22777957f, -0.24336517f, -0.08391148f, -0.13876285f,
    -0.43893322f, -0.17117940f, -0.01608126f, -0.15037748f, 0.23038243f, 0.10372092f, -0.28253216f, -0.23283380f,
    -0.02558479f, -0.26158905f, -0.13576752f, -0.07158259f, -0.00479349f, -0.14957865f, 0.03813525f, 0.01344560f,
    -0.00457346f, -0.11176296f, -0.04716370f, 0.00386864f, -0.13430205f, 0.02096543f, 0.08827257f, 0.08340708f,
    -0.26631117f, -0.13690871f, -0.18079367f, 0.04583815f, -0.14309573f, -0.56242931f, 0.25548571f, 0.15818463f,
    0.25488794f, 0.14279920f, -0.01555873f, -0.06696846f, 0.02767323f, -0.25601697f, -0.26227894f, -0.30813804f,
    0.09990871f, -0.19161600f, -0.15242913f, 0.06145839f, 0.18681969f, -0.00760580f, 0.05077671f, -0.19620088f,
    -0.08235186f, -0.29545337f, 0.08521242f, 0.02679651f, -0.08641133f, -0.36926731f, -0.09095315f, -0.23107578f,
    -0.10385601f, -0.46875763f, 0.12105658f, 0.26651767f, 0.17249793f, 0.21068436f, 0.10986099f, -0.11867217f,
    -0.01582579f, -0.31479874f, -0.16989884f, -0.12816070f, -0.03526814f, -0.06107911f, 0.03185489f, -0.03657398f,
    0.13606071f, 0.09360689f, 0.04232960f, -0.04777931f, -0.02587941f, -0.10846924f, 0.08333626f, -0.28247738f,
    -0.23485415f, -0.26468661f, -0.12002688f, -0.25374335f, -0.25383082f, -0.09403295f, -0.03019075f, -0.08899667f,
    0.24674283f, -0.15009858f, -0.01853949f, -0.32854456f, -0.19313562f, -0.38117039f, -0.04223360f, -0.07027630f,
    -0.00210281f, -0.06189319f, -0.05830929f, -0.09599598f, -0.02691256f, 0.19248274f, 0.09501478f, 0.19559507f,
    -0.06669921f, -0.17376262f, -0.19046338f, -0.25129762f, -0.14119916f, -0.13411041f, -0.04121685f, 0.40596488f,
    -0.10756928f, -0.13531975f, -0.13520034f, 0.17812724f, 0.11157522f, -0.16897602f, -0.01063304f, -0.05973549f,
    -0.12173705f, -0.04761895f, -0.02813734f, -0.21742018f, -0.03849993f, -0.28576165f, -0.13071612f, -0.20170796f,
    -0.00850571f, 0.01572464f, 0.02181358f, 0.22740538f, 0.18646157f, -0.04610075f, -0.21047240f, -0.17560478f,
    0.08356345f, -0.16467614f, 0.34889880f, 0.26234731f, 0.23521803f, -0.00246083f, -0.46104094f, 0.14132996f,
    0.25842011f, 0.33335453f, -0.18934499f, 0.14951912f, -0.01628934f, -0.16429023f, -0.05229888f, -0.08621046f,
    0.01359738f, -0.16066785f, 0.01292544f, 0.02399176f, 0.03449708f, 0.11841948f, 0.07554363f, 0.07392929f,
    0.28953648f, 0.13287327f, 0.07624314f, -0.17782567f, 0.08680432f, 0.02877124f, 0.50446469f, 0.08872981f,
    0.09134464f, 0.02932388f, -0.34201232f, 0.26266497f, 0.18254617f, -0.07999475f, 0.05289835f, 0.05976146f,
    -0.31382209f, -0.26362213f, -0.19579956f, -0.14770062f, -0.17667525f, -0.12139545f, -0.00236502f, 0.01224326f,
    0.05230500f, 0.00125765f, 0.04168146f, -0.07595365f, 0.07684804f, 0.08152010f, 0.06878699f, 0.26811844f,
    0.07876731f, -0.10566209f, 0.43544096f, 0.06814969f, 0.08326136f, 0.04128508f, 0.16681604f, 0.35854009f,
    0.21293962f, -0.07625601f, 0.16677371f, -0.36292821f, -0.44063669f, -0.32338968f, -0.07059414f, -0.23000008f,
    -0.35027373f, -0.22247797f, -0.22899915f, -0.04474423f, 0.05226922f, -0.00672178f, -0.15625246f, -0.10857836f,
    -0.06822094f, -0.05077901f, -0.08630743f, 0.03810453f, 0.10234035f, -0.15590093f, 0.42340541f, -0.05834151f,
    0.04262319f, 0.06012692f, 0.35633925f, 0.30599257f, 0.15120012f, -0.12189475f, 0.08104610f, -0.18058056f,
    -0.52637875f, -0.48866588f, -0.45237356f, -0.55326694f, -0.49476817f, -0.27244580f, -0.16455324f, -0.22453396f,
    0.03797352f, -0.06707198f, -0.08257725f, -0.00499933f, -0.02960305f, 0.00481079f, 0.07411853f, 0.01060788f,
    -0.03771422f, 0.05659853f, 0.43033996f, 0.04888941f, -0.05940474f, -0.09593052f, 0.38806006f, 0.58202493f,
    -0.03165128f, -0.09140347f, 0.17335957f, -0.12585044f, -0.02801298f, -0.19699845f, -0.26577976f, -0.36581832f,
    -0.30902457f, -0.20050320f, -0.07991586f, -0.13846314f, -0.07608587f, -0.07895300f, -0.09776522f, -0.15074965f,
    -0.14023337f, -0.19125679f, -0.22952643f, -0.33789295f, 0.09106062f, 0.64899129f, 0.36782265f, 0.24488759f,
    -0.05135809f, 0.03725702f, 0.26603279f, 0.20253620f, 0.05725583f, -0.15048681f, 0.08674939f, 0.08557788f,
    0.08531483f, 0.01491330f, 0.20596142f, 0.13127646f, -0.07974701f, -0.05168756f, 0.12895162f, -0.15259433f,
    -0.12940122f, -0.23745242f, -0.13975318f, -0.06771266f, -0.25029770f, -0.06540479f, -0.10248316f, -0.30090910f,
    0.11174404f, 0.35661146f, 0.07350766f, 0.31094638f, -0.17705739f, -0.19708256f, 0.45683521f, -0.16727896f,
    -0.07346664f, 0.03445275f, 0.05073605f, 0.15935491f, 0.17559493f, 0.08780844f, 0.20911390f, 0.49660569f,
    0.46288243f, 0.50652122f, 0.29617515f, -0.02107681f, -0.06303195f, -0.27683336f, -0.09533001f, -0.08011818f,
    0.00868485f, -0.10385107f, -0.21699867f, -0.33272144f, -0.34032264f, -0.07957429f, 0.24887499f, 0.26712611f,
    0.00771319f, -0.01266819f, 0.45115739f, 0.16357104f, -0.05905478f, 0.29372454f, 0.14783159f, 0.01135647f,
    0.31422082f, 0.36154956f, 0.29928032f, 0.46564946f, 0.45846355f, 0.37850782f, 0.11771677f, -0.08196383f,
    0.11594056f, 0.00165588f, -0.01232307f, -0.05331010f, 0.00161371f, -0.02054392f, 0.04049957f, 0.01454391f,
    -0.35482964f, -0.25753570f, 0.04934388f, -0.03309438f, 0.06687710f, 0.16460277f, 0.41373226f, -0.20905185f,
    -0.00959443f, 0.21729389f, 0.03772461f, 0.17163670f, 0.34492105f, 0.24033976f, 0.39816508f, 0.30580667f,
    0.34846449f, 0.15784895f, 0.21058841f, 0.07934145f, 0.08890485f, 0.15644397f, 0.00459315f, 0.12740615f,
    0.10094824f, -0.01490006f, 0.12594862f, 0.36266235f, 0.16930705f, 0.11068920f, -0.27023011f, 0.07849570f,
    0.04948223f, 0.00766946f, 0.51087075f, -0.19990033f, -0.10503387f, 0.02975362f, -0.07890832f, 0.05992100f,
    0.20077868f, 0.23151411f, 0.21654454f, 0.10647036f, -0.06775609f, 0.04013070f, 0.26426381f, 0.12370084f,
    0.03136524f, 0.22089663f, 0.21629162f, 0.10395958f, 0.01294472f, 0.09073389f, 0.32332143f, 0.31629434f,
    0.50486666f, 0.23451076f, 0.03507356f, 0.00771639f, -0.01303464f, 0.00847370f, 0.35851088f, 0.27361092f,
    -0.19320029f, -0.01747339f, -0.06141754f, 0.01861466f, 0.15097590f, 0.14050674f, 0.27458107f, 0.17205730f,
    0.05211618f, -0.05520982f, 0.22434594f, 0.18937291f, 0.26478395f, 0.29724208f, 0.33419675f, 0.17531531f,
    0.10100882f, 0.54491985f, 0.26454365f, 0.40245557f, 0.62631017f, 0.20504709f, 0.42097014f, -0.02844350f,
    -0.00771248f, 0.06235331f, -0.25179124f, 0.31249392f, 0.20863357f, -0.17644225f, -0.32133734f, 0.13488187f,
    0.32930160f, 0.20177950f, 0.00325503f, -0.06288183f, -0.19732313f, -0.08370090f, 0.08511600f, -0.06579288f,
    0.14108109f, 0.50685745f, 0.61300039f, 0.20809124f, -0.10970918f, 0.18584234f, -0.06640864f, 0.05473938f,
    0.37473786f, 0.23373395f, 0.16464590f, 0.07280865f, 0.07205099f, -0.11138728f, 0.01528726f, -0.20742169f,
    -0.20181899f, -0.21259081f, -0.04360710f, 0.04222667f, -0.02999304f, 0.00163278f, -0.13150463f, -0.15704045f,
    -0.39515600f, 0.04667132f, -0.01390431f, 0.06410767f, 0.04343783f, 0.56685621f, 0.51833683f, 0.26628581f,
    0.01143219f, -0.29939595f, 0.16488752f, 0.36517590f, -0.20127793f, -0.06916404f, -0.15943882f, -0.10781305f,
    0.04734091f, -0.07644250f, 0.07053531f, 0.35051802f, 0.37825197f, 0.04081856f, -0.21540931f, -0.55205983f,
    -0.34314257f, -0.14616135f, 0.02715499f, 0.09955592f, -0.25800017f, -0.19927090f, -0.34828511f, -0.23689336f,
    -0.59679866f, -0.53030378f, -0.62005782f, -0.43506983f, -0.43345186f, -0.33750680f, -0.17930146f, -0.11048745f,
    0.04413749f, -0.23068820f, -0.01813827f, 0.07502318f, 0.02669819f, -0.06954315f, 0.00380660f, -0.01337508f,
    -0.16550831f, -0.19078740f, -0.19931580f, -0.11442895f, -0.18214469f, -0.38676366f, -0.44888923f, -0.42702803f,
    -0.20341177f, -0.04887414f, 0.03586875f, -0.35771188f, -0.35398814f, -0.34329963f, -0.20938577f, -0.14364709f,
    -0.07043317f, -0.16521856f, -0.06219002f, -0.07789209f, -0.09439579f, 0.07155961f, -0.05865956f, 0.04863345f,
    0.08135183f, 0.03450492f, -0.01567042f, -0.13965863f, -0.04249141f, 0.07630285f, 0.04437441f, 0.03296999f,
    0.08721160f, -0.03145724f, 0.04115640f, -0.00595823f, 0.01571717f, 0.06473771f, 0.03511311f, 0.01593636f,
    0.03917244f, 0.03625070f, -0.02773736f, -0.13897489f, 0.00062015f, 0.05863922f, -0.01901340f, -0.08901266f,
    -0.01185007f, 0.01634600f, 0.04719000f, 0.07567357f, 0.05649831f, 0.01979576f, -0.01981955f, 0.04085652f,
    -0.12400048f, 0.00497016f, -0.12374441f, 0.02339315f, -0.03295998f, -0.07059628f, -0.12158703f, -0.05337099f,
    -0.17706633f, 0.01432923f, 0.28890207f, 0.11263587f, -0.00503850f, 0.02186256f, -0.04781217f, -0.17834248f,
    -0.10470229f, -0.07174300f, -0.03970069f, -0.00738831f, -0.07347176f, 0.04941554f, -0.01229930f, -0.06310275f,
    -0.05758836f, -0.05583815f, -0.00360036f, -0.12027802f, -0.23290977f, -0.17164949f, -0.08550332f, 0.00780902f,
    -0.08199710f, -0.08358546f, 0.26926747f, 0.12183362f, -0.07797479f, -0.09740957f, -0.19209415f, -0.14593437f,
    -0.03831164f, 0.01647002f, 0.10280340f, 0.04913865f, 0.10418078f, 0.08710122f, 0.04546372f, 0.14901783f,
    -0.04507558f, 0.06280185f, 0.04623361f, -0.04889902f, -0.01918526f, 0.08630859f, 0.38034850f, 0.30745149f,
    0.20822906f, 0.12086444f, 0.05016419f, -0.05704835f, 0.24521075f, 0.43133354f, 0.47152933f, 0.08192345f,
    0.36356863f, 0.34101987f, 0.06900908f, 0.20004088f, 0.07312516f, 0.06324518f, 0.00003037f, 0.29313239f,
    0.12230887f, -0.33653077f, -0.21766515f, -0.13208616f, 0.07347635f, 0.06734494f, 0.09583135f, -0.06024309f,
    0.03172883f, 0.02883908f, 0.37987149f, 0.36113393f, 0.13658991f, -0.01546083f, 0.66831475f, 0.42043200f,
    0.16828288f, 0.38912109f, 0.14682108f, 0.22770366f, 0.16773021f, 0.13509193f, -0.03137198f, 0.01557340f,
    -0.08493286f, 0.01590988f, 0.18003093f, 0.06991495f, -0.03645953f, -0.24600059f, -0.07171423f, 0.06459396f,
    0.11767596f, 0.08248684f, 0.22143450f, -0.04444854f, -0.07343766f, -0.04348892f, 0.27040532f, 0.50547343f,
    0.24583618f, -0.01199877f, 0.22343078f, 0.02835966f, -0.03183104f, -0.02998217f, 0.04451070f, 0.08430996f,
    0.01797395f, -0.00000993f, -0.14685661f, 0.03073057f, 0.11585414f, -0.05654880f, 0.04273156f, 0.07705053f,
    0.18215311f, 0.19192117f, 0.22642086f, 0.02041414f, 0.00593062f, 0.48286045f, 0.30917999f, 0.01624298f,
    -0.02954346f, 0.10648260f, 0.04146366f, 0.30958173f, -0.05777228f, -0.04986880f, 0.06128413f, 0.10065370f,
    0.08186791f, -0.02671468f, 0.14020170f, 0.02202068f, 0.14160314f, 0.16659257f, 0.05431045f, 0.07539399f,
    -0.04723059f, -0.07146868f, 0.15695961f, 0.05952636f, -0.03930911f, 0.11495905f, 0.12184936f, 0.18570466f,
    0.08358295f, 0.42150488f, 0.21466455f, 0.04235482f, 0.04119018f, 0.22076568f, -0.01623616f, 0.14845482f,
    0.10042159f, 0.11141826f, 0.03925996f, 0.15068385f, 0.12993039f, 0.07614139f, 0.11993282f, 0.18561056f,
    0.15082051f, 0.04030177f, 0.17068546f, 0.16203921f, 0.23794042f, -0.02399544f, 0.16579928f, 0.07997404f,
    -0.04700863f, 0.07328734f, 0.01536081f, -0.01249546f, -0.18294674f, 0.05497132f, 0.11371286f, 0.02611163f,
    0.14930868f, 0.22043400f, -0.24601702f, 0.02363467f, 0.09959822f, 0.04725443f, 0.02006084f, 0.09657011f,
    0.02598829f, 0.03863849f, 0.12047814f, -0.16298383f, 0.05909654f, 0.13618240f, 0.16425689f, 0.04341227f,
    0.09000798f, 0.09649207f, 0.20535693f, 0.03564867f, 0.06373882f, -0.07806934f, 0.12812454f, 0.05904301f,
    -0.41810673f, -0.06353197f, 0.19212765f, 0.16748305f, 0.02910217f, -0.09466432f, -0.04485774f, 0.00181506f,
    0.09556999f, -0.00892973f, 0.07627540f, 0.06458721f, 0.13481928f, 0.00688272f, 0.01391036f, -0.13823435f,
    0.06099661f, 0.15860236f, -0.01846270f, 0.07085689f, 0.10222935f, 0.01133257f, 0.05569888f, -0.15469930f,
    -0.17318350f, -0.20013906f, -0.08943681f, 0.16007854f, -0.10438203f, 0.07072426f, 0.11311153f, 0.15989366f,
    -0.00889705f, 0.06979828f, -0.00433823f, -0.02845195f, -0.06635823f, -0.09615368f, 0.04309021f, 0.04749856f,
    0.05837946f, -0.20975500f, 0.04124016f, -0.02552242f, 0.06749023f, 0.11700898f, 0.08821943f, 0.02478997f,
    0.02920801f, -0.00842623f, -0.11218570f, -0.08468344f, -0.04293652f, -0.13053195f, -0.02292492f, -0.09300954f,
    -0.03257486f, -0.03912108f, 0.26992822f, 0.27263811f, -0.02926911f, -0.03708299f, -0.09099581f, 0.12444431f,
    0.12800072f, -0.17405435f, -0.02662164f, -0.08050445f, -0.27014557f, -0.13104115f, -0.05609894f, -0.08823434f,
    -0.06183193f, 0.11089820f, -0.04084062f, -0.17359425f, -0.24353378f, -0.15474099f, -0.00630725f, -0.06780602f,
    -0.06401790f, -0.28107753f, -0.32203227f, -0.30162010f, -0.23872489f, -0.14741035f, 0.18078472f, 0.07003828f,
    0.01876309f, 0.05404281f, 0.01708785f, 0.19594452f, -0.03604380f, -0.23970918f, -0.06352796f, 0.11690144f,
    -0.05261727f, -0.18161003f, 0.03500646f, -0.09013426f, 0.05973197f, 0.00766120f, -0.05913842f, -0.18270676f,
    -0.17960574f, -0.13571467f, 0.01270476f, 0.11594480f, 0.12625167f, -0.11265700f, -0.39955133f, -0.51231742f,
    -0.46842039f, -0.44679666f, -0.16112597f, 0.02043119f, 0.31725141f, 0.03523605f, 0.16031975f, 0.25534788f,
    -0.10184690f, -0.10061742f, -0.01365552f, 0.02710589f, 0.04415978f, -0.05530467f, -0.22332139f, 0.04339379f,
    -0.05530862f, 0.02751140f, 0.02739293f, -0.10271315f, -0.19727699f, 0.15969335f, 0.24606623f, 0.31231651f,
    0.34518975f, 0.03795773f, -0.16826279f, -0.38669550f, -0.31406870f, -0.10871870f, 0.20336835f, 0.01944979f,
    0.11689750f, 0.12358017f, 0.33598629f, 0.26619226f, -0.06260201f, -0.40192664f, 0.04094180f, -0.01737302f,
    -0.08067497f, -0.09880903f, -0.18006055f, -0.21809743f, -0.25599560f, -0.02783203f, 0.07015966f, 0.09136536f,
    -0.16760655f, 0.02737689f, 0.17070657f, 0.19218314f, 0.27129647f, -0.01902043f, -0.19344948f, 0.03014509f,
    0.10646507f, -0.05481869f, 0.29890341f, -0.08474254f, 0.06628329f, 0.01502021f, 0.11039326f, -0.07843236f,
    -0.15140882f, -0.15840973f, 0.07573820f, -0.07438185f, -0.08512191f, -0.00172380f, -0.20089966f, -0.05070770f,
    -0.05045955f, 0.05989869f, 0.07658903f, -0.03778515f, -0.11054273f, -0.10331398f, -0.03753615f, -0.03329547f,
    0.15170710f, -0.04313751f, -0.20083039f, -0.05170481f, 0.22278064f, 0.03599345f, 0.05443930f, 0.10194832f,
    -0.14231928f, 0.03768480f, 0.19130692f, 0.01383982f, -0.13601309f, -0.21386686f, -0.16183057f, -0.01060337f,
    -0.14525975f, -0.17713183f, -0.13239034f, -0.33883145f, -0.13018577f, 0.13869245f, 0.13616578f, -0.18748850f,
    -0.10387383f, -0.03839676f, -0.03428193f, 0.16349967f, 0.01692621f, 0.20391861f, 0.12675439f, 0.01934395f,
    0.16194701f, 0.00143931f, 0.19971208f, 0.15921997f, 0.05997746f, 0.12669383f, -0.14586233f, 0.11694288f,
    -0.06421650f, -0.16742344f, -0.05545724f, -0.07715241f, -0.07241645f, -0.10409321f, -0.26865804f, -0.15166286f,
    -0.07212433f, 0.08927486f, 0.02583458f, -0.08262374f, -0.07652261f, -0.07453761f, -0.04873548f, 0.00763146f,
    -0.14437710f, 0.20689568f, 0.15146200f, -0.09915868f, 0.05601491f, 0.11668656f, -0.18654296f, 0.35033172f,
    0.43680286f, 0.08130715f, -0.06756569f, -0.24476409f, 0.00444005f, 0.18388201f, 0.13183488f, -0.12980329f,
    -0.09431908f, -0.16514152f, -0.08669107f, -0.27708301f, -0.16891134f, -0.03371318f, -0.15738226f, 0.10332009f,
    0.12754919f, -0.17261766f, -0.11402103f, -0.07924376f, 0.04026436f, 0.04628782f, 0.04370850f, 0.16956060f,
    0.16968930f, 0.14295755f, -0.33793443f, 0.33568421f, 0.08267910f, 0.16386427f, 0.15819836f, -0.08690601f,
    -0.02805448f, 0.18695454f, 0.01931552f, -0.04821606f, -0.01775535f, -0.28014293f, -0.16998938f, -0.22567998f,
    -0.09073308f, 0.20298702f, 0.06695536f, 0.03258588f, 0.11310105f, 0.03464841f, -0.02629270f, -0.03011694f,
    0.04026660f, -0.00032545f, 0.08639899f, 0.24339482f, 0.04324316f, 0.14248849f, 0.28128505f, 0.23766761f,
    -0.02480410f, 0.07169397f, 0.24098192f, -0.00381400f, 0.10584857f, 0.06198838f, 0.10209845f, 0.13146378f,
    0.06432755f, 0.02603388f, 0.01518236f, 0.06515028f, 0.02524751f, 0.31492597f, -0.00815670f, 0.11647636f,
    0.28313044f, 0.25487795f, 0.20364229f, 0.06297916f, 0.28245163f, 0.03656781f, 0.09667661f, 0.43987310f,
    0.06531224f, -0.01639199f, -0.04742993f, 0.00769803f, 0.05651355f, 0.00370280f, 0.30395275f, -0.08493542f,
    0.07848622f, -0.04647408f, 0.01462900f, 0.18611205f, 0.15110770f, 0.10719703f, 0.05920549f, 0.20412162f,
    0.00793924f, 0.15775253f, -0.00756980f, 0.16716811f, 0.00554787f, 0.10162137f, 0.28266507f, 0.18606351f,
    0.16938086f, 0.09258419f, 0.22724648f, 0.41004503f, 0.26409352f, 0.13406350f, 0.36587858f, -0.03958573f,
    0.12773822f, 0.06407839f, 0.30112377f, 0.19213229f, -0.03481611f, 0.05784521f, 0.05016448f, 0.27103996f,
    0.17802146f, 0.11197754f, -0.04127980f, 0.18296176f, 0.04064992f, 0.01576008f, -0.02548086f, -0.02529511f,
    -0.14610206f, 0.08215524f, 0.22286652f, 0.17187683f, 0.15951766f, -0.02144960f, 0.22657724f, 0.37638170f,
    0.22800523f, 0.07500570f, 0.24122934f, 0.04676025f, -0.00224088f, 0.03289482f, 0.20251882f, 0.50018787f,
    0.07399887f, 0.13866299f, 0.13587108f, 0.16610380f, 0.15182136f, 0.21295571f, 0.24281368f, 0.22130798f,
    0.13060810f, -0.00146630f, 0.09759578f, 0.14981033f, 0.14839208f, 0.14191005f, 0.13939737f, 0.04740883f,
    0.11056175f, 0.05098787f, 0.21395297f, 0.22061266f, 0.17859432f, 0.18406357f, 0.57784992f, -0.00303405f,
    -0.06702299f, 0.02861143f, -0.26397693f, 0.37293890f, 0.02139125f, -0.25904384f, 0.07830093f, -0.07520828f,
    0.18958981f, 0.14040060f, 0.22933000f, 0.27560669f, 0.31271902f, 0.03352571f, 0.08590465f, 0.06635149f,
    -0.00793905f, 0.28069973f, 0.34946156f, 0.27855632f, -0.01210174f, 0.07680193f, -0.13790326f, -0.05562752f,
    0.30034417f, 0.05601277f, 0.06099854f, 0.00911521f, 0.01663297f, -0.02354652f, -0.11323382f, -0.21792522f,
    -0.51494247f, -0.31296799f, 0.38289976f, 0.28235459f, 0.31342340f, 0.08624790f, -0.00162655f, -0.04497268f,
    0.34592435f, 0.38862699f, 0.15226157f, 0.19535126f, 0.03973828f, 0.15118320f, 0.03267344f, 0.15760443f,
    -0.06186836f, 0.01346829f, 0.05940122f, 0.15489382f, 0.32837355f, 0.03024312f, -0.01382933f, -0.04500683f,
    -0.06076907f, -0.00999407f, -0.09975455f, 0.18004312f, -0.44539687f, -0.51748842f, -0.33464682f, -0.17563780f,
    -0.12686837f, -0.38498506f, 0.01579274f, 0.07784038f, 0.11800016f, 0.04149947f, -0.22899844f, 0.02529047f,
    0.04612552f, -0.17561601f, -0.27026373f, -0.20928854f, -0.41978171f, -0.18756874f, -0.19360264f, 0.06145551f,
    0.02703767f, -0.02525147f, -0.05793454f, 0.04167548f, 0.02304583f, 0.09478647f, -0.01866939f, 0.01414325f,
    0.04168985f, 0.04738269f, 0.16204709f, 0.14193049f, 0.25535032f, 0.01720116f, -0.04203993f, 0.14478523f,
    0.08391577f, 0.09096055f, -0.19503503f, -0.26347074f, -0.19477986f, 0.02663007f, -0.37685892f, -0.47917160f,
    -0.15325701f, -0.22958501f, -0.14712612f, -0.01400400f, -0.05135046f, 0.01610962f, 0.00246668f, -0.06643528f,
    0.01576869f, 0.07109097f, 0.08880628f, 0.00376601f, -0.04280594f, 0.03707798f, -0.04087259f, 0.02058859f,
    -0.04730365f, 0.03243595f, 0.01488282f, -0.04707643f, -0.02797134f, -0.06400019f, 0.01395438f, 0.02400960f,
    -0.01515597f, 0.00870462f, 0.02397987f, -0.07024541f, -0.06107374f, -0.00549336f, 0.00483919f, 0.03675998f,
    -0.16879955f, 0.08330125f, -0.00487436f, -0.06064509f, 0.03241618f, 0.03748794f, 0.02285575f, -0.00911731f,
    -0.01081350f, -0.02459755f, -0.05024834f, -0.03495272f, -0.05808365f, -0.12284093f, -0.00761443f, -0.11694235f,
    -0.20721544f, -0.27818048f, -0.27145758f, -0.10051383f, -0.03707392f, -0.02594860f, -0.07216460f, -0.06005054f,
    -0.10246897f, 0.01554905f, -0.02472946f, -0.00929648f, 0.02395213f, -0.04277799f, -0.02421222f, -0.02653488f,
    -0.05366580f, -0.00382661f, 0.03582928f, -0.07779875f, -0.05371719f, 0.00819772f, -0.05644407f, -0.15117629f,
    0.11007825f, -0.02871422f, -0.02819357f, -0.22578107f, -0.12899102f, -0.06839853f, -0.31100699f, -0.60155374f,
    -0.19088206f, -0.11183771f, -0.21251529f, -0.25407586f, -0.03155561f, -0.02061060f, -0.06526406f, -0.11996980f,
    -0.02574954f, 0.04361394f, -0.00801224f, -0.02105046f, -0.02232952f, -0.01747431f, 0.20431130f, -0.08628404f,
    0.04435984f, 0.30921134f, 0.23129991f, -0.04216537f, -0.00701411f, 0.33089453f, 0.49963206f, -0.01552977f,
    -0.00531909f, -0.43460786f, -0.30584189f, -0.03364353f, -0.27871817f, -0.57839119f, -0.52874792f, -0.01730096f,
    -0.16797698f, 0.18470624f, 0.33538720f, 0.18859151f, -0.49671707f, -0.31840828f, -0.03944349f, 0.08176164f,
    0.02311479f, -0.10085326f, 0.15216021f, 0.11321373f, -0.19051747f, 0.01248748f, -0.16110258f, -0.03884811f,
    -0.04562924f, 0.05537520f, -0.13593470f, -0.33004981f, -0.37735325f, -0.38477165f, -0.28838930f, -0.08839566f,
    -0.19095156f, 0.08203496f, 0.12139495f, -0.15458797f, 0.10372716f, 0.07149988f, 0.27412605f, 0.12114709f,
    -0.01628958f, 0.17737141f, 0.37214589f, -0.02141286f, 0.00733724f, 0.04133576f, 0.13637914f, -0.14848381f,
    -0.37294486f, 0.02654629f, 0.01970638f, -0.02057411f, 0.06276639f, -0.03990050f, -0.21511514f, 0.05495775f,
    0.27093658f, 0.28065854f, -0.04461120f, -0.17353790f, -0.16075175f, -0.13398860f, -0.13229376f, 0.09868775f,
    0.12224539f, 0.02043452f, 0.16865779f, -0.05441367f, -0.09335079f, 0.09104671f, 0.09970772f, 0.18345192f,
    0.00777169f, 0.10510666f, -0.14424469f, 0.19388320f, 0.18733893f, 0.29604074f, 0.09681161f, -0.09133855f,
    0.05813715f, -0.11464696f, -0.18986176f, 0.20716225f, 0.38681257f, 0.22017071f, 0.05812199f, -0.13610663f,
    -0.28792334f, -0.13389483f, -0.10461743f, 0.09483050f, 0.12394083f, -0.19445409f, -0.24788719f, 0.08207733f,
    -0.15474775f, 0.15072793f, -0.12098148f, -0.10023690f, 0.04731966f, 0.26311922f, 0.19113469f, 0.22285624f,
    0.19433704f, 0.15355138f, -0.12454835f, 0.00790241f, -0.28122967f, -0.02374710f, -0.03115201f, 0.04285818f,
    0.17447016f, -0.03160287f, -0.15858091f, -0.12592056f, -0.20441335f, 0.06629956f, 0.12123444f, 0.02506074f,
    -0.01127498f, 0.08911108f, 0.11721072f, 0.06828995f, -0.18838984f, -0.34091711f, 0.19983746f, -0.03855523f,
    -0.59705800f, 0.16570610f, 0.20325258f, 0.04943379f, 0.21490999f, 0.09568901f, 0.19270432f, -0.05833597f,
    -0.26584086f, 0.06273186f, -0.01551515f, 0.17792837f, 0.13203600f, -0.04008671f, -0.22004285f, -0.20203772f,
    -0.10679959f, 0.02314726f, 0.10109575f, 0.12173945f, 0.04453661f, 0.22514904f, 0.20454331f, 0.26773977f,
    0.01097437f, -0.14889066f, 0.22807847f, 0.37003550f, 0.08159640f, -0.17822635f, -0.19836380f, -0.01280858f,
    0.27015993f, 0.21489172f, 0.06013018f, -0.01579678f, 0.07017115f, -0.04139032f, -0.04506698f, 0.06026531f,
    0.15209810f, 0.05756526f, -0.01434960f, -0.06206766f, -0.06726126f, 0.03983187f, 0.32519966f, 0.11209051f,
    0.14158913f, 0.35973224f, 0.25893226f, 0.16756950f, 0.11277778f, -0.03265601f, 0.28472719f, 0.03476247f,
    0.06406572f, -0.24939506f, -0.10299341f, -0.07011195f, -0.12159051f, 0.02335579f, 0.00711603f, 0.15618685f,
    -0.15028432f, -0.15270261f, -0.08599022f, -0.06905331f, 0.14950061f, 0.15642947f, -0.10140450f, 0.09037672f,
    -0.05868978f, 0.08644764f, 0.10009624f, 0.17270911f, 0.17482050f, 0.10228024f, -0.03656039f, -0.14320897f,
    0.01590506f, -0.08664953f, 0.26302606f, -0.18736979f, -0.00480312f, -0.35304803f, -0.04317854f, 0.38509572f,
    0.05484897f, -0.08646196f, -0.15670532f, 0.18111192f, -0.12455592f, -0.04887673f, -0.17990056f, -0.03747214f,
    0.42049372f, 0.06965362f, -0.10018668f, 0.02589018f, 0.01707575f, -0.07516044f, -0.01259774f, 0.09910568f,
    0.03792834f, -0.03372684f, -0.19641131f, -0.03552076f, -0.01773953f, 0.03959437f, 0.05943828f, -0.03124933f,
    0.01632627f, 0.04071983f, -0.40080023f, 0.29505211f, -0.10951098f, 0.06378245f, -0.01214553f, 0.09344438f,
    0.13452293f, 0.07825366f, -0.22371760f, -0.03336536f, 0.20342049f, -0.22521640f, -0.18370913f, -0.08014108f,
    -0.13483298f, 0.02155208f, -0.04291699f, -0.05002352f, -0.10183465f, -0.15778030f, 0.07245798f, -0.02303776f,
    0.30217823f, 0.41424677f, 0.36564875f, -0.12677060f, -0.15684251f, 0.14690857f, 0.16248655f, 0.28819466f,
    -0.23967788f, 0.11998232f, 0.01873826f, -0.00128574f, 0.05133780f, 0.33433044f, 0.16583383f, -0.17590457f,
    -0.26335016f, -0.43864396f, -0.11581839f, -0.09198084f, 0.00531055f, -0.05446548f, -0.07589158f, -0.26463965f,
    -0.08044978f, -0.13696411f, 0.02635077f, 0.06975671f, 0.11725663f, 0.23389652f, 0.17377566f, -0.01616635f,
    0.16747966f, 0.23581040f, 0.38223734f, 0.46395302f, 0.14827423f, 0.21941683f, 0.07784864f, -0.03872138f,
    0.09319418f, 0.16548969f, 0.10503593f, -0.23501915f, -0.40969089f, -0.17961176f, 0.10529538f, -0.12331576f,
    -0.10320147f, -0.00471749f, -0.11673070f, -0.07632828f, -0.35440397f, -0.20481917f, 0.01135587f, 0.07855164f,
    -0.28365776f, -0.15056083f, -0.11365656f, 0.01425651f, 0.17112401f, -0.01880846f, -0.06653462f, 0.37521490f,
    0.11050171f, 0.10228149f, -0.07619800f, 0.05311955f, -0.09576289f, -0.16103524f, -0.06995037f, -0.23088564f,
    -0.48838580f, -0.24316534f, 0.05990529f, -0.08667251f, -0.25186682f, -0.13066711f, -0.10553766f, -0.22923976f,
    -0.33972424f, -0.04158276f, -0.08770441f, 0.17296189f, -0.15957995f, -0.12964740f, -0.05790401f, 0.18839152f,
    0.06599505f, 0.07407577f, -0.12839435f, 0.28063971f, -0.22970362f, -0.20338164f, -0.38012519f, -0.28403381f,
    -0.05450537f, -0.27301037f, -0.35186040f, -0.36415479f, -0.32216117f, 0.06094189f, 0.16746049f, 0.03123051f,
    0.05005539f, -0.06058336f, -0.02120715f, -0.19378424f, -0.23179211f, -0.08362815f, 0.01378314f, 0.26467338f,
    -0.09846882f, 0.06943493f, 0.21505685f, 0.27018914f, -0.04024527f, -0.01171394f, 0.01484968f, 0.09035638f,
    -0.09295348f, -0.43241206f, -0.49421364f, -0.39907330f, -0.61072439f, -0.39023516f, -0.49348500f, 0.02021712f,
    0.17622094f, 0.22770125f, 0.31466201f, 0.22971076f, 0.10381626f, -0.03239450f, 0.14526506f, 0.12729426f,
    0.04117661f, 0.06398904f, 0.02653496f, 0.20586616f, 0.12432161f, 0.22650737f, -0.13908865f, 0.21518944f,
    -0.20346501f, 0.06688856f, 0.05366533f, -0.08848452f, -0.17265446f, -0.56724280f, -0.47490740f, -0.36670977f,
    -0.48564711f, -0.36748075f, -0.34322414f, -0.11389147f, 0.26659653f, 0.31912485f, 0.12548549f, 0.14577365f,
    -0.12232880f, 0.06837630f, 0.21033557f, 0.10585642f, -0.02051333f, 0.10155535f, 0.00261196f, 0.12679707f,
    0.22673771f, 0.27041709f, 0.26510465f, 0.27784979f, -0.02554779f, 0.09975883f, -0.03703761f, -0.19645585f,
    -0.15537485f, -0.36064306f, -0.39750180f, -0.46206164f, -0.04756096f, -0.07970784f, -0.13411523f, 0.18616275f,
    0.27341843f, 0.34145012f, 0.33276907f, 0.08173080f, 0.03729988f, 0.20078187f, 0.14965269f, -0.02373138f,
    -0.20938660f, 0.03666309f, -0.15516181f, -0.10267191f, -0.10050733f, -0.06475238f, 0.35846350f, -0.09132402f,
    0.05652824f, 0.01114835f, -0.05033787f, -0.25077108f, -0.35701522f, -0.10582072f, -0.16137567f, -0.49716491f,
    -0.15903556f, -0.06331348f, 0.15931030f, 0.27998063f, 0.42019168f, 0.29139012f, 0.14170793f, 0.09164364f,
    0.00555837f, 0.14274150f, 0.12495300f, 0.00816480f, -0.22458388f, 0.00307561f, -0.21631876f, -0.07268380f,
    -0.30655509f, -0.07343830f, 0.24029723f, -0.06970024f, -0.04994402f, 0.10419276f, -0.01772827f, -0.37232274f,
    -0.57535380f, -0.31740421f, -0.13872737f, -0.36516008f, -0.12228836f, 0.18214408f, 0.14926271f, 0.20234838f,
    0.19783999f, 0.28954375f, 0.03720901f, -0.06811398f, -0.03721059f, 0.02342645f, 0.03186414f, -0.10169852f,
    -0.21980333f, 0.21216018f, -0.05717599f, -0.11470751f, -0.13912225f, -0.11314934f, -0.06305234f, -0.00725010f,
    -0.06284558f, 0.02844266f, 0.17497422f, -0.05924419f, -0.34972408f, -0.42054003f, -0.19308899f, -0.13344127f,
    0.06380606f, 0.18796293f, 0.13629889f, 0.15449159f, 0.23164953f, 0.30855590f, 0.05960030f, -0.21301268f,
    -0.23540810f, -0.26095891f, 0.00512985f, -0.18569352f, -0.15366396f, -0.02437503f, 0.12826318f, -0.02830786f,
    -0.33766353f, -0.04951875f, 0.19476224f, 0.01835337f, 0.07836515f, 0.00042801f, -0.18254557f, -0.25826153f,
    -0.11263014f, -0.25483876f, 0.07139444f, 0.09478301f, -0.03741807f, 0.08564592f, -0.03105423f, -0.19828379f,
    0.22004494f, 0.29484069f, 0.19103993f, -0.04346511f, -0.00959258f, 0.00689061f, -0.03618868f, -0.00091916f,
    -0.10861526f, 0.20108630f, 0.18828399f, 0.02291406f, -0.39906615f, -0.13851865f, 0.18020207f, -0.01430343f,
    0.10371887f, -0.02733612f, 0.31726193f, -0.36415187f, -0.04772799f, -0.06185132f, 0.19649410f, -0.24779032f,
    -0.28391588f, -0.25407749f, -0.00431852f, -0.00455565f, 0.01379809f, 0.24290219f, 0.32361609f, 0.10408194f,
    0.12211547f, 0.04985113f, 0.07344341f, 0.27460504f, 0.23237102f, 0.09837683f, 0.27695882f, 0.21751715f,
    0.15279697f, 0.06316150f, -0.07229680f, 0.03780372f, 0.04447851f, 0.06772177f, -0.23609214f, 0.20567682f,
    0.24043176f, 0.07931474f, 0.12320745f, -0.20742957f, -0.25023484f, -0.20588385f, -0.15195310f, -0.02729232f,
    -0.03537523f, 0.00490183f, 0.12856174f, 0.02923854f, 0.00495455f, 0.21006808f, -0.09557968f, -0.19156022f,
    0.02417785f, 0.00793042f, -0.06115241f, -0.11429336f, -0.06998370f, -0.08870757f, 0.09329158f, -0.05733878f,
    0.03634780f, 0.14243396f, -0.00507973f, -0.37039366f, -0.41128501f, -0.01667370f, -0.04525068f, -0.15663476f,
    -0.19857253f, -0.19222523f, -0.41637447f, -0.26175258f, 0.24914183f, 0.06053602f, -0.36203119f, -0.43786275f,
    -0.04602795f, 0.21494381f, -0.10450365f, -0.15433954f, -0.13983294f, -0.08279035f, 0.04890812f, 0.06421724f,
    0.04895966f, 0.10789116f, -0.00708420f, 0.06276800f, 0.05972541f, -0.05304635f, 0.14331359f, 0.01913715f,
    0.17658778f, 0.38182870f, 0.11350935f, -0.01763976f, 0.11219539f, 0.30006361f, -0.02289029f, -0.14097075f,
    -0.03576055f, 0.30820233f, -0.03406828f, 0.11807413f, 0.23255812f, 0.03710413f, -0.14430220f, 0.04391497f,
    0.07271475f, 0.06152487f, -0.02067003f, 0.16756690f, 0.00815052f, -0.01165587f, 0.05776305f, -0.05973984f,
    -0.01418900f, -0.02541415f, -0.00709578f, 0.01245388f, -0.08921760f, 0.04461495f, -0.01320095f, -0.08021577f,
    -0.00214953f, -0.04732738f, -0.04089087f, 0.01911936f, 0.14047739f, 0.04259291f, -0.00660643f, -0.12442692f,
    -0.01584563f, 0.01000476f, 0.03701924f, -0.00246546f, -0.05557299f, 0.03415534f, -0.02163912f, 0.06368724f,
    0.01637172f, -0.00683912f, -0.10813725f, -0.05908706f, 0.02202599f, 0.02358021f, 0.02901224f, -0.01046642f,
    -0.15543102f, 0.07036939f, -0.13035844f, -0.00016114f, -0.05264628f, 0.03602828f, 0.12934592f, -0.04103799f,
    -0.03514559f, 0.23164929f, 0.21108164f, -0.07717274f, -0.20131893f, -0.15930745f, 0.16754854f, 0.17456175f,
    0.17144059f, 0.09854362f, 0.08358609f, 0.03552694f, 0.00744493f, 0.02521707f, -0.01576555f, 0.00823223f,
    0.11480772f, 0.00753968f, -0.02422169f, -0.25715995f, -0.04337758f, 0.14630656f, -0.04070022f, -0.05724482f,
    0.01327606f, 0.23578937f, 0.16550310f, 0.01507816f, -0.04804502f, 0.46742764f, -0.10575144f, -0.64573413f,
    -0.51135224f, -0.18754123f, -0.04910873f, 0.38471878f, 0.28887877f, 0.08175416f, 0.28577301f, 0.25094238f,
    -0.02985125f, -0.01980030f, -0.12053721f, 0.01162613f, 0.01173078f, 0.04445110f, 0.32821664f, 0.16933884f,
    0.24437903f, -0.22287388f, -0.29459360f, 0.24045031f, 0.00864220f, 0.12092605f, -0.28583664f, -0.54951990f,
    -0.10628178f, 0.11271745f, 0.01620141f, -0.12907586f, -0.23427750f, 0.04305911f, 0.01769314f, 0.20309524f,
    0.03795913f, 0.09780875f, 0.12454277f, 0.02173349f, 0.23933764f, 0.06195336f, 0.14203520f, 0.04922232f,
    -0.02357536f, -0.03982751f, 0.28195852f, 0.35619402f, 0.03064065f, -0.41674715f, -0.44609329f, -0.14238213f,
    -0.33319244f, -0.07691200f, -0.32655901f, -0.24791268f, -0.07878022f, -0.02159907f, 0.11866004f, 0.00726018f,
    0.00547690f, -0.16992639f, 0.04939528f, 0.04081423f, 0.00305544f, 0.19712073f, 0.12612286f, 0.39564005f,
    0.42591330f, 0.62689239f, 0.36482450f, -0.01906142f, -0.12005965f, 0.04537970f, 0.25831038f, 0.23682922f,
    -0.30477396f, 0.06256741f, -0.01139231f, -0.17550105f, -0.19033854f, -0.21501672f, 0.05540785f, 0.11197323f,
    -0.11310665f, 0.03975606f, 0.03403841f, 0.04195513f, 0.05094171f, 0.08107345f, 0.12356291f, 0.01536449f,
    0.21586768f, 0.16579075f, 0.01998592f, 0.07212148f, 0.23592743f, 0.25745094f, 0.18491766f, 0.13127597f,
    -0.00735909f, -0.12476119f, 0.17632060f, 0.02084213f, -0.20057790f, -0.13364258f, -0.32083210f, -0.16764103f,
    -0.29015175f, -0.40143052f, -0.16464286f, 0.11038060f, 0.06625235f, 0.08535437f, 0.06288702f, 0.01671795f,
    0.11361469f, 0.22331159f, 0.30518818f, 0.08570715f, 0.32390380f, 0.20446417f, -0.04007361f, 0.02259009f,
    0.36355698f, 0.28715652f, 0.18584253f, 0.13099939f, -0.07192056f, -0.33151281f, 0.18660223f, 0.26635319f,
    -0.03458203f, -0.20492694f, 0.02635274f, -0.08398879f, -0.08865830f, 0.00913611f, 0.13849652f, 0.13843352f,
    0.14350809f, 0.13585155f, 0.08426972f, 0.03327438f, 0.15933874f, 0.00242381f, 0.08924374f, 0.13079681f,
    0.24765849f, 0.11325552f, -0.04863750f, -0.29552633f, -0.08262637f, 0.15615161f, 0.21330710f, 0.30219579f,
    -0.47466466f, -0.00231758f, 0.25589123f, 0.14270674f, -0.13325049f, -0.09163442f, 0.26692891f, -0.16030759f,
    0.06468365f, -0.08715069f, 0.09696044f, 0.16951318f, 0.22656590f, -0.02000112f, 0.01567842f, 0.03752785f,
    -0.12844093f, -0.02824371f, -0.02000386f, -0.11239801f, -0.24825351f, -0.12216690f, -0.25420475f, -0.58436567f,
    0.07342526f, -0.07973483f, 0.03609037f, 0.08481116f, 0.01110358f, -0.08083268f, -0.19417539f, -0.21733560f,
    0.21407492f, -0.20521224f, -0.28736177f, -0.19419330f, -0.02142601f, -0.08128913f, -0.01953362f, 0.18188308f,
    0.03381453f, 0.12695760f, 0.01995886f, 0.14115770f, -0.20775777f, -0.19245130f, -0.11995415f, -0.34130532f,
    -0.46460143f, -0.12195595f, -0.13001607f, -0.41333413f, 0.08950125f, 0.19425346f, 0.00330450f, 0.13143899f,
    0.00832636f, -0.00501541f, -0.18166995f, -0.25335795f, -0.03308966f, -0.17793235f, -0.24368724f, -0.13611579f,
    -0.07410423f, -0.03139702f, -0.08549511f, 0.06540292f, -0.04875051f, -0.18279926f, -0.11281464f, -0.00324948f,
    0.00623363f, -0.01822091f, 0.03120681f, -0.06123334f, -0.21944734f, -0.05044509f, -0.45741028f, -0.46767589f,
    -0.06749686f, 0.27605435f, -0.19784993f, 0.18148154f, 0.00770740f, -0.44943488f, -0.01700094f, 0.05577444f,
    -0.00208514f, -0.18758813f, -0.06309621f, 0.08213801f, -0.07468542f, -0.22238371f, -0.08117970f, -0.01225489f,
    -0.07280968f, -0.15552714f, -0.08350617f, -0.05892479f, 0.41881290f, 0.15193333f, 0.14242813f, 0.07160912f,
    0.22549157f, 0.03682572f, -0.12187517f, -0.29899436f, -0.11010514f, -0.33366844f, -0.13551134f, 0.32044077f,
    0.04627897f, 0.03893770f, -0.05007614f, 0.01390721f, -0.08278736f, -0.14019273f, -0.13986494f, -0.13833073f,
    0.04245412f, -0.01972956f, -0.09591849f, -0.02541605f, -0.23569196f, -0.23694988f, -0.08398742f, 0.10369278f,
    0.23334278f, 0.02673605f, -0.03163207f, 0.11859693f, 0.18678696f, 0.07170008f, -0.03858870f, 0.07551313f,
    -0.18085301f, 0.16268583f, 0.37298983f, 0.37165335f, 0.07376930f, -0.05405421f, 0.00951158f, -0.12952881f,
    -0.08433532f, -0.10927870f, -0.19829105f, 0.04612440f, -0.03603656f, 0.03099949f, 0.03196411f, -0.04404915f,
    -0.05101196f, -0.22860557f, -0.07831854f, 0.19657736f, 0.09802896f, -0.07294080f, -0.13541028f, 0.06213150f,
    0.03338285f, -0.23435588f, -0.10724677f, -0.10892759f, 0.12813844f, 0.17360269f, 0.17670232f, -0.19705278f,
    -0.01900620f, -0.09177158f, 0.01773634f, -0.18681295f, -0.01149530f, -0.09919567f, -0.16655374f, -0.13449946f,
    0.08720590f, -0.09082107f, 0.15680005f, -0.09925749f, -0.06712814f, -0.12141691f, 0.06965895f, 0.19049330f,
    0.10574554f, -0.12182108f, 0.09592637f, -0.05142241f, 0.25459018f, -0.21965748f, -0.32947165f, -0.07966821f,
    0.20548603f, 0.34244174f, 0.05428959f, -0.09612980f, 0.05360148f, -0.08319627f, -0.18119465f, -0.15636879f,
    0.02326044f, 0.07172940f, 0.13468833f, 0.07979473f, 0.10643265f, -0.09071963f, 0.02592918f, -0.15390633f,
    -0.19921403f, -0.14362437f, 0.01315102f, 0.05367569f, 0.05623567f, 0.04730991f, 0.05667408f, 0.10658798f,
    0.07812978f, -0.09950327f, -0.05621028f, -0.00004652f, 0.40281674f, 0.45668602f, -0.32812205f, -0.18297340f,
    -0.02438727f, -0.16355123f, -0.19673839f, -0.11927569f, -0.05832840f, -0.01573326f, 0.16733029f, 0.06532467f,
    0.25844598f, -0.07970346f, -0.09736886f, -0.16683704f, -0.27322158f, -0.05998378f, -0.05233556f, 0.08748569f,
    -0.00174075f, -0.06413385f, -0.05367999f, -0.09403756f, -0.00509729f, -0.20151553f, -0.23172575f, -0.15659305f,
    0.09177271f, -0.37098292f, -0.48954216f, -0.23144877f, 0.01219677f, -0.10295643f, -0.17408073f, 0.09019825f,
    -0.14682071f, 0.01037511f, 0.26674405f, 0.11482614f, 0.32242984f, 0.06604428f, -0.14196275f, -0.29136834f,
    -0.37939852f, -0.09352885f, 0.29821131f, 0.13908024f, 0.10598650f, -0.05314523f, -0.02917613f, 0.02709996f,
    -0.04084043f, -0.25086865f, -0.20785275f, -0.23277850f, 0.06780518f, -0.03092853f, -0.33923590f, -0.47596133f,
    0.38973832f, -0.16385671f, 0.05232669f, -0.22171004f, -0.06112083f, 0.15507968f, 0.22630315f, 0.09386852f,
    0.06622835f, 0.10748219f, -0.20120381f, -0.33434778f, -0.21189594f, 0.01528443f, 0.47428384f, 0.11494654f,
    -0.12763239f, -0.14488177f, -0.10339149f, -0.05247556f, -0.08154631f, 0.00898538f, 0.06088729f, 0.24536857f,
    -0.05226248f, -0.09390763f, -0.15418527f, -0.01762172f, 0.05398902f, 0.28846031f, 0.11940783f, -0.21432246f,
    0.01215756f, 0.07855280f, 0.13572741f, -0.15088180f, -0.17274554f, -0.02758834f, -0.24588476f, -0.28615275f,
    0.17046759f, 0.18032946f, 0.24697027f, 0.02177524f, -0.03406814f, -0.23626620f, -0.01603379f, 0.05471546f,
    -0.19029158f, -0.01625777f, 0.14117552f, 0.05634038f, 0.25064379f, 0.24907701f, -0.35278401f, 0.13534427f,
    -0.04433818f, -0.02953635f, 0.10787036f, -0.10919830f, 0.06440105f, 0.08215557f, -0.06566212f, -0.42748645f,
    -0.20211424f, -0.25330660f, -0.30271438f, -0.02011326f, 0.11737724f, 0.15102474f, -0.00094451f, 0.14043702f,
    0.00406639f, 0.05469552f, 0.03838403f, 0.06380864f, -0.31185570f, -0.19215564f, 0.20679814f, 0.11966011f,
    0.50019115f, 0.63587046f, -0.30728543f, 0.07868905f, 0.00400307f, -0.07440402f, -0.26923969f, 0.12929492f,
    0.12657471f, 0.19465515f, -0.21541777f, -0.18402447f, -0.20843999f, -0.10765279f, 0.01011560f, 0.16881754f,
    0.21687852f, 0.15303230f, 0.01982347f, 0.01996704f, 0.10176300f, 0.06364704f, -0.04061298f, -0.14802079f,
    -0.18282636f, 0.13648455f, 0.04621578f, -0.08241870f, 0.16693929f, 0.21008395f, -0.28603122f, -0.01884712f,
    0.13071087f, 0.02782531f, -0.62434822f, -0.06463194f, 0.08080534f, 0.07031573f, 0.04931045f, -0.25444165f,
    -0.02341326f, -0.03291794f, 0.02888572f, -0.06369047f, 0.09317254f, 0.08838146f, 0.13592443f, 0.01405112f,
    0.19155972f, 0.10788894f, -0.13959064f, -0.33091393f, -0.13442878f, 0.06827014f, -0.13958535f, -0.07086338f,
    0.27533120f, 0.36228654f, -0.14932741f, 0.08477735f, -0.00068722f, 0.03849243f, -0.27093402f, -0.07335410f,
    -0.08367237f, -0.06771360f, -0.11357880f, -0.20870328f, -0.23954822f, -0.08876072f, 0.00403484f, -0.07120459f,
    0.05485391f, 0.00156364f, 0.02966775f, -0.00277809f, 0.10214316f, 0.01648959f, -0.35947761f, -0.41424388f,
    -0.23806611f, -0.01729588f, 0.03497867f, 0.01666866f, -0.19515990f, 0.14310081f, -0.22059532f, 0.01337848f,
    0.09944819f, -0.07907546f, -0.06856748f, -0.47504723f, -0.14637195f, 0.02958689f, -0.12208733f, -0.12737808f,
    -0.20236102f, -0.33759293f, -0.02463316f, 0.07945330f, -0.10352044f, -0.25215745f, -0.19598122f, -0.04435623f,
    0.18390909f, -0.05655463f, -0.26764691f, -0.35991749f, -0.20778903f, -0.03600367f, 0.01537904f, 0.17894122f,
    0.10297061f, 0.00201798f, 0.08653665f, -0.09601867f, -0.07561989f, 0.05511045f, 0.12355353f, 0.08619704f,
    -0.29080427f, -0.13550000f, 0.07369652f, 0.16608316f, 0.17380407f, -0.17763573f, -0.19892088f, 0.12423144f,
    -0.03536741f, 0.03019347f, 0.13834947f, 0.12403317f, 0.07361779f, 0.05989686f, -0.04958262f, -0.21218312f,
    -0.09354696f, 0.06953042f, 0.10442241f, 0.28219852f, 0.11789368f, -0.01124385f, -0.03634551f, 0.10916261f,
    0.02715995f, -0.05726745f, 0.03093215f, -0.03267134f, 0.12926377f, 0.40893123f, 0.56519562f, 0.54367185f,
    0.35511473f, 0.67936343f, 0.32705483f, 0.31651592f, 0.24347076f, 0.26430801f, 0.44183573f, 0.12443069f,
    0.24191092f, 0.28411061f, 0.01293618f, 0.17172383f, 0.15094911f, 0.10070828f, 0.12072873f, 0.10727149f,
    0.12790419f, 0.01116133f, -0.00577353f, 0.00273243f, 0.08047799f, 0.00583294f, -0.03462163f, -0.05599348f,
    -0.05635994f, -0.11281329f, -0.03896848f, -0.10755837f, -0.06248006f, 0.14085349f, 0.29650387f, 0.22184639f,
    0.09468165f, 0.08411685f, 0.47322425f, 0.21658315f, 0.17256264f, 0.06764223f, 0.13131589f, 0.05639699f,
    0.09212530f, -0.13802403f, 0.12692744f, -0.03483710f, 0.04682277f, -0.05166311f, -0.05673632f, 0.06187031f,
    -0.00814230f, 0.01627493f, 0.02752348f, -0.02929373f, -0.00475079f, 0.01319201f, -0.02172992f, -0.02705410f,
    0.06573033f, -0.00142022f, -0.05444819f, 0.04177774f, -0.05496852f, 0.00622113f, 0.08390569f, 0.09421234f,
    0.05274844f, -0.03637376f, -0.05258921f, 0.03639394f, 0.02131590f, 0.00882810f, 0.12304612f, 0.08010495f,
    -0.08130250f, -0.00980642f, -0.02366333f, 0.06069462f, -0.00413372f, 0.02585651f, 0.02818813f, 0.07002123f,
    -0.01829635f, 0.02941342f, 0.09444001f, 0.12686707f, -0.09126232f, -0.07969400f, -0.09203161f, -0.13780943f,
    -0.17945488f, -0.33740771f, 0.09839211f, 0.05960686f, 0.08293390f, 0.10914827f, -0.09287990f, -0.09803331f,
    -0.20238517f, -0.13029411f, 0.03362929f, 0.01470796f, 0.00427475f, 0.02830313f, 0.03794456f, 0.04986412f,
    0.04214896f, -0.01182458f, -0.01053722f, 0.01016347f, -0.13434881f, -0.04659514f, 0.14869982f, -0.08598989f,
    0.18452673f, 0.35247171f, 0.33399719f, 0.18522713f, 0.37060481f, 0.25688046f, 0.19933815f, 0.04153831f,
    0.12585518f, 0.11380374f, 0.29462710f, 0.06122483f, 0.09040800f, 0.10450802f, -0.12756729f, -0.15178098f,
    0.10073481f, 0.01223090f, 0.03072665f, 0.05040263f, -0.00817455f, -0.05143864f, 0.38170797f, -0.03836533f,
    -0.12153772f, 0.16241807f, 0.26807067f, 0.23141351f, 0.27164242f, 0.03647867f, 0.16620643f, 0.41948858f,
    0.32020822f, 0.36447290f, 0.09795123f, 0.01831423f, 0.09117560f, -0.09118386f, -0.22421823f, 0.14533933f,
    0.04992841f, 0.12913425f, 0.04228245f, 0.25294507f, 0.09374171f, -0.01954742f, 0.07493622f, -0.03140581f,
    -0.05415715f, 0.02824879f, 0.50417525f, 0.20076446f, 0.02490310f, 0.26540139f, 0.13243349f, 0.17056207f,
    0.51460910f, 0.17062306f, 0.32577255f, 0.21631563f, -0.01159858f, -0.06267162f, -0.10854096f, 0.08029750f,
    0.11160253f, 0.11170325f, -0.10823609f, 0.14438626f, 0.02146151f, -0.04084489f, -0.09390771f, -0.27326936f,
    -0.28678787f, -0.22074950f, -0.08199283f, 0.14644903f, 0.05600193f, 0.00008651f, 0.26907974f, -0.00359235f,
    0.36309379f, 0.12994459f, 0.21392570f, 0.26452044f, 0.15658212f, -0.19278695f, -0.25752664f, -0.23109977f,
    0.16220032f, 0.04762577f, -0.13318540f, -0.02175453f, 0.13605718f, 0.26149109f, 0.12059408f, -0.06191887f,
    -0.29101518f, -0.08905814f, -0.13732138f, 0.03026464f, 0.08269359f, 0.35967603f, 0.21571879f, 0.20766193f,
    -0.01947971f, 0.16731074f, -0.11292581f, 0.32966787f, 0.23557355f, 0.37585935f, 0.11791065f, 0.11165941f,
    0.05620585f, -0.13158451f, -0.06064686f, -0.07000093f, -0.07389966f, 0.11847154f, 0.04525630f, -0.09913029f,
    0.03432553f, -0.00353798f, -0.03724171f, 0.00731096f, -0.39013517f, -0.13447134f, -0.15783821f, -0.31940496f,
    -0.33265683f, 0.03880523f, 0.09103395f, 0.32190609f, -0.10109674f, 0.37021372f, -0.00249007f, 0.37083653f,
    0.36989868f, 0.41838697f, 0.14220051f, 0.19401404f, 0.00053485f, -0.12429263f, -0.00219361f, 0.05119838f,
    0.28370255f, 0.08195730f, 0.13461420f, 0.01004150f, -0.13528492f, 0.05674520f, 0.12289926f, 0.10796731f,
    -0.20552030f, 0.01586067f, -0.00832200f, -0.29454777f, -0.25152174f, -0.12882274f, -0.03008195f, 0.20240639f,
    0.12394496f, 0.17658071f, 0.03959857f, -0.02352032f, 0.20033781f, 0.23577946f, -0.01045395f, 0.00780355f,
    -0.22729233f, 0.09692446f, 0.16924703f, 0.19307630f, 0.14325014f, -0.05835055f, -0.05110502f, -0.04966823f,
    -0.01194155f, 0.12103419f, -0.02725316f, 0.00535306f, -0.03834866f, -0.10829444f, -0.05024309f, -0.32518047f,
    -0.39984548f, -0.21491320f, 0.18692330f, 0.00228601f, -0.03493956f, 0.05879971f, 0.21823329f, 0.07416284f,
    0.11388513f, 0.22043356f, 0.13868655f, 0.05610404f, 0.08987123f, 0.11563601f, -0.05046793f, 0.11092610f,
    0.18952319f, -0.11023942f, 0.00274383f, -0.00921979f, 0.03174605f, 0.17926607f, -0.00854202f, -0.05703294f,
    -0.06991035f, 0.01110600f, -0.08373669f, -0.06113294f, -0.29941580f, -0.02579691f, 0.08609730f, 0.30440569f,
    0.01450087f, 0.07409263f, 0.00204923f, -0.13653432f, 0.00583762f, 0.13331619f, 0.13238828f, 0.09464095f,
    -0.03813412f, -0.12730895f, -0.18542215f, -0.07308469f, -0.08956232f, -0.22609729f, -0.03408045f, 0.01117633f,
    -0.00325923f, 0.13021992f, -0.06278210f, -0.01469522f, 0.00572163f, -0.13816239f, -0.17189588f, -0.17565723f,
    -0.21802607f, -0.14257684f, 0.27643186f, 0.48120767f, -0.00105438f, 0.50942135f, -0.25797614f, 0.00428249f,
    0.08874221f, -0.06296799f, -0.09446174f, -0.16063124f, -0.05117569f, -0.17600642f, -0.26735204f, -0.29071945f,
    -0.39179239f, 0.04511251f, 0.36424452f, -0.04280751f, -0.25663492f, -0.09368785f, -0.07554664f, -0.04936720f,
    -0.03946228f, -0.07053321f, -0.06892508f, -0.12371989f, -0.03071282f, 0.40389615f, -0.17671441f, 0.54279768f,
    -0.05027490f, 0.03864107f, -0.13748808f, -0.13556437f, -0.05127358f, -0.32818651f, -0.45880461f, -0.46427622f,
    -0.26508641f, -0.39408982f, -0.24037686f, -0.24441662f, 0.02521531f, 0.38423276f, 0.46449593f, 0.00896290f,
    -0.11071269f, -0.24289568f, -0.21164845f, -0.04833422f, -0.10813823f, -0.01384574f, 0.21765338f, 0.13005747f,
    0.41574961f, 0.73009318f, 0.00699353f, 0.46466097f, -0.01481504f, -0.13534483f, 0.06507228f, -0.36482701f,
    -0.36797014f, -0.37024337f, -0.42406398f, -0.38208547f, -0.20630534f, -0.20267266f, -0.21825664f, -0.04225812f,
    0.08564167f, 0.47618011f, 0.23203695f, -0.03511820f, -0.03645112f, -0.09455837f, -0.08453616f, 0.16494970f,
    0.05600587f, 0.12533073f, 0.06974227f, -0.00720557f, 0.26644304f, 0.35762566f, 0.46361509f, 0.13458304f,
    -0.03393632f, 0.06851245f, -0.06078883f, -0.26746428f, -0.28732687f, -0.11899431f, -0.09689634f, -0.09207901f,
    -0.03120293f, -0.06585936f, -0.09937587f, 0.19463365f, 0.39321047f, 0.21518770f, 0.19069971f, -0.04301044f,
    -0.16149725f, 0.02585237f, -0.04070471f, 0.15271063f, 0.02167173f, 0.01639971f, -0.08316156f, -0.01906328f,
    0.03996203f, 0.22794519f, 0.38846138f, -0.01718578f, -0.02016981f, 0.16540930f, 0.28953424f, -0.16237353f,
    -0.22206183f, -0.25241640f, -0.01794743f, -0.05689897f, -0.10652874f, 0.05901532f, 0.10175152f, 0.52112371f,
    0.42907861f, 0.23584650f, 0.09264427f, -0.05944504f, 0.02338511f, -0.07028059f, -0.02043915f, 0.05906214f,
    -0.25068361f, 0.09101596f, 0.03734089f, 0.25907525f, 0.18075003f, -0.03541085f, 0.39951187f, 0.27307582f,
    0.04745816f, 0.10968302f, 0.27976212f, 0.23710118f, 0.05803273f, -0.06744365f, 0.07161752f, 0.14129674f,
    0.09151825f, 0.17391121f, 0.22087175f, 0.42239982f, 0.32326028f, 0.06827218f, 0.08795930f, -0.11097035f,
    0.09666648f, 0.03673648f, 0.22475281f, 0.20797142f, -0.18863027f, 0.15318185f, 0.11164434f, 0.24637592f,
    0.38888505f, -0.03432469f, 0.53279382f, -0.08429256f, -0.01717013f, 0.05865148f, 0.33719859f, 0.32898661f,
    0.01316078f, -0.12220509f, 0.07054920f, 0.14775814f, 0.06912534f, 0.18093523f, 0.20988046f, 0.22396584f,
    0.18064706f, 0.09271929f, 0.11021017f, -0.07851099f, -0.00853637f, 0.10762624f, 0.09656183f, 0.11753722f,
    -0.28375843f, 0.08186248f, 0.23141362f, 0.26997206f, 0.18789047f, 0.17168596f, 0.29592347f, -0.19819696f,
    0.02549903f, 0.09966652f, 0.20304869f, 0.31665477f, -0.06472843f, 0.01266472f, -0.00421375f, 0.09303661f,
    0.09248839f, 0.27391225f, 0.14597371f, 0.06925047f, -0.12287006f, 0.03026946f, -0.07776190f, 0.00524219f,
    -0.00875125f, -0.13571750f, 0.17276408f, 0.01224119f, -0.12790863f, -0.07673351f, 0.09316035f, 0.18944132f,
    0.10533740f, 0.01334895f, 0.21745662f, 0.14556889f, -0.01152479f, -0.17228757f, 0.18751751f, 0.00840129f,
    0.08941556f, 0.06114344f, 0.04890825f, 0.10099088f, 0.22230820f, 0.29795390f, 0.04505926f, 0.04017588f,
    -0.23503697f, -0.03941693f, -0.04595378f, -0.00011269f, 0.15978687f, -0.01747526f, -0.04734016f, 0.06065687f,
    -0.06802208f, 0.06711449f, 0.27241331f, 0.16514210f, -0.06250340f, 0.14661485f, 0.18082385f, 0.11438408f,
    -0.09574487f, -0.28341737f, 0.15216582f, 0.16266063f, 0.06970043f, -0.05588052f, 0.03087521f, 0.25152636f,
    0.02147472f, 0.10350817f, 0.01208538f, 0.02121147f, -0.01240540f, 0.05622442f, -0.07823656f, -0.10895181f,
    -0.11724404f, -0.07136244f, 0.06673478f, 0.18819432f, 0.11368866f, 0.11845672f, 0.15076824f, 0.07962964f,
    -0.03265740f, -0.06135389f, 0.10563260f, -0.01405069f, 0.05144362f, 0.10951968f, 0.50370592f, 0.16623896f,
    -0.14440726f, -0.12018523f, -0.05078651f, 0.23382877f, 0.15443489f, -0.05783684f, 0.04372237f, -0.08229394f,
    -0.11617281f, -0.06472223f, -0.14357895f, -0.30174994f, -0.09129383f, -0.30834627f, -0.10258037f, 0.08797890f,
    0.07804861f, -0.05367474f, 0.00122677f, 0.02614806f, -0.30139950f, -0.20992744f, 0.24956922f, 0.00761848f,
    0.00803592f, 0.06244502f, 0.49783400f, -0.21984084f, -0.04131921f, 0.02287403f, -0.16851464f, 0.00487875f,
    0.01139313f, -0.04396058f, 0.05411356f, -0.02131755f, -0.14746761f, -0.09352601f, -0.18369073f, -0.08018756f,
    0.07387736f, -0.16893129f, -0.10603804f, 0.15269427f, -0.06975523f, -0.08665384f, -0.05410658f, 0.03184779f,
    -0.32270578f, -0.44212857f, -0.22578292f, 0.08182319f, 0.05095788f, 0.02207684f, 0.20011842f, -0.06053054f,
    -0.02477665f, -0.12842166f, -0.11860383f, 0.04356613f, -0.06800019f, 0.08078270f, 0.23241733f, -0.10067873f,
    -0.02487951f, 0.16800153f, 0.07640548f, 0.00562227f, -0.01870246f, 0.01039368f, -0.01915475f, 0.01347226f,
    -0.16262397f, -0.36080402f, 0.00393048f, -0.03182879f, -0.58696616f, -0.40534264f, -0.14498344f, 0.03284689f,
    0.10697962f, 0.07645608f, 0.03115992f, 0.09096524f, 0.03312789f, -0.03081794f, 0.12798819f, -0.20066778f,
    -0.20658557f, 0.04846620f, 0.01124390f, 0.01078421f, 0.08313880f, 0.04335218f, 0.06988236f, -0.21850666f,
    0.13167000f, 0.10128193f, -0.35350165f, -0.28635678f, -0.28523064f, -0.25993457f, -0.13746716f, -0.35800433f,
    -0.17001139f, 0.17281978f, 0.09180366f, 0.00473910f, -0.06216384f, 0.06504651f, -0.01008805f, -0.04933339f,
    0.28198528f, 0.27070504f, 0.22896762f, 0.02434934f, -0.02896722f, 0.07112937f, 0.23799106f, 0.08042859f,
    0.04419032f, 0.07842193f, 0.02540284f, -0.14687756f, -0.04610514f, -0.19709940f, -0.56918186f, -0.38892722f,
    -0.08195163f, -0.40685275f, -0.21539421f, 0.08637729f, -0.08288978f, -0.01430445f, 0.04886606f, 0.01309138f,
    0.00432155f, 0.01923497f, 0.01429323f, -0.05422970f, -0.17466623f, -0.37035796f, -0.27132806f, -0.30507687f,
    0.09135164f, -0.01041920f, 0.03636561f, 0.02183061f, -0.34528947f, -0.12076676f, -0.22637157f, -0.55093420f,
    -0.47894847f, -0.09041389f, 0.00686737f, -0.00945816f, -0.30961540f, -0.67782819f, -0.44676512f, -0.29909763f,
    -0.21149293f, 0.00258323f, 0.01365509f, -0.02505876f, 0.05912226f, -0.00037580f, 0.03612284f, 0.01717379f,
    0.08174213f, 0.05152370f, -0.16476849f, -0.20913741f, -0.09568712f, 0.00890829f, 0.08134223f, 0.01024921f,
    -0.30317909f, -0.17322735f, -0.01505054f, 0.03588080f, 0.02623073f, 0.00403765f, -0.01575776f, -0.09086995f,
    -0.06006121f, -0.19215399f, -0.13700597f, -0.03025017f, -0.08141045f, -0.06644621f, 0.02988790f, -0.03294005f,
    -0.01663589f, -0.03843842f, 0.06120741f, 0.02374342f, -0.00151174f, 0.03151941f, -0.01496371f, 0.00538978f,
    0.05978908f, 0.02190600f, -0.05149346f, 0.03928431f, 0.03939074f, 0.05226422f, 0.06464498f, 0.05791847f,
    0.04901531f, 0.05586873f, -0.02433288f, -0.03063199f, -0.00252991f, -0.04022841f, -0.01942340f, 0.00369596f,
    -0.06281140f, -0.04024177f, 0.04401165f, 0.01585105f, 0.03913243f, -0.06526412f, -0.01371245f, -0.01925751f,
    0.04718480f, -0.07209187f, 0.00452331f, 0.03382136f, -0.03640392f, -0.07484855f, -0.00293803f, 0.15908487f,
    0.10963499f, 0.21180853f, 0.17320523f, -0.04051135f, 0.06717560f, -0.06577692f, -0.26230177f, -0.16035347f,
    -0.23736565f, -0.15647203f, -0.01002220f, 0.03627426f, 0.03300709f, 0.00812920f, -0.01748827f, -0.03250292f,
    -0.02930497f, -0.01442163f, -0.20288144f, 0.30334380f, 0.25377190f, -0.06536376f, -0.00853907f, 0.12833101f,
    -0.02349674f, -0.05032098f, -0.21798250f, -0.27937990f, 0.12937766f, 0.18430839f, 0.28580317f, 0.23120619f,
    -0.18174276f, -0.27570736f, -0.37891912f, -0.24942277f, -0.30966207f, -0.28442681f, -0.17858939f, -0.23676457f,
    0.04276131f, 0.06357434f, -0.06576500f, -0.03106476f, -0.04735719f, 0.01209793f, -0.22639662f, 0.37138215f,
    0.42366329f, 0.03473566f, -0.09698594f, -0.12132433f, -0.27844876f, 0.08750315f, -0.01326702f, -0.27860448f,
    -0.29977724f, -0.18245856f, -0.22421129f, -0.32617560f, 0.09411699f, -0.16204517f, -0.24614930f, -0.27498147f,
    -0.12697646f, -0.11562321f, -0.03969183f, -0.03699145f, 0.16546512f, 0.22208950f, 0.14774981f, 0.03126286f,
    -0.01356161f, 0.00679048f, -0.24308588f, 0.07837728f, -0.16959244f, -0.16220021f, -0.19951725f, -0.38291478f,
    -0.41643515f, -0.07365368f, -0.58397168f, -0.28133884f, -0.19490416f, -0.34229699f, -0.23213001f, -0.31090388f,
    -0.05343309f, 0.27506125f, -0.00366879f, -0.17838022f, -0.06127084f, 0.04555582f, 0.29493332f, 0.20830150f,
    0.48258457f, 0.22978659f, 0.25090533f, -0.21472998f, 0.08870399f, -0.02376177f, -0.27289110f, 0.19007874f,
    -0.29835054f, -0.44652724f, -0.37479928f, -0.35319218f, -0.17221011f, -0.12868932f, -0.10034440f, -0.05435543f,
    0.03382308f, 0.12910767f, 0.16758882f, 0.10297917f, -0.10744874f, 0.16666840f, 0.13729012f, -0.02672929f,
    0.07336096f, -0.21156235f, -0.06199937f, -0.25715387f, -0.09198187f, 0.06192903f, 0.22685550f, -0.39439428f,
    0.08984673f, -0.04417122f, 0.23511070f, -0.28855342f, -0.27721009f, -0.12868519f, -0.39759928f, -0.40000156f,
    -0.23653835f, -0.10918506f, -0.06160788f, 0.06332632f, 0.11693079f, 0.16768579f, 0.15644282f, 0.27369601f,
    -0.01895661f, 0.06608862f, 0.15066968f, 0.22367834f, 0.02949492f, 0.17224351f, 0.10825858f, 0.09951808f,
    0.06672820f, 0.07057230f, 0.20740281f, -0.00355759f, 0.06728179f, -0.33141470f, 0.29283267f, -0.27004096f,
    -0.26743662f, -0.23742518f, -0.18921186f, -0.19172907f, -0.02124633f, 0.13065581f, 0.14073293f, 0.22653167f,
    0.11116058f, 0.21036606f, 0.06921621f, 0.27066854f, 0.18854742f, 0.10530362f, 0.11569039f, 0.15284155f,
    0.12198254f, -0.04146781f, -0.01231599f, 0.19196576f, 0.15363343f, 0.14548996f, -0.06797822f, 0.10054804f,
    0.50733697f, -0.09224267f, 0.08553652f, 0.11861778f, -0.19287658f, -0.29644120f, 0.09999773f, 0.01918904f,
    0.17434105f, 0.20356251f, 0.13493156f, 0.18042487f, 0.16432722f, 0.25321600f, 0.23647919f, -0.01892354f,
    0.19850384f, 0.09371823f, 0.21113244f, 0.09715331f, 0.14751513f, -0.09644111f, 0.02507881f, 0.24196398f,
    0.34582624f, 0.33177173f, 0.09693860f, 0.21979487f, 0.04436142f, -0.03016242f, 0.08925987f, -0.00104994f,
    -0.23411489f, 0.03444334f, -0.01238947f, -0.13557585f, -0.02354642f, -0.21856724f, 0.06811420f, 0.00892667f,
    0.17066832f, 0.13396104f, 0.10496023f, -0.13814391f, -0.05047590f, 0.06799359f, 0.10106252f, 0.03763346f,
    0.17378663f, 0.02060905f, -0.08029586f, 0.09665075f, 0.27636960f, 0.34466451f, 0.19580376f, -0.14998259f,
    0.07036466f, -0.03497051f, 0.23284633f, -0.03424659f, -0.00961244f, 0.27859989f, 0.07332572f, -0.08892961f,
    -0.00568180f, 0.11932404f, 0.17563243f, 0.10742877f, 0.13421325f, -0.00478525f, -0.00521248f, -0.13215452f,
    0.01770158f, 0.11795678f, 0.12363937f, -0.11690916f, -0.06970862f, 0.10588297f, 0.25360882f, 0.07149393f,
    -0.04448945f, -0.28675768f, 0.19117756f, -0.16405977f, 0.00395020f, 0.19444962f, -0.21498567f, 0.14340714f,
    -0.07819221f, 0.02561620f, 0.00696790f, 0.12536244f, 0.09206389f, -0.04772341f, -0.00445459f, 0.08966251f,
    0.08158378f, -0.07928297f, -0.19982733f, -0.18965000f, -0.03773327f, 0.18479863f, 0.12039571f, 0.00286005f,
    0.13240035f, 0.21711583f, 0.07784957f, 0.05133621f, 0.00643672f, -0.14643164f, 0.29208368f, -0.30657205f,
    -0.01111415f, -0.01063521f, 0.16127743f, 0.29281166f, 0.29539514f, 0.09913158f, -0.04690944f, 0.05861321f,
    -0.13586281f, -0.07939309f, 0.00868285f, 0.01271486f, -0.06496053f, -0.05210513f, -0.17334682f, -0.04553889f,
    -0.12454989f, 0.07260816f, 0.11729562f, 0.16202375f, 0.03683417f, 0.13289474f, 0.01272200f, 0.15172118f,
    -0.19696674f, -0.26801196f, 0.02849893f, -0.21612547f, -0.21153508f, 0.10285616f, 0.03840967f, 0.35117066f,
    0.50715882f, -0.02823665f, -0.07908859f, -0.01831434f, 0.06836006f, -0.05787695f, -0.01116724f, -0.06831972f,
    0.16441876f, 0.14920212f, -0.06209806f, 0.03524826f, -0.29242224f, -0.19466196f, 0.03429795f, 0.01495062f,
    -0.02311816f, 0.08434537f, 0.02935293f, 0.00549532f, -0.13876562f, -0.11632027f, 0.18898298f, 0.11924379f,
    0.03281261f, 0.00314860f, -0.07497516f, 0.02955166f, 0.28657356f, 0.08741582f, 0.12856364f, 0.13721643f,
    0.02074730f, -0.23126443f, -0.07808496f, 0.09091498f, 0.10800316f, 0.16119421f, -0.03839562f, -0.16496769f,
    -0.50638181f, -0.28373206f, -0.28121561f, -0.20663022f, 0.17497852f, 0.14124808f, 0.00796501f, 0.01108319f,
    0.10364407f, -0.05919700f, 0.08423341f, 0.08433035f, 0.03092996f, -0.03799636f, -0.09599441f, -0.24684840f,
    0.13170604f, 0.18530522f, 0.16821086f, 0.14383134f, 0.01245493f, -0.11252776f, -0.15818989f, -0.08127658f,
    -0.08543898f, -0.00126945f, 0.13454495f, -0.09031624f, -0.39835399f, -0.38092190f, -0.31780022f, -0.22584276f,
    -0.09844983f, 0.09458154f, -0.08630875f, 0.11426748f, 0.20497805f, -0.01498537f, -0.41486064f, -0.05554632f,
    -0.09113245f, -0.07581154f, -0.09857042f, -0.17473823f, 0.17704096f, 0.06406626f, 0.01518862f, 0.10847859f,
    0.14629263f, -0.13956587f, -0.17000568f, -0.17059976f, 0.01393055f, -0.13801599f, 0.03712443f, 0.00590951f,
    -0.09750825f, -0.05049488f, -0.25987223f, -0.16353932f, 0.08085081f, 0.16630745f, -0.14348815f, -0.04884977f,
    -0.13776678f, -0.12072197f, -0.21336259f, -0.03954569f, -0.07571544f, -0.08738413f, -0.25514540f, -0.09941813f,
    0.15578459f, 0.14518873f, 0.03969979f, 0.01092410f, 0.09430559f, 0.18275459f, -0.09000492f, -0.08814579f,
    -0.01534634f, -0.03309578f, -0.02926235f, -0.02067084f, -0.09155135f, 0.05407931f, -0.02294774f, -0.19610623f,
    -0.09060601f, -0.07084645f, -0.06792675f, -0.06189921f, 0.03129831f, 0.13186978f, -0.05681420f, 0.11586623f,
    0.16079894f, -0.16235647f, -0.26907015f, -0.13834856f, 0.10095356f, -0.05351680f, 0.18083212f, 0.16002040f,
    0.24923076f, 0.02911570f, 0.03736653f, 0.11063640f, -0.12117720f, -0.04892662f, -0.11831977f, -0.05302361f,
    0.05853119f, 0.13332830f, 0.06220732f, -0.07251973f, -0.27956998f, -0.16923504f, 0.08748978f, -0.00247503f,
    0.13081355f, -0.14493151f, -0.00705605f, -0.10601970f, -0.06839453f, 0.07601102f, 0.02545467f, -0.02157280f,
    -0.01369159f, 0.00450510f, -0.01251494f, 0.05505035f, 0.13991159f, -0.05965449f, -0.04159395f, -0.19884431f,
    0.09056515f, 0.02690979f, -0.06131385f, -0.05541403f, 0.15882246f, 0.35564327f, 0.28413197f, 0.01019546f,
    0.11170156f, 0.01738730f, 0.21971662f, -0.20006959f, -0.10726371f, -0.35272720f, 0.05654491f, -0.02641667f,
    0.05345614f, 0.13783982f, 0.11188811f, 0.10647012f, -0.03643139f, -0.02781565f, -0.02205128f, -0.08632056f,
    0.21880735f, -0.06397330f, -0.07942935f, 0.02772923f, 0.19631422f, 0.08495720f, -0.12558882f, -0.16963224f,
    -0.03820869f, 0.11974293f, -0.08421161f, 0.12676275f, -0.07244605f, -0.02577685f, -0.18688820f, -0.18274365f,
    -0.15269211f, -0.27973515f, 0.01318328f, -0.00932203f, -0.13874842f, -0.08860785f, -0.11824355f, 0.04399273f,
    0.08331701f, 0.00118099f, -0.07216653f, -0.11275516f, 0.01020231f, 0.01361322f, -0.25771368f, 0.11951609f,
    -0.13128050f, 0.04141239f, -0.03489000f, -0.01026535f, -0.10105485f, 0.00409660f, -0.20722826f, -0.19870952f,
    -0.64452946f, -0.35296729f, 0.03155841f, -0.12909210f, -0.09044456f, 0.38119185f, 0.36452478f, 0.00246360f,
    -0.02786663f, -0.02185643f, 0.29756537f, 0.43731585f, 0.09482235f, 0.03108865f, 0.04570944f, -0.08041795f,
    -0.05363278f, 0.02826899f, -0.18143839f, -0.10824125f, 0.03182006f, 0.06410984f, 0.09125358f, -0.00306625f,
    -0.19674866f, 0.03213371f, -0.09766733f, -0.31427488f, -0.46091005f, -0.54646391f, -0.04083294f, -0.19742469f,
    -0.26148859f, -0.09880827f, 0.08765563f, 0.02263650f, 0.01925774f, -0.02784949f, -0.05000183f, 0.28837988f,
    0.07467157f, 0.01424815f, 0.08702073f, 0.07961299f, 0.22363459f, -0.01550038f, 0.00794076f, 0.04497211f,
    0.10890660f, 0.07636962f, 0.08965246f, -0.06967766f, -0.02089270f, -0.00478805f, -0.25067839f, -0.31274405f,
    -0.63842869f, -0.33395541f, -0.05812342f, -0.07754534f, -0.21137632f, 0.20111811f, -0.05382478f, -0.06070999f,
    0.05013779f, -0.05649193f, -0.21650761f, 0.02659901f, 0.23635469f, 0.28723764f, 0.11584686f, 0.09275412f,
    0.23965058f, 0.06809523f, -0.09534536f, -0.13862123f, 0.31743345f, 0.32646903f, 0.05511382f, 0.04208056f,
    0.04772151f, -0.27385363f, -0.13230428f, -0.32016689f, -0.00279214f, -0.36616340f, -0.10437066f, -0.02178415f,
    0.10514482f, -0.25328973f, -0.16557299f, -0.04362818f, -0.02009886f, 0.01056060f, 0.02539301f, 0.08518861f,
    -0.28152236f, -0.47484347f, 0.05912565f, 0.06639563f, -0.09411006f, -0.16286981f, 0.27261159f, 0.14547655f,
    0.00134734f, -0.30800349f, -0.59890872f, -0.05045833f, 0.12264824f, 0.06508388f, 0.02131129f, 0.45163944f,
    0.45065179f, 0.20400608f, 0.27040920f, -0.03763635f, -0.01266511f, 0.02954035f, 0.16535588f, 0.03426258f,
    -0.04381543f, 0.10552149f, 0.06528280f, 0.14283088f, -0.00503705f, -0.26631841f, -0.44417679f, -0.25769666f,
    -0.12262064f, -0.30765960f, -0.22437155f, 0.27627447f, 0.40838504f, 0.58337915f, -0.15844186f, -0.51906747f,
    -0.31312397f, -0.24064651f, 0.02961843f, 0.09713789f, 0.13483852f, -0.17127654f, -0.16883855f, -0.01413123f,
    -0.05968970f, -0.14786889f, 0.02069489f, -0.07131600f, -0.01311285f, 0.02023801f, -0.04448956f, -0.12083410f,
    -0.02986507f, -0.14015816f, 0.01283649f, 0.01295910f, -0.08660780f, -0.17276625f, -0.22746108f, -0.20428504f,
    -0.16718733f, -0.03057399f, -0.00882258f, -0.40760478f, -0.25617543f, -0.24948877f, 0.17097734f, 0.12224175f,
    0.12150358f, -0.17242482f, -0.15405318f, -0.04310553f, -0.02754658f, -0.06905421f, -0.01464287f, -0.01526854f,
    0.03440339f, -0.07297287f, -0.07801199f, -0.05885155f, -0.01743365f, 0.06604929f, 0.05375880f, 0.09983893f,
    -0.01399102f, 0.05114067f, 0.03255335f, -0.02595818f, 0.11522143f, -0.02582582f, -0.01829340f, -0.09916507f,
    -0.01361355f, 0.02523995f, 0.06169605f, 0.06768264f, 0.04916468f, 0.06379546f, -0.02189326f, 0.10560932f,
    0.00020105f, 0.02680534f, -0.03508035f, 0.04334705f, -0.00314526f, -0.04078774f, -0.12054035f, 0.03772472f,
    -0.00598454f, 0.06974762f, 0.04184497f, -0.03355834f, 0.05754492f, 0.09116532f, 0.00593409f, -0.15303102f,
    -0.01911077f, 0.06663542f, 0.21048613f, 0.33270067f, 0.09635036f, -0.04725206f, 0.17280383f, -0.00671908f,
    -0.01502492f, 0.01936645f, 0.12297538f, 0.02322439f, 0.06025562f, 0.02909951f, 0.05905969f, 0.16580933f,
    0.01218954f, -0.04124606f, -0.02841248f, 0.10052218f, 0.05773463f, -0.00804367f, 0.08818922f, -0.06347896f,
    -0.15143730f, -0.34102345f, -0.00930004f, 0.26487353f, 0.23730083f, 0.52219981f, 0.22634423f, 0.30224204f,
    0.52251422f, 0.45182848f, 0.32703137f, 0.43877342f, 0.30371180f, 0.10927374f, 0.16027389f, 0.37104678f,
    0.07444697f, 0.00431819f, 0.04781475f, -0.04742389f, -0.08813128f, 0.07980546f, 0.33218926f, 0.48789144f,
    0.35806829f, 0.10474965f, 0.00276849f, 0.42769560f, 0.34660017f, -0.06556695f, -0.14436032f, -0.42505941f,
    -0.30371860f, -0.39223596f, -0.36605209f, 0.17388190f, 0.02619212f, 0.06127876f, 0.07629854f, 0.09088296f,
    0.10077271f, -0.15046537f, -0.01877656f, -0.14882140f, 0.25484222f, -0.18777679f, 0.04897954f, 0.02092721f,
    -0.06682301f, 0.08474234f, 0.36261100f, 0.53969425f, 0.20792526f, 0.21090172f, 0.08651207f, 0.16128238f,
    0.07743086f, 0.09989484f, 0.11202759f, -0.04610594f, -0.09377730f, -0.16522726f, -0.08787684f, 0.02634294f,
    0.24120468f, 0.06244805f, 0.18842013f, 0.08435760f, 0.09546892f, -0.07304053f, -0.33784753f, -0.18931344f,
    -0.09076352f, 0.08064543f, 0.05297940f, -0.06021078f, -0.04507999f, 0.06623092f, 0.30819055f, 0.38280773f,
    0.12365024f, -0.00576072f, 0.23559342f, 0.20875637f, 0.00843267f, 0.15358323f, 0.21158026f, 0.18342420f,
    0.02306980f, -0.16292454f, -0.12782055f, -0.03289369f, 0.20718691f, 0.25019282f, 0.21779902f, 0.13689040f,
    0.16976386f, -0.14972872f, -0.29773775f, 0.02467290f, -0.05484990f, -0.07322924f, 0.07285675f, -0.03714376f,
    -0.04879309f, 0.13683504f, 0.04270902f, 0.06397690f, -0.08915855f, 0.09151386f, 0.17083907f, 0.12857503f,
    -0.00948919f, 0.09186977f, -0.06530212f, -0.05279735f, -0.01312529f, -0.01715278f, 0.09894978f, 0.08419566f,
    0.12475474f, 0.12055327f, -0.00050379f, 0.07539942f, 0.09777407f, -0.20673895f, -0.09130282f, 0.06617871f,
    0.19578239f, 0.19145307f, 0.17976339f, 0.04881615f, 0.11182603f, 0.13267942f, -0.13129441f, -0.08225308f,
    -0.12613882f, 0.31607780f, 0.19564813f, -0.01700838f, 0.02908056f, -0.14319387f, -0.08005724f, 0.02958928f,
    -0.01204946f, -0.01062765f, 0.11328247f, 0.12515369f, 0.10073402f, 0.12878002f, -0.03936544f, -0.05325248f,
    -0.01534201f, -0.09037989f, -0.02035216f, 0.16887881f, 0.13999292f, 0.12096745f, 0.18447518f, 0.00714237f,
    -0.01679609f, -0.12421632f, -0.29075697f, -0.40027925f, -0.30210617f, 0.02051253f, -0.02217362f, -0.01739012f,
    -0.06555033f, 0.01953236f, 0.04556194f, 0.05085638f, -0.03573062f, -0.03721505f, -0.04909862f, -0.00964669f,
    -0.03351946f, -0.10491131f, -0.18006442f, -0.16122110f, -0.19719534f, -0.19660817f, 0.02075857f, -0.01613168f,
    0.05921132f, 0.12804188f, 0.25112873f, -0.05039100f, -0.01782672f, -0.00462959f, -0.62861794f, -0.60465175f,
    -0.36087137f, 0.11973400f, 0.10491993f, 0.28537810f, 0.21513066f, 0.20757227f, -0.00739182f, 0.06115276f,
    -0.04659060f, -0.15306295f, -0.09844106f, 0.09572729f, 0.00787343f, -0.17862734f, -0.17793685f, -0.27186003f,
    -0.22024997f, -0.13345303f, -0.07269018f, -0.37877062f, -0.21254095f, 0.00196774f, 0.00795780f, -0.02399835f,
    0.01058884f, -0.12981465f, -0.42889318f, -0.03860973f, -0.21439597f, 0.14492548f, 0.01904555f, 0.14871089f,
    0.04170385f, -0.17508201f, 0.04528065f, 0.04926121f, 0.01980964f, 0.05297435f, 0.02665854f, -0.03277059f,
    -0.17492430f, -0.18809837f, -0.03690161f, -0.08610225f, -0.07370167f, -0.21263231f, -0.53927130f, -0.41576180f,
    -0.36167285f, -0.18684010f, -0.02825098f, 0.13327116f, -0.04239692f, -0.03652899f, -0.20769227f, -0.20293204f,
    -0.34753850f, -0.17909539f, -0.04682159f, -0.12490813f, -0.02939534f, -0.14215338f, -0.05139752f, -0.09002464f,
    0.14144486f, 0.18290363f, 0.12293611f, 0.07624516f, 0.11023796f, -0.08910336f, -0.06041680f, -0.18799248f,
    -0.06719962f, -0.19780566f, -0.27656451f, -0.42004910f, -0.44255552f, -0.22175896f, 0.06379003f, -0.05965069f,
    -0.05083851f, 0.01909462f, -0.51312363f, -0.12234960f, -0.72085041f, -0.28424788f, -0.12955801f, -0.26759326f,
    -0.02975125f, 0.05428903f, 0.20585133f, 0.25412500f, 0.29915854f, 0.28090575f, 0.42660543f, 0.14769104f,
    -0.01811528f, 0.10324401f, -0.08706604f, -0.17143227f, -0.13804120f, -0.16273648f, -0.01481909f, -0.03927474f,
    -0.51975739f, -0.46584734f, -0.00288580f, -0.07795624f, 0.30946550f, 0.00154871f, -0.33442256f, -0.14342526f,
    -0.57826716f, -0.26688936f, -0.32017577f, -0.20777549f, 0.03601283f, -0.02890308f, 0.02227088f, 0.16211697f,
    0.23135614f, 0.21042439f, 0.24967521f, 0.14607729f, 0.08956793f, 0.25834158f, -0.17986763f, 0.01940142f,
    0.01709017f, -0.00365194f, -0.02994841f, 0.20036945f, 0.23762390f, -0.43409503f, -0.02880826f, -0.05499018f,
    0.05469485f, 0.00133080f, -0.10182360f, -0.20601816f, -0.55690777f, -0.53334785f, -0.37241209f, -0.16676825f,
    -0.23749211f, -0.30555832f, -0.14180930f, -0.15262595f, -0.05958588f, -0.04516618f, 0.17487110f, -0.00837650f,
    0.19306827f, 0.11856250f, 0.08469610f, -0.04783026f, 0.21731371f, -0.00056589f, 0.00362315f, -0.00622738f,
    0.19833212f, -0.34262377f, 0.00504562f, 0.00087334f, 0.02808279f, -0.02398332f, 0.01466417f, -0.47636384f,
    -0.25861749f, -0.49195880f, -0.43604025f, -0.38503116f, -0.37715563f, -0.43866792f, -0.49626797f, -0.29811713f,
    -0.29547805f, -0.03081683f, 0.22170390f, -0.12660785f, -0.00397876f, 0.09448063f, 0.06737010f, 0.17093605f,
    0.24963322f, 0.07787935f, 0.02089517f, 0.06988880f, 0.15396942f, 0.16606100f, 0.37856489f, 0.05579527f,
    -0.05589055f, 0.07332388f, 0.14402096f, -0.06035447f, -0.04467536f, -0.06787701f, -0.13109797f, -0.31417030f,
    -0.34224385f, -0.43684277f, -0.49017832f, -0.46670523f, -0.31272534f, -0.03798467f, 0.14214697f, -0.14482626f,
    0.07116477f, 0.19119893f, 0.28737435f, 0.19661316f, 0.11321788f, 0.34523526f, 0.19150686f, 0.01504176f,
    0.35668850f, 0.41961661f, 0.32688767f, 0.14979859f, 0.03105723f, -0.00030253f, -0.02518707f, 0.30262402f,
    0.13198884f, 0.10546265f, 0.00407351f, -0.13935098f, -0.07941615f, -0.29525498f, -0.42209873f, -0.54962510f,
    -0.30939189f, -0.12431522f, -0.02896234f, 0.09160778f, 0.05585972f, -0.03245357f, 0.28833798f, 0.26743421f,
    0.16720293f, 0.35922298f, 0.04935924f, -0.08660300f, 0.18230939f, -0.42225060f, -0.56308872f, -0.07987206f,
    -0.14107803f, 0.15614364f, -0.12135870f, 0.78125119f, 0.45146647f, 0.34618056f, 0.30646321f, 0.02695569f,
    -0.02572856f, 0.05307033f, -0.12060583f, -0.11006851f, -0.10511923f, 0.09963281f, -0.05491707f, -0.05485471f,
    -0.07423616f, -0.04665444f, -0.00606625f, 0.27719989f, 0.12738822f, 0.07083283f, -0.11149240f, -0.13589972f,
    0.14857545f, -0.08757588f, -0.77384555f, 0.04674413f, 0.10980596f, -0.21234918f, 0.03086035f, 0.66785049f,
    0.25548774f, 0.23198454f, 0.22591096f, 0.19742014f, 0.11641631f, 0.16718553f, 0.02795471f, 0.01539754f,
    0.11461971f, -0.07583875f, -0.19776581f, -0.06609808f, 0.11566445f, -0.15220867f, 0.06128895f, 0.16834195f,
    0.16707274f, 0.15204510f, -0.18011014f, 0.05927657f, 0.03333236f, 0.10226604f, -0.12636946f, -0.06131066f,
    0.01642548f, -0.02249718f, -0.19255218f, 0.26396072f, 0.32659161f, 0.21762384f, 0.10702471f, 0.10441034f,
    0.08096232f, 0.09483328f, 0.04201954f, -0.00576441f, -0.09043778f, -0.11783735f, -0.05913004f, -0.10696502f,
    0.14287452f, -0.00871697f, 0.12741107f, 0.07885820f, 0.05199391f, 0.08665463f, 0.12061738f, 0.53236187f,
    0.15358844f, -0.43443403f, 0.00945123f, 0.06591067f, 0.12337285f, -0.11461841f, -0.09456970f, -0.22612089f,
    -0.10709269f, 0.18930021f, 0.17596538f, 0.15179189f, 0.21379824f, 0.22855438f, 0.10039369f, 0.12174466f,
    0.11931890f, -0.00039863f, -0.10864331f, -0.12931362f, -0.03413283f, 0.10585307f, 0.15214445f, 0.07609852f,
    0.21671306f, 0.08904462f, 0.20450608f, 0.19564256f, 0.13819820f, -0.13069630f, -0.07893492f, -0.02295097f,
    0.09478907f, 0.06428620f, -0.08338727f, -0.28530318f, -0.33478460f, -0.36475274f, -0.16079973f, -0.07126590f,
    -0.06831275f, -0.18562862f, 0.01795877f, 0.21458983f, -0.02762159f, 0.04232202f, -0.04123192f, -0.18034320f,
    0.05533601f, 0.02332829f, 0.15019721f, 0.11077530f, -0.03878640f, 0.12167653f, 0.16973397f, 0.09672053f,
    -0.19982485f, -0.04096897f, 0.24509512f, -0.05819106f, -0.05917894f, 0.07960866f, 0.32796252f, 0.36444676f,
    -0.02019797f, -0.08682029f, -0.11324912f, 0.09043647f, 0.06938001f, 0.08031300f, 0.12962191f, 0.07238565f,
    -0.03176075f, 0.09147277f, -0.13940838f, 0.01595465f, 0.25082842f, 0.16213869f, 0.21790978f, 0.06515340f,
    -0.04644372f, 0.04124147f, 0.05028481f, -0.30891618f, 0.05276407f, -0.03565350f, 0.34317228f, -0.06295856f,
    0.04783304f, 0.06424849f, -0.33589083f, 0.23295262f, 0.15713705f, 0.09753182f, 0.18971629f, 0.20299076f,
    0.00203605f, 0.03475076f, -0.23241444f, -0.28499916f, -0.07548364f, -0.11342648f, -0.11499394f, -0.04954903f,
    0.17322582f, -0.04038743f, -0.06667722f, -0.32505453f, -0.20431131f, -0.03576816f, -0.20287918f, -0.11957457f,
    -0.15153570f, -0.02306572f, 0.11329759f, -0.03717079f, 0.04750939f, -0.01060650f, 0.02378127f, 0.03102953f,
    0.27960360f, 0.28454456f, 0.14496034f, 0.12479069f, -0.02215583f, 0.04402345f, -0.17386860f, -0.23805073f,
    -0.01572468f, 0.23873243f, 0.28956056f, 0.05051795f, -0.06770574f, -0.35351652f, -0.33428505f, -0.38375705f,
    -0.08327171f, -0.04584672f, -0.16361690f, -0.09946906f, 0.02067555f, -0.02755251f, 0.03507179f, 0.01252501f,
    -0.01364576f, 0.04419795f, 0.05422643f, 0.10723586f, 0.29844227f, 0.23526451f, 0.21268225f, 0.03366330f,
    0.45984936f, 0.23155358f, -0.01763256f, -0.10663094f, -0.17062320f, 0.02552362f, 0.07972475f, 0.09495655f,
    0.10140669f, 0.01541303f, 0.11406206f, -0.06800485f, -0.11349250f, 0.20513414f, 0.03008972f, 0.01368096f,
    -0.08163241f, -0.00456017f, -0.01862281f, 0.06991491f, -0.04163591f, 0.03116301f, -0.01933763f, -0.04477512f,
    -0.05346484f, 0.01193603f, 0.00060551f, -0.00446573f, -0.02261307f, -0.16073392f, -0.27463040f, -0.14473386f,
    -0.18100330f, -0.21602100f, 0.14911357f, 0.08621716f, 0.21764109f, -0.08315815f, 0.20602484f, -0.10850665f,
    -0.33853397f, -0.00804123f, 0.00172633f, -0.00414453f, 0.00535839f, -0.03361909f, 0.01814339f, 0.12137409f,
    0.05205469f, 0.04058605f, 0.08061954f, -0.06307578f, 0.01740089f, -0.02204813f, 0.01452026f, 0.00571163f,
    -0.10801236f, -0.05701248f, 0.02611313f, -0.00030917f, 0.01196483f, 0.03006788f, 0.00852406f, 0.04867708f,
    0.00516294f, 0.06787439f, 0.03445565f, 0.08249821f, 0.05316016f, 0.05838306f, 0.00078814f, 0.12092286f,
    0.05517681f, 0.02183148f, 0.03822943f, 0.00892845f, -0.10814437f, 0.00922654f, -0.00622585f, 0.02109800f,
    -0.01100722f, 0.08502385f, 0.02678360f, 0.03723272f, 0.05909246f, 0.01580890f, -0.04146348f, 0.01471720f,
    0.07245569f, 0.06331606f, 0.09377192f, 0.02956758f, -0.00669470f, 0.09963228f, 0.06041822f, 0.03560664f,
